you know ||| là_gì ||| 0.000194364 2.01289e-07 3.0857e-05 1.4e-06 ||| 0-0 ||| 2058 12963 1 ||| |||
you know ||| làm ||| 1.63019e-05 1.9901e-08 3.0857e-05 6.548e-05 ||| 0-0 1-0 ||| 24537 12963 1 ||| |||
you know ||| làm_việc với cô ||| 0.0666668 0.00065222 3.0857e-05 5.39912e-08 ||| 0-2 ||| 6 12963 1 ||| |||
you know ||| lúc thu_dọn chiến_trường và cậu biết ||| 0.4 0.185171 3.0857e-05 2.86262e-17 ||| 0-4 1-5 ||| 1 12963 1 ||| |||
you know ||| lúc thu_dọn chiến_trường và cậu biết đấy ||| 0.4 0.185171 3.0857e-05 5.90752e-19 ||| 0-4 1-5 ||| 1 12963 1 ||| |||
you know ||| lúc trước ||| 0.0210526 3.91818e-06 0.000154285 9.3608e-09 ||| 0-0 1-1 ||| 95 12963 5 ||| |||
you know ||| lẽ_ra ||| 0.00127388 1.95807e-05 3.0857e-05 1.842e-05 ||| 0-0 1-0 ||| 314 12963 1 ||| |||
you know ||| mi biết ||| 0.24 0.176028 0.000277714 0.000488888 ||| 0-0 1-1 ||| 15 12963 9 ||| |||
you know ||| mi biết_điều ||| 0.4 0.15779 3.0857e-05 8.48072e-06 ||| 0-0 1-1 ||| 1 12963 1 ||| |||
you know ||| mi biết_được ||| 0.4 0.0950448 3.0857e-05 8.46496e-06 ||| 0-0 1-1 ||| 1 12963 1 ||| |||
you know ||| mi có biết ||| 0.4 0.176028 9.25712e-05 6.94748e-06 ||| 0-0 1-2 ||| 3 12963 3 ||| |||
you know ||| minh ||| 0.0186046 0.000137174 6.1714e-05 1.196e-05 ||| 0-0 1-0 ||| 43 12963 2 ||| |||
you know ||| muốn biết ||| 0.000309358 0.0022604 3.0857e-05 0.00055468 ||| 0-0 1-1 ||| 1293 12963 1 ||| |||
you know ||| muốn biết đấy ||| 0.05 0.0022604 3.0857e-05 1.14468e-05 ||| 0-0 1-1 ||| 8 12963 1 ||| |||
you know ||| muội biết ||| 0.05 0.08707 6.1714e-05 0.000124771 ||| 0-0 1-1 ||| 16 12963 2 ||| |||
you know ||| mà anh biết ||| 0.16 0.167966 6.1714e-05 0.0024255 ||| 0-1 1-2 ||| 5 12963 2 ||| |||
you know ||| mà anh đã biết ||| 0.4 0.167966 3.0857e-05 6.08824e-05 ||| 0-1 1-3 ||| 1 12963 1 ||| |||
you know ||| mà biết ||| 0.0121212 0.00228932 3.0857e-05 0.000325532 ||| 0-0 1-1 ||| 33 12963 1 ||| |||
you know ||| mà bạn biết ||| 0.35 0.333239 0.00137917 0.00229488 ||| 0-1 1-2 ||| 2 445 1 ||| |||
you know ||| mà cháu biết ||| 0.4 0.0972916 6.1714e-05 0.000130719 ||| 0-1 1-2 ||| 2 12963 2 ||| |||
you know ||| mà các bạn biết ||| 0.2 0.124254 3.0857e-05 2.3688e-05 ||| 0-1 0-2 1-3 ||| 2 12963 1 ||| |||
you know ||| mà các bạn biết đấy ||| 0.4 0.124254 3.0857e-05 4.88844e-07 ||| 0-1 0-2 1-3 ||| 1 12963 1 ||| |||
you know ||| mà cậu biết ||| 0.2 0.185171 3.0857e-05 0.000749664 ||| 0-1 1-2 ||| 2 12963 1 ||| |||
you know ||| mà cứ tiếp_tục như_thế này ||| 0.2 1.85334e-05 9.25712e-05 3.54392e-15 ||| 0-1 1-3 ||| 6 12963 3 ||| |||
you know ||| mà cứ tiếp_tục như_thế ||| 0.2 1.85334e-05 9.25712e-05 2.4945e-13 ||| 0-1 1-3 ||| 6 12963 3 ||| |||
you know ||| mà em biết ||| 0.16 0.0988684 6.1714e-05 0.000561904 ||| 0-1 1-2 ||| 5 12963 2 ||| |||
you know ||| mà mày bít ||| 0.04 0.116397 9.25712e-05 1.6682e-07 ||| 0-1 1-2 ||| 30 12963 3 ||| |||
you know ||| mà ||| 0.000151252 1.11748e-06 0.000154285 0.00025146 ||| 0-0 1-0 ||| 13223 12963 5 ||| |||
you know ||| mà ông biết ||| 0.4 0.167318 3.0857e-05 0.000756188 ||| 0-1 1-2 ||| 1 12963 1 ||| |||
you know ||| mày biết chứ ||| 0.4 0.206026 9.25712e-05 0.000166122 ||| 0-0 1-1 ||| 3 12963 3 ||| |||
you know ||| mày biết hông ||| 0.4 0.104117 3.0857e-05 3.61889e-07 ||| 0-0 1-1 1-2 ||| 1 12963 1 ||| |||
you know ||| mày biết không , ||| 0.0181818 0.206026 6.1714e-05 4.68828e-05 ||| 0-0 1-1 ||| 44 12963 2 ||| |||
you know ||| mày biết không ||| 0.276056 0.206026 0.001512 0.00070732 ||| 0-0 1-1 ||| 71 12963 49 ||| |||
you know ||| mày biết ko ||| 0.25 0.206026 0.000154285 1.95749e-05 ||| 0-0 1-1 ||| 8 12963 5 ||| |||
you know ||| mày biết là ||| 0.186667 0.206026 0.000215999 0.000349556 ||| 0-0 1-1 ||| 15 12963 7 ||| |||
you know ||| mày biết mà ||| 0.12 0.206026 9.25712e-05 0.000398019 ||| 0-0 1-1 ||| 10 12963 3 ||| |||
you know ||| mày biết mày ||| 0.171428 0.206026 9.25712e-05 9.6298e-06 ||| 0-0 1-1 ||| 7 12963 3 ||| |||
you know ||| mày biết mày đang ||| 0.4 0.206026 9.25712e-05 3.20866e-08 ||| 0-0 1-1 ||| 3 12963 3 ||| |||
you know ||| mày biết rồi ||| 0.4 0.206026 6.1714e-05 0.000287411 ||| 0-0 1-1 ||| 2 12963 2 ||| |||
you know ||| mày biết rồi đấy ||| 0.4 0.206026 3.0857e-05 5.93124e-06 ||| 0-0 1-1 ||| 1 12963 1 ||| |||
you know ||| mày biết sao ||| 0.133333 0.206026 3.0857e-05 0.000162596 ||| 0-0 1-1 ||| 3 12963 1 ||| |||
you know ||| mày biết thứ_gì ||| 0.4 0.206026 3.0857e-05 1.68333e-06 ||| 0-0 1-1 ||| 1 12963 1 ||| |||
you know ||| mày biết ||| 0.309174 0.206026 0.0103988 0.0137079 ||| 0-0 1-1 ||| 436 12963 337 ||| |||
you know ||| mày biết đó ||| 0.4 0.206026 0.000246856 0.000326087 ||| 0-0 1-1 ||| 8 12963 8 ||| |||
you know ||| mày biết đấy ||| 0.344828 0.206026 0.000771428 0.000282886 ||| 0-0 1-1 ||| 29 12963 25 ||| |||
you know ||| mày biết_điều ||| 0.32 0.18468 0.000123428 0.000237791 ||| 0-0 1-1 ||| 5 12963 4 ||| |||
you know ||| mày biết_điều đó ||| 0.2 0.18468 6.1714e-05 5.65664e-06 ||| 0-0 1-1 ||| 4 12963 2 ||| |||
you know ||| mày bít ||| 0.04 0.116397 9.25712e-05 5.74532e-06 ||| 0-0 1-1 ||| 30 12963 3 ||| |||
you know ||| mày có biết ||| 0.0619048 0.206026 0.00040114 0.0001948 ||| 0-0 1-2 ||| 84 12963 13 ||| |||
you know ||| mày có hiểu ||| 0.0470588 0.035053 6.1714e-05 5.91048e-06 ||| 0-0 1-2 ||| 17 12963 2 ||| |||
you know ||| mày có nghe ||| 0.02 0.000330905 3.0857e-05 1.69233e-08 ||| 0-0 1-1 1-2 ||| 20 12963 1 ||| |||
you know ||| mày có ||| 0.00079208 0.000195042 3.0857e-05 3.04979e-05 ||| 0-0 1-1 ||| 505 12963 1 ||| |||
you know ||| mày hiểu chứ ||| 0.0266667 0.035053 3.0857e-05 5.04036e-06 ||| 0-0 1-1 ||| 15 12963 1 ||| |||
you know ||| mày hiểu ||| 0.0756756 0.035053 0.000215999 0.000415916 ||| 0-0 1-1 ||| 37 12963 7 ||| |||
you know ||| mày hẳn biết ||| 0.4 0.206026 9.25712e-05 2.52637e-06 ||| 0-0 1-2 ||| 3 12963 3 ||| |||
you know ||| mày không nghe_lời ||| 0.1 0.00073424 3.0857e-05 2.27844e-08 ||| 0-0 1-2 ||| 4 12963 1 ||| |||
you know ||| mày nghĩ ||| 0.00148148 0.00120462 3.0857e-05 3.1381e-05 ||| 0-0 1-1 ||| 270 12963 1 ||| |||
you know ||| mày nên biết ||| 0.145454 0.206026 0.000123428 1.5575e-05 ||| 0-0 1-2 ||| 11 12963 4 ||| |||
you know ||| mày nên ||| 0.00444444 0.000216188 3.0857e-05 3.9774e-06 ||| 0-0 1-1 ||| 90 12963 1 ||| |||
you know ||| mày thấy ||| 0.0166667 0.00160363 9.25712e-05 4.24316e-05 ||| 0-0 1-1 ||| 72 12963 3 ||| |||
you know ||| mày thấy đấy ||| 0.0347826 0.00160363 6.1714e-05 8.75652e-07 ||| 0-0 1-1 ||| 23 12963 2 ||| |||
you know ||| mày ||| 2.89289e-05 0.00100374 3.0857e-05 0.0167258 ||| 0-0 ||| 13827 12963 1 ||| |||
you know ||| mày đã biết ||| 0.1 0.206026 3.0857e-05 0.000344084 ||| 0-0 1-2 ||| 4 12963 1 ||| |||
you know ||| máy_móc ||| 0.0036036 1.45159e-05 6.1714e-05 1.196e-05 ||| 0-0 1-0 ||| 222 12963 2 ||| |||
you know ||| mình biết ||| 0.1256 0.0173757 0.00184203 0.0049554 ||| 0-0 1-1 ||| 6 445 1 ||| |||
you know ||| mình hiểu rõ ||| 0.6 0.000656178 0.00134831 1.20732e-06 ||| 0-0 1-1 1-2 ||| 1 445 1 ||| |||
you know ||| mình quen_biết nghe thì hãy ||| 0.6 0.00553145 0.00134831 2.85569e-14 ||| 0-0 1-1 ||| 1 445 1 ||| |||
you know ||| mình quen_biết nghe thì ||| 0.6 0.00553145 0.00134831 3.06767e-11 ||| 0-0 1-1 ||| 1 445 1 ||| |||
you know ||| mình quen_biết nghe ||| 0.6 0.00553145 0.00134831 1.1156e-08 ||| 0-0 1-1 ||| 1 445 1 ||| |||
you know ||| mình quen_biết ||| 0.6 0.00553145 0.00134831 2.97097e-05 ||| 0-0 1-1 ||| 1 445 1 ||| |||
you know ||| mấy anh biết ||| 0.4 0.0866772 3.0857e-05 2.54364e-05 ||| 0-0 0-1 1-2 ||| 1 12963 1 ||| |||
you know ||| mấy anh_bạn biết ko ||| 0.4 0.00734728 3.0857e-05 4.88224e-11 ||| 0-0 0-1 1-2 ||| 1 12963 1 ||| |||
you know ||| mấy anh_bạn biết ||| 0.4 0.00734728 3.0857e-05 3.41894e-08 ||| 0-0 0-1 1-2 ||| 1 12963 1 ||| |||
you know ||| mấy con ||| 0.016 0.000339104 3.0857e-05 9.24868e-06 ||| 0-1 ||| 25 12963 1 ||| |||
you know ||| mấy cưng biết ||| 0.4 0.00598192 3.0857e-05 1.20886e-08 ||| 0-0 0-1 1-2 ||| 1 12963 1 ||| |||
you know ||| mấy cậu biết ||| 0.4 0.09528 3.0857e-05 7.8618e-06 ||| 0-0 0-1 1-2 ||| 1 12963 1 ||| |||
you know ||| mấy_người biết ||| 0.24 0.0996248 9.25712e-05 0.000222332 ||| 0-0 1-1 ||| 5 12963 3 ||| |||
you know ||| mẹ biết con ||| 0.0235294 0.0285481 3.0857e-05 2.95803e-06 ||| 0-0 1-1 ||| 17 12963 1 ||| |||
you know ||| mẹ biết con đã ||| 0.2 0.0285481 3.0857e-05 7.425e-08 ||| 0-0 1-1 ||| 2 12963 1 ||| |||
you know ||| mẹ biết hội ||| 0.2 0.00599544 0.00134831 7.4895e-08 ||| 0-0 1-1 ||| 3 445 1 ||| |||
you know ||| mẹ biết không ||| 0.666667 0.0345435 0.00137917 6.55833e-05 ||| 0-0 1-1 ||| 1 445 1 ||| |||
you know ||| mẹ biết là ||| 0.05 0.0285481 3.0857e-05 2.94168e-05 ||| 0-0 1-1 ||| 8 12963 1 ||| |||
you know ||| mẹ biết mà ||| 0.145454 0.0285481 0.000123428 3.34952e-05 ||| 0-0 1-1 ||| 11 12963 4 ||| |||
you know ||| mẹ biết rồi ||| 0.1 0.0285481 3.0857e-05 2.4187e-05 ||| 0-0 1-1 ||| 4 12963 1 ||| |||
you know ||| mẹ biết ||| 0.217284 0.0345435 0.00374577 0.00179208 ||| 0-0 1-1 ||| 9 445 2 ||| |||
you know ||| mẹ biết đó ||| 0.4 0.0285481 6.1714e-05 2.74418e-05 ||| 0-0 1-1 ||| 2 12963 2 ||| |||
you know ||| mẹ biết đấy ||| 0.171428 0.0285481 9.25712e-05 2.38062e-05 ||| 0-0 1-1 ||| 7 12963 3 ||| |||
you know ||| mẹ có biết ||| 0.3 0.00599544 0.00134831 1.76696e-05 ||| 0-0 1-2 ||| 2 445 1 ||| |||
you know ||| mẹ nghĩ ||| 0.0112676 0.000166918 6.1714e-05 2.64086e-06 ||| 0-0 1-1 ||| 71 12963 2 ||| |||
you know ||| mẹ vẫn ||| 0.0705884 2.98624e-05 9.25712e-05 2.23239e-07 ||| 0-0 1-1 ||| 17 12963 3 ||| |||
you know ||| mọi thứyou know ||| 0.4 0.2 6.1714e-05 8.25808e-14 ||| 0-1 1-2 ||| 2 12963 2 ||| |||
you know ||| mọi_người biết không ||| 0.2 0.0218313 0.000123428 3.72821e-05 ||| 0-0 1-1 ||| 8 12963 4 ||| |||
you know ||| mọi_người biết ||| 0.117647 0.0218313 0.000771428 0.000722528 ||| 0-0 1-1 ||| 85 12963 25 ||| |||
you know ||| mọi_người biết đấy ||| 0.355556 0.0218313 0.000246856 1.49106e-05 ||| 0-0 1-1 ||| 9 12963 8 ||| |||
you know ||| mọi_người có biết nó ||| 0.2 0.0218313 3.0857e-05 3.76014e-08 ||| 0-0 1-2 ||| 2 12963 1 ||| |||
you know ||| mọi_người có biết ||| 0.1 0.0218313 3.0857e-05 1.02677e-05 ||| 0-0 1-2 ||| 4 12963 1 ||| |||
you know ||| mọi_người cũng biết ||| 0.4 0.0218313 9.25712e-05 5.57208e-06 ||| 0-0 1-2 ||| 3 12963 3 ||| |||
you know ||| mọi_người thấy ||| 0.0195122 0.000169927 6.1714e-05 2.23653e-06 ||| 0-0 1-1 ||| 41 12963 2 ||| |||
you know ||| mọi_người được biết ||| 0.4 0.0218313 3.0857e-05 1.39149e-05 ||| 0-0 1-2 ||| 1 12963 1 ||| |||
you know ||| mọi_người ạ ||| 0.3 6.52132e-05 9.25712e-05 9.31852e-08 ||| 0-0 1-1 ||| 4 12963 3 ||| |||
you know ||| một ||| 5.9046e-06 1.00008e-07 3.0857e-05 1.056e-05 ||| 1-0 ||| 67744 12963 1 ||| |||
you know ||| mới ||| 7.17748e-05 2.79724e-06 3.0857e-05 3.172e-05 ||| 1-0 ||| 5573 12963 1 ||| |||
you know ||| nghe này ||| 0.00026264 1.08642e-05 3.0857e-05 4.25072e-06 ||| 0-0 1-0 ||| 1523 12963 1 ||| |||
you know ||| nghe ||| 0.000268546 1.08642e-05 0.000123428 0.0002992 ||| 0-0 1-0 ||| 5958 12963 4 ||| |||
you know ||| nghe đây ||| 0.00197694 1.08642e-05 9.25712e-05 1.9077e-06 ||| 0-0 1-0 ||| 607 12963 3 ||| |||
you know ||| ngài biết chứ ||| 0.133333 0.112329 3.0857e-05 4.03312e-05 ||| 0-0 1-1 ||| 3 12963 1 ||| |||
you know ||| ngài biết không ||| 0.266667 0.112329 6.1714e-05 0.000171724 ||| 0-0 1-1 ||| 3 12963 2 ||| |||
you know ||| ngài biết mà ||| 0.4 0.112329 3.0857e-05 9.66316e-05 ||| 0-0 1-1 ||| 1 12963 1 ||| |||
you know ||| ngài biết rằng ||| 0.4 0.05772 3.0857e-05 1.64458e-05 ||| 0-0 1-1 1-2 ||| 1 12963 1 ||| |||
you know ||| ngài biết ||| 0.857471 0.155139 0.00307631 0.00484658 ||| 0-0 1-1 ||| 1 445 1 ||| |||
you know ||| ngài biết đấy ||| 0.333333 0.112329 0.000154285 6.86796e-05 ||| 0-0 1-1 ||| 6 12963 5 ||| |||
you know ||| ngài biết_điều ||| 0.4 0.100691 3.0857e-05 5.77312e-05 ||| 0-0 1-1 ||| 1 12963 1 ||| |||
you know ||| ngài cũng biết ||| 0.1 0.112329 3.0857e-05 2.56654e-05 ||| 0-0 1-2 ||| 4 12963 1 ||| |||
you know ||| ngài hiểu ||| 0.15 0.0191116 9.25712e-05 0.000100976 ||| 0-0 1-1 ||| 8 12963 3 ||| |||
you know ||| ngài quen ||| 0.4 0.0425804 3.0857e-05 1.77056e-05 ||| 0-0 1-1 ||| 1 12963 1 ||| |||
you know ||| ngài rành ||| 0.4 0.0398588 3.0857e-05 2.3609e-06 ||| 0-0 1-1 ||| 1 12963 1 ||| |||
you know ||| ngài rất biết ||| 0.2 0.112329 9.25712e-05 6.04268e-06 ||| 0-0 1-2 ||| 6 12963 3 ||| |||
you know ||| ngài thấy ||| 0.0347826 0.000874332 6.1714e-05 1.03016e-05 ||| 0-0 1-1 ||| 23 12963 2 ||| |||
you know ||| ngài thấy đấy ||| 0.133333 0.000874332 3.0857e-05 2.12592e-07 ||| 0-0 1-1 ||| 3 12963 1 ||| |||
you know ||| ngài ||| 0.000344753 0.00054726 0.000123428 0.00406072 ||| 0-0 ||| 4641 12963 4 ||| |||
you know ||| ngài ông có biết ||| 0.2 0.139824 3.0857e-05 3.75715e-06 ||| 0-0 0-1 1-3 ||| 2 12963 1 ||| |||
you know ||| ngài đã biết ||| 0.2 0.112329 3.0857e-05 8.35372e-05 ||| 0-0 1-2 ||| 2 12963 1 ||| |||
you know ||| ngươi biết không ||| 0.177778 0.199538 0.000123428 0.000315001 ||| 0-0 1-1 ||| 9 12963 4 ||| |||
you know ||| ngươi biết là ||| 0.133333 0.199538 3.0857e-05 0.000155673 ||| 0-0 1-1 ||| 3 12963 1 ||| |||
you know ||| ngươi biết rằng ||| 0.4 0.102532 3.0857e-05 3.01672e-05 ||| 0-0 1-1 1-2 ||| 1 12963 1 ||| |||
you know ||| ngươi biết ||| 0.292754 0.199538 0.00311656 0.00610476 ||| 0-0 1-1 ||| 138 12963 101 ||| |||
you know ||| ngươi biết đấy ||| 0.228572 0.199538 0.000123428 0.000125982 ||| 0-0 1-1 ||| 7 12963 4 ||| |||
you know ||| ngươi biết_rõ ||| 0.133333 0.115217 3.0857e-05 3.52341e-05 ||| 0-0 1-1 ||| 3 12963 1 ||| |||
you know ||| ngươi có biết ||| 0.075 0.101886 0.000185142 3.99006e-05 ||| 0-0 0-1 1-2 ||| 32 12963 6 ||| |||
you know ||| ngươi cũng biết ||| 0.16 0.199538 6.1714e-05 7.74328e-06 ||| 0-0 1-1 1-2 ||| 5 12963 2 ||| |||
you know ||| ngươi phải_biết ||| 0.4 0.102248 9.25712e-05 5.5508e-05 ||| 0-0 1-1 ||| 3 12963 3 ||| |||
you know ||| ngươi quen ||| 0.4 0.0756384 3.0857e-05 3.24781e-05 ||| 0-0 1-1 ||| 1 12963 1 ||| |||
you know ||| ngươi ||| 0.000133623 0.000972132 6.1714e-05 0.00744876 ||| 0-0 ||| 5987 12963 2 ||| |||
you know ||| ngươi đã biết ||| 0.4 0.199538 0.000123428 0.000153236 ||| 0-0 1-2 ||| 4 12963 4 ||| |||
you know ||| người biết ||| 0.0421052 0.0154111 0.00030857 0.00287428 ||| 0-0 1-1 ||| 95 12963 10 ||| |||
you know ||| người biết đấy ||| 0.4 0.0154111 9.25712e-05 5.93156e-05 ||| 0-0 1-1 ||| 3 12963 3 ||| |||
you know ||| người ||| 2.41124e-05 6.30984e-06 3.0857e-05 0.00181168 ||| 0-0 1-0 ||| 16589 12963 1 ||| |||
you know ||| người đã biết ||| 0.24 0.0154111 9.25712e-05 7.21476e-05 ||| 0-0 1-2 ||| 5 12963 3 ||| |||
you know ||| người_anh biết ||| 0.3 0.00883072 9.25712e-05 2.3833e-05 ||| 0-0 1-1 ||| 4 12963 3 ||| |||
you know ||| người_bạn quen_biết ||| 0.6 0.00323276 0.00134831 1.40272e-06 ||| 0-0 1-1 ||| 1 445 1 ||| |||
you know ||| nhiều ||| 0.000336134 1.8731e-07 0.000185142 3.732e-05 ||| 0-0 1-0 ||| 7140 12963 6 ||| |||
you know ||| nhiệt_tình của chúng_ta ||| 0.05 1.65614e-05 6.1714e-05 1.67049e-10 ||| 0-2 ||| 16 12963 2 ||| |||
you know ||| nhà_trường có ||| 0.133333 0.000281956 6.1714e-05 1.38302e-07 ||| 1-0 0-1 ||| 6 12963 2 ||| |||
you know ||| nhé ||| 0.00042328 2.35811e-05 3.0857e-05 0.00020772 ||| 0-0 1-0 ||| 945 12963 1 ||| |||
you know ||| như anh biết ||| 0.0727272 0.167966 6.1714e-05 0.000232478 ||| 0-1 1-2 ||| 11 12963 2 ||| |||
you know ||| như anh biết đấy ||| 0.1 0.167966 3.0857e-05 4.79756e-06 ||| 0-1 1-2 ||| 4 12963 1 ||| |||
you know ||| như bạn biết ||| 0.276522 0.333239 0.00162603 0.000743096 ||| 0-1 1-2 ||| 5 445 1 ||| |||
you know ||| như bạn biết đó ||| 0.8 0.261844 0.00137917 4.37056e-06 ||| 0-1 1-2 1-3 ||| 1 445 1 ||| |||
you know ||| như bạn đã biết ||| 0.08 0.09529 3.0857e-05 7.64752e-08 ||| 0-0 0-1 1-3 ||| 5 12963 1 ||| |||
you know ||| như chúng_ta đã biết ||| 0.0307692 0.00191102 3.0857e-05 2.27602e-09 ||| 0-0 0-1 1-3 ||| 13 12963 1 ||| |||
you know ||| như các bạn biết ||| 0.123077 0.124254 0.000246856 2.27044e-06 ||| 0-1 0-2 1-3 ||| 26 12963 8 ||| |||
you know ||| như các bạn biết đấy ||| 0.1 0.124254 3.0857e-05 4.68544e-08 ||| 0-1 0-2 1-3 ||| 4 12963 1 ||| |||
you know ||| như các bạn cũng biết ||| 0.2 0.190158 3.0857e-05 4.32996e-09 ||| 0-2 1-4 ||| 2 12963 1 ||| |||
you know ||| như các bạn đã biết ||| 0.05 0.124254 6.1714e-05 5.69904e-08 ||| 0-1 0-2 1-4 ||| 16 12963 2 ||| |||
you know ||| như em biết ||| 0.08 0.0988684 3.0857e-05 5.38572e-05 ||| 0-1 1-2 ||| 5 12963 1 ||| |||
you know ||| như quý_vị biết ||| 0.266667 0.107994 6.1714e-05 6.20492e-08 ||| 0-0 0-1 1-2 ||| 3 12963 2 ||| |||
you know ||| như ông biết ||| 0.4 0.167318 9.25712e-05 7.24788e-05 ||| 0-1 1-2 ||| 3 12963 3 ||| |||
you know ||| như_thế ||| 0.000422684 9.32028e-07 9.25712e-05 4.392e-05 ||| 0-0 1-0 ||| 2839 12963 3 ||| |||
you know ||| nhưng bạn biết ||| 0.0173913 0.0954572 3.0857e-05 9.23076e-06 ||| 0-0 0-1 1-2 ||| 23 12963 1 ||| |||
you know ||| nhưng hình_như ông biết ||| 0.4 0.167318 3.0857e-05 3.63395e-09 ||| 0-2 1-3 ||| 1 12963 1 ||| |||
you know ||| nhưng đây đâu_phải canada , ||| 0.133333 9.84028e-06 3.0857e-05 2.80515e-17 ||| 0-1 1-2 ||| 3 12963 1 ||| |||
you know ||| nhưng đây đâu_phải canada ||| 0.24 1.23022e-05 9.25712e-05 1.16986e-15 ||| 0-2 ||| 5 12963 3 ||| |||
you know ||| nhưng đây đâu_phải ||| 0.24 1.23022e-05 9.25712e-05 6.09304e-11 ||| 0-2 ||| 5 12963 3 ||| |||
you know ||| nhận_ra ||| 0.000465116 0.000187504 6.1714e-05 0.0006448 ||| 1-0 ||| 1720 12963 2 ||| |||
you know ||| nhận_thấy ||| 0.00223464 7.70056e-05 6.1714e-05 5.284e-05 ||| 1-0 ||| 358 12963 2 ||| |||
you know ||| nhỉ ||| 0.00162602 2.66987e-06 6.1714e-05 2.372e-05 ||| 0-0 1-0 ||| 492 12963 2 ||| |||
you know ||| nhớ cái ||| 0.0137931 8.76316e-05 3.0857e-05 2.44011e-06 ||| 1-0 ||| 29 12963 1 ||| |||
you know ||| nhớ ||| 0.000250941 8.76316e-05 6.1714e-05 0.00075048 ||| 1-0 ||| 3188 12963 2 ||| |||
you know ||| nàng biết ||| 0.142857 0.0982168 0.000154285 0.000654472 ||| 0-0 1-1 ||| 14 12963 5 ||| |||
you know ||| nàng biết đó ||| 0.4 0.0982168 9.25712e-05 1.55687e-05 ||| 0-0 1-1 ||| 3 12963 3 ||| |||
you know ||| nào cô biết ||| 0.4 0.133874 9.25712e-05 0.000222735 ||| 0-1 1-2 ||| 3 12963 3 ||| |||
you know ||| này , biết ||| 0.266667 0.000387697 6.1714e-05 6.84248e-06 ||| 0-0 1-2 ||| 3 12963 2 ||| |||
you know ||| này cô ||| 0.0235294 3.83919e-05 3.0857e-05 9.8286e-06 ||| 1-0 0-1 ||| 17 12963 1 ||| |||
you know ||| này cậu ||| 0.0615384 5.31028e-05 6.1714e-05 9.15792e-06 ||| 1-0 0-1 ||| 13 12963 2 ||| |||
you know ||| này ||| 7.35408e-05 1.11182e-07 0.000185142 0.00012112 ||| 0-0 1-0 ||| 32635 12963 6 ||| |||
you know ||| nên cậu biết ||| 0.4 0.0932716 3.0857e-05 6.43144e-06 ||| 0-0 0-1 1-2 ||| 1 12963 1 ||| |||
you know ||| nên cậu biết đó ||| 0.4 0.0932716 3.0857e-05 1.52992e-07 ||| 0-0 0-1 1-2 ||| 1 12963 1 ||| |||
you know ||| nó anh biết ||| 0.4 0.167966 3.0857e-05 0.000305913 ||| 0-1 1-2 ||| 1 12963 1 ||| |||
you know ||| nó anh biết đó ||| 0.4 0.167966 3.0857e-05 7.27712e-06 ||| 0-1 1-2 ||| 1 12963 1 ||| |||
you know ||| nó chỉ ||| 0.00106383 3.91555e-08 3.0857e-05 2.62667e-08 ||| 0-0 0-1 1-1 ||| 376 12963 1 ||| |||
you know ||| nó ||| 7.7168e-06 1.76003e-06 3.0857e-05 0.00010796 ||| 0-0 ||| 51835 12963 1 ||| |||
you know ||| nói ||| 2.17652e-05 2.10105e-05 3.0857e-05 0.00060344 ||| 0-0 ||| 18378 12963 1 ||| |||
you know ||| nông_nổi ||| 0.0666668 0.000673452 3.0857e-05 1.056e-05 ||| 1-0 ||| 6 12963 1 ||| |||
you know ||| nếu ||| 3.22074e-05 3.18522e-05 6.1714e-05 0.00094388 ||| 0-0 ||| 24839 12963 2 ||| |||
you know ||| nổi_tiếng với ||| 0.0242424 1.75546e-05 6.1714e-05 8.7156e-08 ||| 1-0 ||| 33 12963 2 ||| |||
you know ||| nổi_tiếng ||| 0.00118871 1.75546e-05 6.1714e-05 2.116e-05 ||| 1-0 ||| 673 12963 2 ||| |||
you know ||| nữ_hoàng biết ||| 0.4 0.0029303 3.0857e-05 9.0808e-06 ||| 0-0 1-1 ||| 1 12963 1 ||| |||
you know ||| phài không ||| 0.4 0.00277778 3.0857e-05 3.08564e-07 ||| 0-0 1-0 ||| 1 12963 1 ||| |||
you know ||| phài ||| 0.0571428 0.00277778 3.0857e-05 5.98e-06 ||| 0-0 1-0 ||| 7 12963 1 ||| |||
you know ||| phải_không ||| 0.000526176 1.63017e-05 0.000154285 0.00073876 ||| 0-0 1-0 ||| 3801 12963 5 ||| |||
you know ||| phải_không ạ ||| 0.0210526 0.000128029 3.0857e-05 9.0908e-07 ||| 0-0 ||| 19 12963 1 ||| |||
you know ||| phẫn_nộ ||| 0.02 2.71376e-05 0.00134831 0.0002124 ||| 1-0 ||| 30 445 1 ||| |||
you know ||| phụ_nữ anh biết ||| 0.4 0.167966 3.0857e-05 7.37612e-06 ||| 0-1 1-2 ||| 1 12963 1 ||| |||
you know ||| phụ_nữ anh biết đó ||| 0.4 0.167966 3.0857e-05 1.75465e-07 ||| 0-1 1-2 ||| 1 12963 1 ||| |||
you know ||| quí_vị biết ||| 0.4 0.168707 9.25712e-05 0.000110018 ||| 0-0 1-1 ||| 3 12963 3 ||| |||
you know ||| quí_vị biết đó ||| 0.4 0.168707 3.0857e-05 2.61714e-06 ||| 0-0 1-1 ||| 1 12963 1 ||| |||
you know ||| quí_vị biết đấy ||| 0.4 0.168707 3.0857e-05 2.27042e-06 ||| 0-0 1-1 ||| 1 12963 1 ||| |||
you know ||| quí_vị đã biết ||| 0.3 0.088149 0.00134831 1.36628e-05 ||| 0-0 1-2 ||| 2 445 1 ||| |||
you know ||| quý_vị biết ||| 0.288889 0.107994 0.00040114 0.00054334 ||| 0-0 1-1 ||| 18 12963 13 ||| |||
you know ||| quý_vị biết đấy ||| 0.4 0.107994 0.000123428 1.12127e-05 ||| 0-0 1-1 ||| 4 12963 4 ||| |||
you know ||| quý_vị biết_được ||| 0.4 0.0583104 3.0857e-05 9.4078e-06 ||| 0-0 1-1 ||| 1 12963 1 ||| |||
you know ||| quý_vị cũng biết ||| 0.4 0.107994 6.1714e-05 4.19016e-06 ||| 0-0 1-2 ||| 2 12963 2 ||| |||
you know ||| quý_vị thấy là ||| 0.1 0.000840592 3.0857e-05 4.2888e-08 ||| 0-0 1-1 ||| 4 12963 1 ||| |||
you know ||| quý_vị thấy ||| 0.0285714 0.000840592 3.0857e-05 1.68186e-06 ||| 0-0 1-1 ||| 14 12963 1 ||| |||
you know ||| quý_vị đã biết ||| 0.4 0.107994 0.000154285 1.36384e-05 ||| 0-0 1-2 ||| 5 12963 5 ||| |||
you know ||| ra , cho tôi ra ||| 0.2 9.34688e-08 3.0857e-05 9.81388e-14 ||| 0-3 1-4 ||| 2 12963 1 ||| |||
you know ||| rõ_ràng cưng ạ ? . cháu biết ||| 0.4 0.0972916 3.0857e-05 1.72728e-19 ||| 0-5 1-6 ||| 1 12963 1 ||| |||
you know ||| rất vui khi được làm_việc với cô ||| 0.133333 0.00065222 3.0857e-05 5.33772e-19 ||| 0-6 ||| 3 12963 1 ||| |||
you know ||| rằng ||| 0.000306796 0.000131133 0.000154285 0.00197664 ||| 1-0 ||| 6519 12963 5 ||| |||
you know ||| rồi cô sẽ biết ||| 0.4 0.0695456 3.0857e-05 5.33828e-07 ||| 0-0 0-1 1-3 ||| 1 12963 1 ||| |||
you know ||| rồi ||| 9.42656e-05 2.54172e-05 9.25712e-05 0.00113352 ||| 0-0 ||| 12730 12963 3 ||| |||
you know ||| sao anh biết ||| 0.00239521 0.0854752 3.0857e-05 8.55564e-05 ||| 0-0 0-1 1-2 ||| 167 12963 1 ||| |||
you know ||| sau ||| 0.000101523 7.8368e-06 3.0857e-05 4.844e-05 ||| 0-0 ||| 3940 12963 1 ||| |||
you know ||| sau_đó . bạn biết ||| 0.4 0.190158 3.0857e-05 2.3219e-08 ||| 0-2 1-3 ||| 1 12963 1 ||| |||
you know ||| sơ biết ||| 0.4 0.11196 6.1714e-05 0.00015198 ||| 0-0 1-1 ||| 2 12963 2 ||| |||
you know ||| sơ biết_được ||| 0.4 0.0604516 3.0857e-05 2.6315e-06 ||| 0-0 1-1 ||| 1 12963 1 ||| |||
you know ||| sẽ biết_được mình ||| 0.04 0.0025566 3.0857e-05 1.45464e-07 ||| 1-1 ||| 10 12963 1 ||| |||
you know ||| sẽ biết_được ||| 0.0114286 0.0025566 3.0857e-05 3.85888e-05 ||| 1-1 ||| 35 12963 1 ||| |||
you know ||| sẽ cảm_ơn tôi sau_đó . bạn biết ||| 0.4 0.190158 3.0857e-05 6.75156e-17 ||| 0-5 1-6 ||| 1 12963 1 ||| |||
you know ||| sếp biết là ||| 0.4 0.00933188 3.0857e-05 2.25628e-06 ||| 0-0 1-1 ||| 1 12963 1 ||| |||
you know ||| sếp biết ||| 0.4 0.00933188 0.000123428 8.84804e-05 ||| 0-0 1-1 ||| 4 12963 4 ||| |||
you know ||| ta biết ||| 0.00149533 0.00506688 6.1714e-05 0.000639752 ||| 0-0 1-1 ||| 535 12963 2 ||| |||
you know ||| ta có_thể biết ||| 0.2 0.00506688 3.0857e-05 1.31879e-06 ||| 0-0 1-2 ||| 2 12963 1 ||| |||
you know ||| ta ||| 3.18649e-05 2.46853e-05 6.1714e-05 0.0007806 ||| 0-0 ||| 25106 12963 2 ||| |||
you know ||| ta đã biết ||| 0.00888888 0.00506688 3.0857e-05 1.60585e-05 ||| 0-0 1-2 ||| 45 12963 1 ||| |||
you know ||| tao biết ||| 0.00126183 0.00093772 3.0857e-05 4.87804e-05 ||| 0-0 1-1 ||| 317 12963 1 ||| |||
you know ||| thu_dọn chiến_trường và cậu biết ||| 0.2 0.185171 3.0857e-05 4.23716e-14 ||| 0-3 1-4 ||| 2 12963 1 ||| |||
you know ||| thu_dọn chiến_trường và cậu biết đấy ||| 0.2 0.185171 3.0857e-05 8.74408e-16 ||| 0-3 1-4 ||| 2 12963 1 ||| |||
you know ||| thì biết ngay ||| 0.4 0.00874312 6.1714e-05 6.17508e-07 ||| 0-0 1-1 ||| 2 12963 2 ||| |||
you know ||| thì biết ||| 0.105882 0.00874312 0.000277714 0.0006647 ||| 0-0 1-1 ||| 34 12963 9 ||| |||
you know ||| thì chị biết ||| 0.266667 0.059478 6.1714e-05 3.84768e-06 ||| 0-0 0-1 1-2 ||| 3 12963 2 ||| |||
you know ||| thì chị biết đấy ||| 0.4 0.059478 6.1714e-05 7.94036e-08 ||| 0-0 0-1 1-2 ||| 2 12963 2 ||| |||
you know ||| thì cô ||| 0.0107143 0.000256679 9.25712e-05 1.87612e-05 ||| 1-0 0-1 ||| 112 12963 3 ||| |||
you know ||| thì cần_thiết phải có_lời ||| 0.3 1.77155e-07 0.00134831 7.67418e-15 ||| 0-0 ||| 2 445 1 ||| |||
you know ||| thì cần_thiết phải có_lời “ cảnh_cáo ||| 0.3 1.77155e-07 0.00134831 1.47522e-23 ||| 0-0 ||| 2 445 1 ||| |||
you know ||| thì cần_thiết phải có_lời “ ||| 0.3 1.77155e-07 0.00134831 3.78261e-18 ||| 0-0 ||| 2 445 1 ||| |||
you know ||| thì cần_thiết phải ||| 0.2 1.77155e-07 0.00134831 3.26561e-10 ||| 0-0 ||| 3 445 1 ||| |||
you know ||| thì cần_thiết ||| 0.15 1.77155e-07 0.00134831 9.31782e-08 ||| 0-0 ||| 4 445 1 ||| |||
you know ||| thì cậu biết ||| 0.4 0.0969572 3.0857e-05 5.235e-05 ||| 0-0 0-1 1-2 ||| 1 12963 1 ||| |||
you know ||| thì thấy ||| 0.05 6.80532e-05 3.0857e-05 2.05753e-06 ||| 0-0 1-1 ||| 8 12963 1 ||| |||
you know ||| thì ||| 9.59232e-05 1.77155e-07 0.00134831 0.00038424 ||| 0-0 ||| 6255 445 1 ||| |||
you know ||| thôi cô biết ||| 0.4 0.133874 3.0857e-05 0.00025039 ||| 0-1 1-2 ||| 1 12963 1 ||| |||
you know ||| thôi cô biết đấy ||| 0.4 0.133874 3.0857e-05 5.1672e-06 ||| 0-1 1-2 ||| 1 12963 1 ||| |||
you know ||| thư_mục ||| 0.133333 0.0004152 9.25712e-05 4.16e-06 ||| 0-0 ||| 9 12963 3 ||| |||
you know ||| thư_mục đấy ||| 0.2 0.0004152 9.25712e-05 8.58488e-08 ||| 0-0 ||| 6 12963 3 ||| |||
you know ||| thưa bà ||| 0.00104987 7.274e-05 3.0857e-05 2.17887e-07 ||| 1-0 0-1 ||| 381 12963 1 ||| |||
you know ||| thấy không ||| 0.00111111 2.99083e-05 3.0857e-05 3.65355e-05 ||| 0-0 1-0 ||| 360 12963 1 ||| |||
you know ||| thấy ||| 5.36336e-05 2.99083e-05 6.1714e-05 0.00070806 ||| 0-0 1-0 ||| 14916 12963 2 ||| |||
you know ||| thấy đó ||| 0.00258064 2.99083e-05 3.0857e-05 1.68435e-05 ||| 0-0 1-0 ||| 155 12963 1 ||| |||
you know ||| thầy biết ||| 0.833333 0.114972 0.00291263 0.00107289 ||| 0-0 1-1 ||| 2 445 2 ||| |||
you know ||| thầy biết đấy ||| 0.4 0.0570392 9.25712e-05 3.97932e-06 ||| 0-0 1-1 ||| 3 12963 3 ||| |||
you know ||| thầy biết_người ||| 0.3 0.0545995 0.00134831 3.90171e-06 ||| 0-0 1-1 ||| 2 445 1 ||| |||
you know ||| thầy hiểu chứ ||| 0.4 0.0097046 3.0857e-05 7.0902e-08 ||| 0-0 1-1 ||| 1 12963 1 ||| |||
you know ||| thầy hiểu ||| 0.133333 0.0097046 3.0857e-05 5.8506e-06 ||| 0-0 1-1 ||| 3 12963 1 ||| |||
you know ||| thế mày biết ||| 0.2 0.206026 3.0857e-05 4.77788e-05 ||| 0-1 1-2 ||| 2 12963 1 ||| |||
you know ||| thế thế_đó ||| 0.4 0.000311422 6.1714e-05 1.14941e-08 ||| 0-0 1-1 ||| 2 12963 2 ||| |||
you know ||| thế ||| 0.000181626 3.71006e-06 9.25712e-05 0.0001615 ||| 0-0 1-0 ||| 6607 12963 3 ||| |||
you know ||| thế_mà ||| 0.00677968 0.000241544 9.25712e-05 4.322e-05 ||| 0-0 1-0 ||| 177 12963 3 ||| |||
you know ||| thế_này ||| 0.000346921 1.23967e-05 3.0857e-05 3.184e-05 ||| 0-0 ||| 1153 12963 1 ||| |||
you know ||| thứ mà anh biết ||| 0.4 0.167966 6.1714e-05 3.89195e-06 ||| 0-2 1-3 ||| 2 12963 2 ||| |||
you know ||| thứyou know ||| 0.4 0.2 6.1714e-05 3.64596e-10 ||| 0-0 1-1 ||| 2 12963 2 ||| |||
you know ||| thực_ra ||| 0.00104031 6.44988e-06 6.1714e-05 3.518e-05 ||| 0-0 1-0 ||| 769 12963 2 ||| |||
you know ||| tin để dì , dượng ||| 0.6 0.000327003 0.00134831 1.17073e-15 ||| 1-0 0-2 ||| 1 445 1 ||| |||
you know ||| tin để dì , ||| 0.6 0.000327003 0.00134831 7.50468e-11 ||| 1-0 0-2 ||| 1 445 1 ||| |||
you know ||| tin để dì ||| 0.6 0.000327003 0.00134831 1.68446e-09 ||| 1-0 0-2 ||| 1 445 1 ||| |||
you know ||| trong thư_mục ||| 0.2 0.0004152 9.25712e-05 1.1769e-08 ||| 0-1 ||| 6 12963 3 ||| |||
you know ||| trong thư_mục đấy ||| 0.2 0.0004152 9.25712e-05 2.42874e-10 ||| 0-1 ||| 6 12963 3 ||| |||
you know ||| tình_cờ ||| 0.00432432 3.06749e-05 6.1714e-05 2.116e-05 ||| 1-0 ||| 185 12963 2 ||| |||
you know ||| tóm_lại anh có biết ||| 0.4 0.0861004 3.0857e-05 1.04829e-08 ||| 0-1 0-2 1-3 ||| 1 12963 1 ||| |||
you know ||| tôi biết . ||| 0.00040568 0.000647968 3.0857e-05 2.41026e-06 ||| 0-0 1-1 ||| 986 12963 1 ||| |||
you know ||| tôi biết là ||| 0.00123839 0.000647968 3.0857e-05 1.59954e-05 ||| 0-0 1-1 ||| 323 12963 1 ||| |||
you know ||| tôi biết ||| 0.00369621 0.000858578 0.00331377 0.00116219 ||| 0-0 1-1 ||| 507 445 2 ||| |||
you know ||| tôi có ||| 8.726e-05 6.13428e-07 3.0857e-05 1.39556e-06 ||| 0-0 1-1 ||| 4584 12963 1 ||| |||
you know ||| tôi cần biết ||| 0.00842104 0.00121855 6.1714e-05 3.58104e-07 ||| 0-0 0-1 1-2 ||| 95 12963 2 ||| |||
you know ||| tôi cần ||| 0.000159936 4.29836e-08 3.0857e-05 2.02055e-08 ||| 0-0 1-1 ||| 2501 12963 1 ||| |||
you know ||| tôi hiểu ||| 0.000413652 0.000110245 3.0857e-05 1.90319e-05 ||| 0-0 1-1 ||| 967 12963 1 ||| |||
you know ||| tôi nghĩ ||| 0.000277633 3.78862e-06 0.000123428 1.43597e-06 ||| 0-0 1-1 ||| 5763 12963 4 ||| |||
you know ||| tôi ra ||| 0.000894856 9.34688e-08 3.0857e-05 4.04876e-08 ||| 0-0 1-1 ||| 447 12963 1 ||| |||
you know ||| tôi sau_đó . bạn biết ||| 0.4 0.190158 3.0857e-05 2.15428e-10 ||| 0-3 1-4 ||| 1 12963 1 ||| |||
you know ||| tôi ||| 3.78388e-06 3.15685e-06 6.1714e-05 0.00076536 ||| 0-0 ||| 211423 12963 2 ||| |||
you know ||| tướng_quân biết ||| 0.4 0.00889284 3.0857e-05 3.17664e-05 ||| 0-0 1-1 ||| 1 12963 1 ||| |||
you know ||| tốt hơn đi ||| 0.109091 4.50424e-07 9.25712e-05 2.81238e-11 ||| 1-1 0-2 ||| 11 12963 3 ||| |||
you know ||| tụi bay biết không ||| 0.4 0.0205999 6.1714e-05 5.63624e-10 ||| 0-0 0-1 1-2 ||| 2 12963 2 ||| |||
you know ||| tụi bay biết ||| 0.4 0.0205999 6.1714e-05 1.0923e-08 ||| 0-0 0-1 1-2 ||| 2 12963 2 ||| |||
you know ||| tụi mày biết mà ||| 0.4 0.12201 3.0857e-05 1.32222e-07 ||| 0-0 0-1 1-2 ||| 1 12963 1 ||| |||
you know ||| tụi mày biết ||| 0.4 0.12201 9.25712e-05 4.55376e-06 ||| 0-0 0-1 1-2 ||| 3 12963 3 ||| |||
you know ||| tụi mày có biết ||| 0.2 0.12201 3.0857e-05 6.47128e-08 ||| 0-0 0-1 1-3 ||| 2 12963 1 ||| |||
you know ||| tụi_bây biết không ||| 0.133333 0.132243 9.25712e-05 2.63376e-06 ||| 0-0 1-1 ||| 9 12963 3 ||| |||
you know ||| tụi_bây biết ||| 0.133333 0.132243 9.25712e-05 5.10424e-05 ||| 0-0 1-1 ||| 9 12963 3 ||| |||
you know ||| tự_sát , bạn nên ||| 0.3 0.000305378 0.00134831 2.65198e-10 ||| 0-2 1-3 ||| 2 445 1 ||| |||
you know ||| um ||| 0.00101781 1.90925e-05 3.0857e-05 1.056e-05 ||| 1-0 ||| 393 12963 1 ||| |||
you know ||| vui khi được làm_việc với cô ||| 0.133333 0.00065222 3.0857e-05 2.93975e-16 ||| 0-5 ||| 3 12963 1 ||| |||
you know ||| và , và ||| 0.0666668 1.64382e-06 3.0857e-05 6.163e-08 ||| 0-0 ||| 6 12963 1 ||| |||
you know ||| và , ||| 0.000650408 1.64382e-06 3.0857e-05 1.33015e-05 ||| 0-0 ||| 615 12963 1 ||| |||
you know ||| và anh biết ||| 0.0303798 0.0841516 0.000185142 4.19096e-05 ||| 0-0 0-1 1-2 ||| 79 12963 6 ||| |||
you know ||| và bà biết không ||| 0.6 0.0338374 0.00134831 4.371e-07 ||| 0-1 1-2 ||| 1 445 1 ||| |||
you know ||| và bà biết ||| 0.6 0.0338374 0.00134831 4.60619e-05 ||| 0-1 1-2 ||| 1 445 1 ||| |||
you know ||| và cậu biết ||| 0.0444444 0.185171 3.0857e-05 0.000119626 ||| 0-1 1-2 ||| 9 12963 1 ||| |||
you know ||| và cậu biết đấy ||| 0.2 0.185171 3.0857e-05 2.46868e-06 ||| 0-1 1-2 ||| 2 12963 1 ||| |||
you know ||| và nó anh biết ||| 0.4 0.167966 3.0857e-05 1.41739e-06 ||| 0-2 1-3 ||| 1 12963 1 ||| |||
you know ||| và nó anh biết đó ||| 0.4 0.167966 3.0857e-05 3.37171e-08 ||| 0-2 1-3 ||| 1 12963 1 ||| |||
you know ||| và ||| 3.46708e-06 1.64382e-06 3.0857e-05 0.00020068 ||| 0-0 ||| 115371 12963 1 ||| |||
you know ||| vâng , ||| 0.00020146 1.86977e-06 6.1714e-05 1.40253e-06 ||| 1-0 ||| 3971 12963 2 ||| |||
you know ||| vâng ||| 0.000102015 1.86977e-06 6.1714e-05 2.116e-05 ||| 1-0 ||| 7842 12963 2 ||| |||
you know ||| vì_thế mà các bạn biết ||| 0.4 0.124254 3.0857e-05 1.36443e-09 ||| 0-2 0-3 1-4 ||| 1 12963 1 ||| |||
you know ||| vì_thế mà các bạn biết đấy ||| 0.4 0.124254 3.0857e-05 2.81573e-11 ||| 0-2 0-3 1-4 ||| 1 12963 1 ||| |||
you know ||| vì_vậy ||| 0.000409836 6.93608e-06 6.1714e-05 2.116e-05 ||| 1-0 ||| 1952 12963 2 ||| |||
you know ||| vô_cùng phẫn_nộ ||| 0.15 2.71376e-05 0.00134831 2.40862e-08 ||| 1-1 ||| 4 445 1 ||| |||
you know ||| vẫn không hiểu ||| 0.0235294 0.000300528 9.25712e-05 1.1009e-07 ||| 0-0 1-2 ||| 51 12963 3 ||| |||
you know ||| vẫn ||| 7.80792e-05 8.6056e-06 3.0857e-05 8.58e-05 ||| 0-0 ||| 5123 12963 1 ||| |||
you know ||| vậy cô biết ||| 0.0571428 0.06838 3.0857e-05 2.63657e-05 ||| 0-0 0-1 1-2 ||| 7 12963 1 ||| |||
you know ||| vậy đấy ||| 0.0133333 5.44132e-06 6.1714e-05 2.01147e-07 ||| 0-0 1-1 ||| 60 12963 2 ||| |||
you know ||| vậy_là xong ||| 0.02 1.87951e-05 3.0857e-05 7.01032e-09 ||| 0-0 ||| 20 12963 1 ||| |||
you know ||| vậy_là ||| 0.000355556 1.87951e-05 3.0857e-05 3.044e-05 ||| 0-0 ||| 1125 12963 1 ||| |||
you know ||| vậy_mà ||| 0.00129032 5.17124e-05 3.0857e-05 2.208e-05 ||| 0-0 1-0 ||| 310 12963 1 ||| |||
you know ||| về những vấn_đề tâm_lý cấp ||| 0.1 1.03186e-05 0.000215999 1.55704e-17 ||| 1-0 ||| 28 12963 7 ||| |||
you know ||| về những vấn_đề tâm_lý ||| 0.0965516 1.03186e-05 0.000215999 1.01436e-13 ||| 1-0 ||| 29 12963 7 ||| |||
you know ||| về những vấn_đề ||| 0.0756756 1.03186e-05 0.000215999 1.88893e-09 ||| 1-0 ||| 37 12963 7 ||| |||
you know ||| về những ||| 0.00495576 1.03186e-05 0.000215999 3.87473e-06 ||| 1-0 ||| 565 12963 7 ||| |||
you know ||| về ||| 0.00016875 1.03186e-05 0.000246856 0.0004334 ||| 1-0 ||| 18963 12963 8 ||| |||
you know ||| vị_trí tiền_đạo trung phong_cho chúng_ta ||| 0.4 3.15272e-06 3.0857e-05 8.4944e-24 ||| 1-0 0-4 ||| 1 12963 1 ||| |||
you know ||| vốn nổi_tiếng với ||| 0.0666668 1.75546e-05 6.1714e-05 6.35368e-12 ||| 1-1 ||| 12 12963 2 ||| |||
you know ||| vốn nổi_tiếng ||| 0.0615384 1.75546e-05 6.1714e-05 1.54256e-09 ||| 1-1 ||| 13 12963 2 ||| |||
you know ||| với cô ||| 0.000892856 0.00065222 3.0857e-05 0.00013926 ||| 0-1 ||| 448 12963 1 ||| |||
you know ||| xem nào ||| 0.00134228 4.8946e-06 3.0857e-05 9.52688e-07 ||| 0-0 1-0 ||| 298 12963 1 ||| |||
you know ||| xem ||| 9.1596e-05 4.8946e-06 3.0857e-05 0.00011852 ||| 0-0 1-0 ||| 4367 12963 1 ||| |||
you know ||| à ||| 0.000587804 1.59736e-05 0.000185142 0.00026156 ||| 0-0 ||| 4083 12963 6 ||| |||
you know ||| ông biết , cái ||| 0.4 0.167318 0.000123428 5.6126e-06 ||| 0-0 1-1 ||| 4 12963 4 ||| |||
you know ||| ông biết , ||| 0.0666668 0.167318 0.000154285 0.00172621 ||| 0-0 1-1 ||| 30 12963 5 ||| |||
you know ||| ông biết chứ ||| 0.4 0.167318 9.25712e-05 0.000315611 ||| 0-0 1-1 ||| 3 12963 3 ||| |||
you know ||| ông biết không , ||| 0.00459772 0.167318 3.0857e-05 8.90716e-05 ||| 0-0 1-1 ||| 87 12963 1 ||| |||
you know ||| ông biết không ||| 0.247154 0.167318 0.00234514 0.00134382 ||| 0-0 1-1 ||| 123 12963 76 ||| |||
you know ||| ông biết ko ||| 0.266667 0.167318 6.1714e-05 3.71899e-05 ||| 0-0 1-1 ||| 3 12963 2 ||| |||
you know ||| ông biết là ||| 0.4375 0.2132 0.00168774 0.00139013 ||| 0-0 1-1 ||| 2 445 1 ||| |||
you know ||| ông biết mà ||| 0.262069 0.167318 0.000586284 0.000756188 ||| 0-0 1-1 ||| 29 12963 19 ||| |||
you know ||| ông biết nguyên_tắc ||| 0.133333 0.167318 3.0857e-05 2.99498e-07 ||| 0-0 1-1 ||| 3 12963 1 ||| |||
you know ||| ông biết những ||| 0.24 0.167318 9.25712e-05 0.000232835 ||| 0-0 1-1 ||| 5 12963 3 ||| |||
you know ||| ông biết rồi ||| 0.114286 0.167318 6.1714e-05 0.000546044 ||| 0-0 1-1 ||| 7 12963 2 ||| |||
you know ||| ông biết rồi đấy ||| 0.666667 0.185719 0.00272749 1.45005e-05 ||| 0-0 1-1 1-2 1-3 ||| 2 445 2 ||| |||
you know ||| ông biết sao ||| 0.133333 0.167318 3.0857e-05 0.000308913 ||| 0-0 1-1 ||| 3 12963 1 ||| |||
you know ||| ông biết tôi ||| 0.00833332 0.167318 3.0857e-05 0.000241633 ||| 0-0 1-1 ||| 48 12963 1 ||| |||
you know ||| ông biết vậy ||| 0.0888888 0.167318 6.1714e-05 0.000206042 ||| 0-0 1-1 ||| 9 12963 2 ||| |||
you know ||| ông biết ||| 0.48816 0.2132 0.0300721 0.0751722 ||| 0-0 1-1 ||| 22 445 8 ||| |||
you know ||| ông biết đó ||| 0.902222 0.2132 0.00239745 0.000845129 ||| 0-0 1-1 ||| 1 445 1 ||| |||
you know ||| ông biết đấy , ||| 0.05 0.0274589 0.00134831 5.81101e-05 ||| 0-0 1-1 1-2 ||| 12 445 1 ||| |||
you know ||| ông biết đấy ||| 0.54 0.194776 0.00947843 0.00184176 ||| 0-0 1-1 1-2 ||| 12 445 6 ||| |||
you know ||| ông biết_mình ||| 0.24 0.098616 9.25712e-05 0.000320776 ||| 0-0 1-1 ||| 5 12963 3 ||| |||
you know ||| ông biết_mấy ||| 0.2 0.111495 6.1714e-05 3.86281e-05 ||| 0-0 1-1 ||| 4 12963 2 ||| |||
you know ||| ông biết_điều ||| 0.253333 0.149982 0.000586284 0.000451772 ||| 0-0 1-1 ||| 30 12963 19 ||| |||
you know ||| ông biết_điều đó ||| 0.0333333 0.149982 3.0857e-05 1.07469e-05 ||| 0-0 1-1 ||| 12 12963 1 ||| |||
you know ||| ông biết_được ||| 0.0888888 0.0903416 0.000123428 0.000450936 ||| 0-0 1-1 ||| 18 12963 4 ||| |||
you know ||| ông có biết không ||| 0.1 0.0857764 3.0857e-05 8.7832e-06 ||| 0-0 0-1 1-2 ||| 4 12963 1 ||| |||
you know ||| ông có biết là ||| 0.05 0.167318 3.0857e-05 9.43756e-06 ||| 0-0 1-2 ||| 8 12963 1 ||| |||
you know ||| ông có biết ||| 0.0552488 0.167318 0.000771428 0.000370097 ||| 0-0 1-2 ||| 181 12963 25 ||| |||
you know ||| ông có nhớ ||| 0.0380952 0.0030966 6.1714e-05 8.47248e-07 ||| 0-0 1-2 ||| 21 12963 2 ||| |||
you know ||| ông có quen ||| 0.2 0.0325151 3.0857e-05 9.05588e-07 ||| 0-0 0-1 1-2 ||| 2 12963 1 ||| |||
you know ||| ông cũng biết ||| 0.334286 0.2132 0.00181117 0.000554242 ||| 0-0 1-2 ||| 5 445 1 ||| |||
you know ||| ông hay ca_thán ||| 0.4 0.0655764 3.0857e-05 2.21725e-10 ||| 0-0 1-1 1-2 ||| 1 12963 1 ||| |||
you know ||| ông hiểu chớ ||| 0.4 0.0284672 3.0857e-05 2.57838e-07 ||| 0-0 1-1 ||| 1 12963 1 ||| |||
you know ||| ông hiểu chứ ||| 0.075 0.0284672 9.25712e-05 9.57604e-06 ||| 0-0 1-1 ||| 16 12963 3 ||| |||
you know ||| ông hiểu ||| 0.09863 0.0284672 0.000555428 0.000790184 ||| 0-0 1-1 ||| 73 12963 18 ||| |||
you know ||| ông hiểu đấy ||| 0.4 0.0284672 3.0857e-05 1.63068e-05 ||| 0-0 1-1 ||| 1 12963 1 ||| |||
you know ||| ông không nghĩ ||| 0.0133333 0.000978292 3.0857e-05 3.07636e-06 ||| 0-0 1-2 ||| 30 12963 1 ||| |||
you know ||| ông lúc_này ||| 0.4 0.000173816 3.0857e-05 8.38912e-07 ||| 0-0 1-1 ||| 1 12963 1 ||| |||
you know ||| ông lại tìm_ra ||| 0.0666668 0.000370774 3.0857e-05 2.72179e-08 ||| 0-0 1-2 ||| 6 12963 1 ||| |||
you know ||| ông lại tìm_ra được_cái ||| 0.0666668 0.000370774 3.0857e-05 1.98419e-12 ||| 0-0 1-2 ||| 6 12963 1 ||| |||
you know ||| ông nghĩ xem ||| 0.08 0.000978292 3.0857e-05 9.9786e-08 ||| 0-0 1-1 ||| 5 12963 1 ||| |||
you know ||| ông nghĩ ||| 0.00251572 0.000978292 6.1714e-05 5.962e-05 ||| 0-0 1-1 ||| 318 12963 2 ||| |||
you know ||| ông nghĩ đấy ||| 0.2 0.000978292 3.0857e-05 1.23036e-06 ||| 0-0 1-1 ||| 2 12963 1 ||| |||
you know ||| ông nhận_ra ||| 0.02 0.00662576 3.0857e-05 5.12244e-05 ||| 0-0 1-1 ||| 20 12963 1 ||| |||
you know ||| ông nhớ ||| 0.0181818 0.0030966 3.0857e-05 5.962e-05 ||| 0-0 1-1 ||| 22 12963 1 ||| |||
you know ||| ông phải_biết rằng ||| 0.12 0.0451856 9.25712e-05 1.17018e-06 ||| 0-0 1-1 1-2 ||| 10 12963 3 ||| |||
you know ||| ông phải_biết ||| 0.621053 0.113118 0.00137917 0.00139847 ||| 0-0 1-1 ||| 1 445 1 ||| |||
you know ||| ông quen ||| 0.2 0.0634248 9.25712e-05 0.000138554 ||| 0-0 1-1 ||| 6 12963 3 ||| |||
you know ||| ông quen_thuộc ||| 0.4 0.00694968 9.25712e-05 5.03984e-06 ||| 0-0 1-1 ||| 3 12963 3 ||| |||
you know ||| ông rành ||| 0.3 0.0593708 9.25712e-05 1.84752e-05 ||| 0-0 1-1 ||| 4 12963 3 ||| |||
you know ||| ông thấy ||| 0.005 0.00130234 6.1714e-05 8.06152e-05 ||| 0-0 1-1 ||| 160 12963 2 ||| |||
you know ||| ông thấy đó ||| 0.0190476 0.00130234 3.0857e-05 1.91769e-06 ||| 0-0 1-1 ||| 21 12963 1 ||| |||
you know ||| ông thừa biết là ||| 0.4 0.096586 9.25712e-05 2.80787e-07 ||| 0-0 1-1 1-2 ||| 3 12963 3 ||| |||
you know ||| ông thừa biết ||| 0.4 0.096586 9.25712e-05 1.10111e-05 ||| 0-0 1-1 1-2 ||| 3 12963 3 ||| |||
you know ||| ông tưởng ||| 0.008 0.00152786 3.0857e-05 7.55656e-06 ||| 0-0 1-1 ||| 50 12963 1 ||| |||
you know ||| ông ||| 7.83164e-05 0.000815156 0.000185142 0.031777 ||| 0-0 ||| 30645 12963 6 ||| |||
you know ||| ông điên rồi ông biết là ||| 0.4 0.167318 3.0857e-05 1.06194e-10 ||| 0-0 0-3 1-4 ||| 1 12963 1 ||| |||
you know ||| ông điên rồi ông biết ||| 0.4 0.167318 3.0857e-05 4.1644e-09 ||| 0-0 0-3 1-4 ||| 1 12963 1 ||| |||
you know ||| ông đã biết là ||| 0.15 0.167318 9.25712e-05 1.667e-05 ||| 0-0 1-2 ||| 8 12963 3 ||| |||
you know ||| ông đã biết ||| 0.694118 0.2132 0.00159517 0.00242187 ||| 0-0 1-2 ||| 1 445 1 ||| |||
you know ||| ông_bà biết ||| 0.8 0.107948 0.00272749 0.00141544 ||| 0-0 1-1 ||| 3 445 2 ||| |||
you know ||| ông_bà biết đấy ||| 0.4 0.0525036 3.0857e-05 1.07703e-06 ||| 0-0 1-1 ||| 1 12963 1 ||| |||
you know ||| ông_bạn có biết ||| 0.4 0.0131476 3.0857e-05 2.89046e-07 ||| 0-0 0-1 1-2 ||| 1 12963 1 ||| |||
you know ||| ý ||| 0.00109991 1.99703e-05 9.25712e-05 0.00013008 ||| 0-0 ||| 1091 12963 3 ||| |||
you know ||| đi mày biết ||| 0.4 0.206026 3.0857e-05 0.000255576 ||| 0-1 1-2 ||| 1 12963 1 ||| |||
you know ||| đâu ||| 0.00215496 7.76882e-06 0.00153346 0.0004266 ||| 0-0 1-0 ||| 339 445 1 ||| |||
you know ||| đâu_phải canada ||| 0.16 1.23022e-05 6.1714e-05 1.05984e-10 ||| 0-0 ||| 5 12963 2 ||| |||
you know ||| đâu_phải ||| 0.0043716 1.23022e-05 6.1714e-05 5.52e-06 ||| 0-0 ||| 183 12963 2 ||| |||
you know ||| đây biết cô ||| 0.4 0.0673616 3.0857e-05 1.11226e-05 ||| 0-0 1-1 0-2 ||| 1 12963 1 ||| |||
you know ||| đây ||| 7.31396e-05 6.36344e-07 9.25712e-05 3.172e-05 ||| 1-0 ||| 16407 12963 3 ||| |||
you know ||| đây đâu_phải canada , ||| 0.133333 9.84028e-06 3.0857e-05 1.62035e-14 ||| 0-0 1-1 ||| 3 12963 1 ||| |||
you know ||| đây đâu_phải canada ||| 0.24 1.23022e-05 9.25712e-05 6.75752e-13 ||| 0-1 ||| 5 12963 3 ||| |||
you know ||| đây đâu_phải ||| 0.052174 1.23022e-05 9.25712e-05 3.51955e-08 ||| 0-1 ||| 23 12963 3 ||| |||
you know ||| đây đều biết ||| 0.1 0.000428904 3.0857e-05 1.73869e-07 ||| 0-0 1-1 1-2 ||| 4 12963 1 ||| |||
you know ||| đã biết ||| 0.000473372 0.00124565 3.0857e-05 0.000493412 ||| 0-0 1-1 ||| 845 12963 1 ||| |||
you know ||| đã chơi vị_trí tiền_đạo trung phong_cho chúng_ta ||| 0.4 3.15272e-06 3.0857e-05 8.34752e-29 ||| 1-2 0-6 ||| 1 12963 1 ||| |||
you know ||| đã nói ||| 0.000441744 1.28175e-06 6.1714e-05 2.70436e-07 ||| 0-0 1-1 ||| 1811 12963 2 ||| |||
you know ||| đúng không ||| 0.000752588 5.04056e-07 0.000123428 1.05998e-07 ||| 0-0 1-1 ||| 2126 12963 4 ||| |||
you know ||| đúng ||| 0.000283638 2.4449e-05 0.000123428 0.00028648 ||| 0-0 ||| 5641 12963 4 ||| |||
you know ||| đúng đấy ||| 0.00227273 9.46164e-06 3.0857e-05 1.51405e-07 ||| 0-0 1-1 ||| 176 12963 1 ||| |||
you know ||| được làm_việc với cô ||| 0.133333 0.00065222 3.0857e-05 1.0398e-09 ||| 0-3 ||| 3 12963 1 ||| |||
you know ||| được ||| 3.5657e-05 2.80508e-07 6.1714e-05 0.00023396 ||| 0-0 1-0 ||| 22436 12963 2 ||| |||
you know ||| đại_loại ||| 0.00366972 6.69672e-06 3.0857e-05 2.76e-06 ||| 0-0 ||| 109 12963 1 ||| |||
you know ||| đấy , cậu ||| 0.05 4.15348e-06 6.1714e-05 2.25998e-08 ||| 0-0 1-0 ||| 16 12963 2 ||| |||
you know ||| đấy , ||| 0.000478468 4.15348e-06 6.1714e-05 1.35653e-05 ||| 0-0 1-0 ||| 1672 12963 2 ||| |||
you know ||| đấy thôi cô biết ||| 0.4 0.133874 3.0857e-05 5.1672e-06 ||| 0-2 1-3 ||| 1 12963 1 ||| |||
you know ||| đấy thôi cô biết đấy ||| 0.4 0.133874 3.0857e-05 1.06634e-07 ||| 0-2 1-3 ||| 1 12963 1 ||| |||
you know ||| đấy ||| 0.000251889 4.15348e-06 6.1714e-05 0.00020466 ||| 0-0 1-0 ||| 3176 12963 2 ||| |||
you know ||| đấy_là ||| 0.0026936 2.4938e-06 6.1714e-05 1.196e-05 ||| 0-0 1-0 ||| 297 12963 2 ||| |||
you know ||| đến lúc thu_dọn chiến_trường và cậu biết ||| 0.4 0.185171 3.0857e-05 1.01864e-19 ||| 0-5 1-6 ||| 1 12963 1 ||| |||
you know ||| đến ||| 5.17632e-05 9.86e-07 6.1714e-05 4.228e-05 ||| 1-0 ||| 15455 12963 2 ||| |||
you know ||| để cho em ||| 0.00930232 0.00048168 3.0857e-05 4.59892e-07 ||| 0-2 ||| 43 12963 1 ||| |||
you know ||| định tự_sát , bạn nên ||| 0.6 0.000305378 0.00134831 4.04427e-14 ||| 0-3 1-4 ||| 1 445 1 ||| |||
you know ||| đủ_thứ ||| 0.008 5.97416e-05 3.0857e-05 1.056e-05 ||| 1-0 ||| 50 12963 1 ||| |||
you know ||| ạ ? . cháu biết ||| 0.4 0.0972916 3.0857e-05 1.67404e-11 ||| 0-3 1-4 ||| 1 12963 1 ||| |||
you know ||| ạ ? . cháu biết đó ||| 0.4 0.0972916 3.0857e-05 3.98223e-13 ||| 0-3 1-4 ||| 1 12963 1 ||| |||
you know ||| ờ ||| 0.00345572 6.05972e-05 0.000123428 4.228e-05 ||| 1-0 ||| 463 12963 4 ||| |||
you left . ||| anh bỏ_đi . ||| 0.3 0.0300689 0.0774192 0.00253924 ||| 0-0 1-1 2-2 ||| 8 31 6 ||| |||
you left . ||| anh bỏ_đi không . ||| 0.4 0.0150489 0.0129032 1.2728e-05 ||| 0-0 1-1 1-2 2-3 ||| 1 31 1 ||| |||
you left . ||| anh từ bỏ . ||| 0.4 0.00696408 0.0258064 1.15701e-05 ||| 0-0 1-1 1-2 2-3 ||| 2 31 2 ||| |||
you left . ||| anh đi . ||| 0.0125984 0.0013414 0.0516128 0.0071522 ||| 0-0 1-1 2-2 ||| 127 31 4 ||| |||
you left . ||| anh đi thì không . ||| 0.4 0.0013414 0.0387097 2.29216e-06 ||| 0-0 1-1 2-4 ||| 3 31 3 ||| |||
you left . ||| bác_đi . ||| 0.4 0.00498696 0.0129032 4.49692e-05 ||| 0-0 1-0 2-1 ||| 1 31 1 ||| |||
you left . ||| bạn đi . ||| 0.6 0.00242663 0.6 0.0112832 ||| 0-0 1-1 2-2 ||| 1 1 1 ||| |||
you left . ||| cha bỏ_đi . ||| 0.4 0.00566688 0.0129032 3.37208e-05 ||| 0-0 1-1 2-2 ||| 1 31 1 ||| |||
you left . ||| cháu đã đi . ||| 0.4 0.000624 0.0258064 2.22999e-05 ||| 0-0 1-1 1-2 2-3 ||| 2 31 2 ||| |||
you left . ||| cô phải dọn đi rồi . ||| 0.4 0.000498728 0.0129032 2.17034e-11 ||| 0-0 1-1 1-2 1-3 2-5 ||| 1 31 1 ||| |||
you left . ||| cô đi . ||| 0.0142857 0.00106914 0.0129032 0.00237247 ||| 0-0 1-1 2-2 ||| 28 31 1 ||| |||
you left . ||| cậu đi . ||| 0.05 0.00147881 0.0258064 0.00221058 ||| 0-0 1-1 2-2 ||| 16 31 2 ||| |||
you left . ||| cậu đi đấy . ||| 0.4 0.00147881 0.0387097 4.56192e-05 ||| 0-0 1-1 2-3 ||| 3 31 3 ||| |||
you left . ||| em đi . ||| 0.00294118 0.00078958 0.0129032 0.00165691 ||| 0-0 1-1 2-2 ||| 136 31 1 ||| |||
you left . ||| em đi rồi . ||| 0.4 0.000510104 0.0387097 2.07633e-05 ||| 0-0 1-1 1-2 2-3 ||| 3 31 3 ||| |||
you left ||| , anh bỏ ||| 0.2 0.0137699 0.00177778 0.000335818 ||| 0-1 1-2 ||| 2 225 1 ||| |||
you left ||| , anh rời_khỏi ||| 0.6 0.0710028 0.0545455 0.000217481 ||| 0-1 1-2 ||| 1 11 1 ||| |||
you left ||| ai bảo để ||| 0.4 9.9684e-06 0.00533332 5.0874e-09 ||| 0-0 1-1 1-2 ||| 3 225 3 ||| |||
you left ||| anh bỏ ||| 0.0553848 0.0137699 0.016 0.00506648 ||| 0-0 1-1 ||| 65 225 9 ||| |||
you left ||| anh bỏ_lại ||| 0.05 0.0723612 0.00177778 0.00161787 ||| 0-0 1-1 ||| 8 225 1 ||| |||
you left ||| anh bỏ_đi không ||| 0.4 0.0150882 0.00177778 1.28046e-05 ||| 0-0 1-1 1-2 ||| 1 225 1 ||| |||
you left ||| anh bỏ_đi ||| 0.189474 0.0301475 0.016 0.00255454 ||| 0-0 1-1 ||| 19 225 9 ||| |||
you left ||| anh chia_tay ||| 0.4 0.000864432 0.00177778 4.25744e-05 ||| 0-0 1-1 ||| 1 225 1 ||| |||
you left ||| anh cho ||| 0.0134832 0.000498372 0.00533332 0.0022565 ||| 0-0 1-1 ||| 89 225 3 ||| |||
you left ||| anh có bỏ_lại ||| 0.4 0.0723612 0.00177778 2.29912e-05 ||| 0-0 1-2 ||| 1 225 1 ||| |||
you left ||| anh rời_khỏi ||| 0.636364 0.0975514 0.110869 0.00739342 ||| 0-0 1-1 ||| 2 11 2 ||| |||
you left ||| anh từ bỏ ||| 0.0615384 0.00698228 0.00355556 1.16398e-05 ||| 0-0 1-1 1-2 ||| 13 225 2 ||| |||
you left ||| anh ||| 3.81898e-06 9.20536e-05 0.00177778 0.101926 ||| 0-0 ||| 104740 225 1 ||| |||
you left ||| anh đi khỏi ||| 0.0923076 0.00140794 0.00533332 2.55468e-05 ||| 0-0 1-1 1-2 ||| 13 225 3 ||| |||
you left ||| anh đi thì không ||| 0.4 0.00134491 0.00533332 2.30596e-06 ||| 0-0 1-1 ||| 3 225 3 ||| |||
you left ||| anh đi thì ||| 0.4 0.00134491 0.00533332 4.46896e-05 ||| 0-0 1-1 ||| 3 225 3 ||| |||
you left ||| anh đi ||| 0.00546696 0.00134491 0.0213333 0.00719528 ||| 0-0 1-1 ||| 878 225 12 ||| |||
you left ||| anh đã bỏ ||| 0.0444444 0.0072926 0.00177778 0.000293112 ||| 0-0 1-1 1-2 ||| 9 225 1 ||| |||
you left ||| anh đã bỏ_mặc ||| 0.4 0.0147178 0.00177778 1.35471e-05 ||| 0-0 1-1 1-2 ||| 1 225 1 ||| |||
you left ||| anh đã bỏ_đi ||| 0.0571428 0.0154814 0.00355556 0.000147788 ||| 0-0 1-1 1-2 ||| 14 225 2 ||| |||
you left ||| anh đã để ||| 0.236363 0.00200421 0.0563232 0.000604924 ||| 0-0 1-1 1-2 ||| 3 11 1 ||| |||
you left ||| anh đã để_lại ||| 0.08 0.0383234 0.00177778 0.000320206 ||| 0-0 1-1 1-2 ||| 5 225 1 ||| |||
you left ||| anh để ||| 0.0397516 0.00121736 0.0284444 0.00395952 ||| 0-0 1-1 ||| 161 225 16 ||| |||
you left ||| anh để_lại ||| 0.0444444 0.0758316 0.00177778 0.0055348 ||| 0-0 1-1 ||| 9 225 1 ||| |||
you left ||| anh để_quên ||| 0.2 0.092572 0.00177778 0.00065992 ||| 0-0 1-1 ||| 2 225 1 ||| |||
you left ||| bà lại để ||| 0.1 0.000773752 0.00177778 1.29658e-06 ||| 0-0 1-2 ||| 4 225 1 ||| |||
you left ||| bà rời_khỏi ||| 0.3 0.0210577 0.0545455 0.000477775 ||| 0-0 1-1 ||| 2 11 1 ||| |||
you left ||| bà để ||| 0.04 0.000773752 0.00177778 0.000160005 ||| 0-0 1-1 ||| 10 225 1 ||| |||
you left ||| bác_đi ||| 0.0571428 0.005 0.00177778 4.524e-05 ||| 0-0 1-0 ||| 7 225 1 ||| |||
you left ||| bạn bỏ ||| 0.04 0.0155892 0.00177778 0.00161808 ||| 0-0 1-1 ||| 10 225 1 ||| |||
you left ||| bạn rời ||| 0.3 0.111487 0.0545455 0.0149621 ||| 0-0 1-1 ||| 2 11 1 ||| |||
you left ||| bạn đi ||| 0.0084507 0.00248899 0.0545455 0.0123824 ||| 0-0 1-1 ||| 71 11 1 ||| |||
you left ||| bạn đã rời ||| 1 0.0862562 0.0669899 0.00120271 ||| 0-0 1-1 1-2 ||| 1 11 1 ||| |||
you left ||| bạn đã ||| 0.000977996 0.000923008 0.00177778 0.00188323 ||| 0-0 1-1 ||| 409 225 1 ||| |||
you left ||| bỏ_đi ||| 0.00062112 0.00084986 0.00177778 0.0100251 ||| 1-0 ||| 644 225 1 ||| |||
you left ||| cha bỏ ||| 0.2 0.00259511 0.00177778 6.72824e-05 ||| 0-0 1-1 ||| 2 225 1 ||| |||
you left ||| cha bỏ_đi ||| 0.4 0.00568168 0.00177778 3.39239e-05 ||| 0-0 1-1 ||| 1 225 1 ||| |||
you left ||| cháu bỏ ||| 0.4 0.00797604 0.00177778 0.000273052 ||| 0-0 1-1 ||| 1 225 1 ||| |||
you left ||| cháu đã đi ||| 0.266667 0.000625632 0.00355556 2.24342e-05 ||| 0-0 1-1 1-2 ||| 3 225 2 ||| |||
you left ||| chị đi khỏi đây ||| 0.6 0.00085335 0.0545455 1.33908e-09 ||| 0-0 1-1 1-2 1-3 ||| 1 11 1 ||| |||
you left ||| chị đã rời ||| 0.4 0.0173288 0.00177778 4.72816e-06 ||| 0-0 1-1 1-2 ||| 1 225 1 ||| |||
you left ||| con bỏ_đi ||| 0.133333 0.0124929 0.00177778 0.000286169 ||| 0-0 1-1 ||| 3 225 1 ||| |||
you left ||| con rời ||| 0.2 0.0215498 0.00177778 0.00040302 ||| 0-0 1-1 ||| 2 225 1 ||| |||
you left ||| con đi ||| 0.00191388 0.00055732 0.00177778 0.00080604 ||| 0-0 1-1 ||| 209 225 1 ||| |||
you left ||| con đã bỏ ||| 0.1 0.003022 0.00177778 3.28355e-05 ||| 0-0 1-1 1-2 ||| 4 225 1 ||| |||
you left ||| con đã bỏ_đi ||| 0.4 0.0064154 0.00177778 1.65557e-05 ||| 0-0 1-1 1-2 ||| 1 225 1 ||| |||
you left ||| các em bỏ ||| 0.4 0.00644444 0.00177778 3.58924e-05 ||| 0-0 0-1 1-2 ||| 1 225 1 ||| |||
you left ||| các người bỏ ||| 0.4 0.00302349 0.00177778 5.33092e-06 ||| 0-0 0-1 1-2 ||| 1 225 1 ||| |||
you left ||| các_vị rời ||| 0.4 0.0310058 0.00177778 1.89048e-05 ||| 0-0 1-1 ||| 1 225 1 ||| |||
you left ||| cô bỏ ||| 0.0363636 0.010975 0.00177778 0.00168062 ||| 0-0 1-1 ||| 11 225 1 ||| |||
you left ||| cô còn để ||| 0.2 0.00139397 0.00177778 5.76064e-05 ||| 0-0 1-1 1-2 ||| 2 225 1 ||| |||
you left ||| cô lại bỏ_đi ||| 0.2 0.0129278 0.00533332 3.82274e-05 ||| 0-0 1-1 1-2 ||| 6 225 3 ||| |||
you left ||| cô phải dọn đi rồi ||| 0.4 0.000500028 0.00177778 2.18341e-11 ||| 0-0 1-1 1-2 1-3 ||| 1 225 1 ||| |||
you left ||| cô phải dọn đi ||| 0.4 0.000500028 0.00177778 1.04136e-09 ||| 0-0 1-1 1-2 1-3 ||| 1 225 1 ||| |||
you left ||| cô rời đi ||| 0.4 0.0212601 0.00533332 8.42444e-05 ||| 0-0 1-1 1-2 ||| 3 225 3 ||| |||
you left ||| cô rời_khỏi ||| 0.15 0.02116 0.00533332 0.000833248 ||| 0-0 1-1 ||| 8 225 3 ||| |||
you left ||| cô ||| 2.55387e-05 7.33696e-05 0.00355556 0.0338101 ||| 0-0 ||| 31325 225 2 ||| |||
you left ||| cô đi ||| 0.00153257 0.00107194 0.00177778 0.00238676 ||| 0-0 1-1 ||| 261 225 1 ||| |||
you left ||| cậu bỏ_quên ||| 0.4 0.072426 0.00355556 0.000184229 ||| 0-0 1-1 ||| 2 225 2 ||| |||
you left ||| cậu bỏ_đi ||| 0.1 0.0332356 0.00177778 0.000789548 ||| 0-0 1-1 ||| 4 225 1 ||| |||
you left ||| cậu về ||| 0.6 0.000128631 0.0545455 7.98894e-05 ||| 0-0 1-1 ||| 1 11 1 ||| |||
you left ||| cậu đi ||| 0.0102564 0.00148267 0.00888888 0.00222389 ||| 0-0 1-1 ||| 195 225 5 ||| |||
you left ||| cậu đi đấy ||| 0.4 0.00148267 0.00533332 4.58936e-05 ||| 0-0 1-1 ||| 3 225 3 ||| |||
you left ||| cậu để ||| 0.0177778 0.00134205 0.00355556 0.0012238 ||| 0-0 1-1 ||| 45 225 2 ||| |||
you left ||| cậu để_lại cho ||| 0.4 0.0420744 0.00177778 3.78724e-05 ||| 0-0 1-1 1-2 ||| 1 225 1 ||| |||
you left ||| em bỏ_lại ||| 0.4 0.0425936 0.00533332 0.000374804 ||| 0-0 1-1 ||| 3 225 3 ||| |||
you left ||| em bỏ_quên ||| 0.2 0.0386704 0.00177778 0.000138087 ||| 0-0 1-1 ||| 2 225 1 ||| |||
you left ||| em đi rồi ||| 0.4 0.00051144 0.00533332 2.08883e-05 ||| 0-0 1-1 1-2 ||| 3 225 3 ||| |||
you left ||| em đi ||| 0.000803212 0.000791644 0.00177778 0.00166689 ||| 0-0 1-1 ||| 498 225 1 ||| |||
you left ||| em đã bỏ ||| 0.304762 0.0042926 0.0284444 6.79036e-05 ||| 0-0 1-1 1-2 ||| 21 225 16 ||| |||
you left ||| em đã bỏ_rơi ||| 0.366667 0.00930332 0.0195556 1.2839e-05 ||| 0-0 1-1 1-2 ||| 12 225 11 ||| |||
you left ||| em để_lại ||| 0.16 0.0446364 0.00355556 0.00128222 ||| 0-0 1-1 ||| 5 225 2 ||| |||
you left ||| em để_quên ||| 0.285714 0.05449 0.00888888 0.00015288 ||| 0-0 1-1 ||| 7 225 5 ||| |||
you left ||| khi anh đi khỏi ||| 0.0571428 0.00072114 0.00177778 3.3502e-08 ||| 0-0 0-1 1-2 1-3 ||| 7 225 1 ||| |||
you left ||| là tránh_xa ||| 0.2 6.86176e-06 0.00533332 6.55624e-07 ||| 0-0 1-1 ||| 6 225 3 ||| |||
you left ||| mà cậu để_lại cho ||| 0.4 0.0420744 0.00177778 1.09965e-06 ||| 0-1 1-2 1-3 ||| 1 225 1 ||| |||
you left ||| mày bị bỏ ||| 0.4 0.00850864 0.00533332 1.56278e-06 ||| 0-0 1-1 1-2 ||| 3 225 3 ||| |||
you left ||| mày bỏ ||| 0.08 0.0168901 0.00177778 0.0008314 ||| 0-0 1-1 ||| 5 225 1 ||| |||
you left ||| mày bỏ_mặc ||| 0.4 0.0351054 0.00177778 3.8426e-05 ||| 0-0 1-1 ||| 1 225 1 ||| |||
you left ||| mày bỏ_rơi ||| 0.0666668 0.0377732 0.00177778 0.000157198 ||| 0-0 1-1 ||| 6 225 1 ||| |||
you left ||| mày đã bỏ_mặc ||| 0.4 0.0180527 0.00177778 2.22306e-06 ||| 0-0 1-1 1-2 ||| 1 225 1 ||| |||
you left ||| mày định bỏ_mặc ||| 0.4 0.0175912 0.00177778 8.02716e-09 ||| 0-0 1-1 1-2 ||| 1 225 1 ||| |||
you left ||| nay ngươi đã ra_khỏi ||| 0.4 0.00127627 0.00533332 9.28608e-10 ||| 0-1 1-2 1-3 ||| 3 225 3 ||| |||
you left ||| ngươi lại rời ||| 0.4 0.0322508 0.00177778 1.18609e-05 ||| 0-0 1-1 1-2 ||| 1 225 1 ||| |||
you left ||| ngươi đã ra_khỏi ||| 0.4 0.00127627 0.00533332 2.16005e-06 ||| 0-0 1-1 1-2 ||| 3 225 3 ||| |||
you left ||| ngươi đã ||| 0.00336134 0.00096854 0.00355556 0.000430932 ||| 0-0 1-1 ||| 238 225 2 ||| |||
you left ||| nàng bỏ ||| 0.0666668 0.00805184 0.00177778 3.96945e-05 ||| 0-0 1-1 ||| 6 225 1 ||| |||
you left ||| sáng nay ngươi đã ra_khỏi ||| 0.4 0.00127627 0.00533332 1.9965e-13 ||| 0-2 1-3 1-4 ||| 3 225 3 ||| |||
you left ||| ông bỏ_đi ||| 0.0571428 0.0300312 0.00177778 0.000796416 ||| 0-0 1-1 ||| 7 225 1 ||| |||
you left ||| ông cho ||| 0.008 0.000496452 0.00177778 0.0007035 ||| 0-0 1-1 ||| 50 225 1 ||| |||
you left ||| ông còn ||| 0.0058394 0.00227176 0.00355556 0.00139373 ||| 0-0 1-1 ||| 137 225 2 ||| |||
you left ||| ông rời ||| 0.1 0.0357511 0.0545455 0.00379586 ||| 0-0 1-1 ||| 6 11 1 ||| |||
you left ||| ông rời_khỏi ||| 0.133333 0.0264461 0.00177778 0.00078314 ||| 0-0 1-1 ||| 3 225 1 ||| |||
you left ||| ông đi ||| 0.006 0.00133972 0.00533332 0.00224324 ||| 0-0 1-1 ||| 200 225 3 ||| |||
you left ||| ông đã bỏ ||| 0.266667 0.00726448 0.00711112 9.1382e-05 ||| 0-0 1-1 1-2 ||| 6 225 4 ||| |||
you left ||| ông đã rời ||| 0.4 0.0263074 0.00177778 6.48892e-05 ||| 0-0 1-1 1-2 ||| 1 225 1 ||| |||
you left ||| ông để ||| 0.01 0.00121266 0.00355556 0.00123444 ||| 0-0 1-1 ||| 80 225 2 ||| |||
you left ||| đi ||| 1.28452e-05 9.70212e-06 0.00177778 0.0143352 ||| 0-0 1-0 ||| 31140 225 1 ||| |||
you left ||| đã ||| 9.69556e-06 2.29832e-05 0.00177778 0.0231412 ||| 1-0 ||| 41256 225 1 ||| |||
you left ||| đã để_lại ||| 0.00784312 0.000562372 0.00177778 3.26922e-05 ||| 0-0 1-1 ||| 51 225 1 ||| |||
you left ||| đưa ||| 5.39592e-05 9.9776e-07 0.00177778 0.00035838 ||| 0-0 1-0 ||| 7413 225 1 ||| |||
you left ||| để_lại ||| 0.000706712 0.00102488 0.00177778 0.010866 ||| 0-0 1-0 ||| 566 225 1 ||| |||
you left ||| ♫ anh bỏ ||| 0.4 0.0137699 0.00355556 1.06954e-06 ||| 0-1 1-2 ||| 2 225 2 ||| |||
you like a ||| , muốn một ||| 0.1 7.4348e-05 0.0153846 0.000304028 ||| 0-1 1-1 2-2 ||| 4 26 1 ||| |||
you like a ||| anh muốn một ||| 0.0307692 0.00552464 0.0153846 0.00228048 ||| 0-0 1-1 2-2 ||| 13 26 1 ||| |||
you like a ||| anh như_một ||| 0.0923076 0.0294489 0.046154 0.00264386 ||| 0-0 1-1 2-1 ||| 13 26 3 ||| |||
you like a ||| anh thích một ||| 0.266667 0.0735296 0.0307692 0.00469792 ||| 0-0 1-1 2-2 ||| 3 26 2 ||| |||
you like a ||| anh uống một ||| 0.1 0.000399992 0.0153846 9.78288e-06 ||| 0-0 1-1 2-2 ||| 4 26 1 ||| |||
you like a ||| anh ||| 9.0135e-05 2.0539e-05 0.346154 0.208166 ||| 0-0 ||| 7626 2 1 ||| |||
you like a ||| cháu có muốn một ||| 0.4 0.00320008 0.0153846 1.74656e-06 ||| 0-0 1-2 2-3 ||| 1 26 1 ||| |||
you like a ||| chú_thích ||| 0.0444444 0.000438956 0.0153846 3.076e-05 ||| 0-0 1-0 2-0 ||| 9 26 1 ||| |||
you like a ||| cô giống như bóc vỏ một ||| 0.4 0.0532608 0.0307692 4.18112e-13 ||| 0-0 1-1 1-2 2-5 ||| 2 26 2 ||| |||
you like a ||| cô như con ||| 0.1 0.00151304 0.0153846 3.82738e-05 ||| 0-0 1-1 2-2 ||| 4 26 1 ||| |||
you like a ||| cô như ||| 0.0142857 0.00102277 0.0153846 0.00491236 ||| 0-0 1-1 2-1 ||| 28 26 1 ||| |||
you like a ||| cô ra như từng ||| 0.4 8.82636e-05 0.0153846 1.4313e-09 ||| 0-0 1-2 2-3 ||| 1 26 1 ||| |||
you like a ||| của anh ||| 0.000691242 6.7122e-06 0.3 0.00457408 ||| 0-1 ||| 868 2 1 ||| |||
you like a ||| mi như ||| 0.133333 0.00134482 0.0153846 8.667e-05 ||| 0-0 1-1 2-1 ||| 3 26 1 ||| |||
you like a ||| muốn một ||| 0.00173913 7.4348e-05 0.0153846 0.00458688 ||| 0-0 1-0 2-1 ||| 230 26 1 ||| |||
you like a ||| muốn tôi ||| 0.000510856 2.51369e-08 0.0153846 4.55648e-06 ||| 0-0 1-0 2-1 ||| 783 26 1 ||| |||
you like a ||| mày như con ||| 0.4 0.0023285 0.0153846 1.8934e-05 ||| 0-0 1-1 2-2 ||| 1 26 1 ||| |||
you like a ||| ngươi như 1 ||| 0.4 0.065592 0.0153846 0.000166028 ||| 0-0 1-1 2-2 ||| 1 26 1 ||| |||
you like a ||| ông như_một ||| 0.3 0.0293353 0.046154 0.000824268 ||| 0-0 1-1 2-1 ||| 4 26 3 ||| |||
you like the ||| anh thích bánh ||| 0.4 0.00564384 0.0173913 2.67667e-06 ||| 0-0 1-1 2-2 ||| 1 23 1 ||| |||
you like the ||| anh thích cái ||| 0.1 0.0236491 0.0173913 0.0003037 ||| 0-0 1-1 2-2 ||| 4 23 1 ||| |||
you like the ||| anh thích những chiếc ||| 0.4 0.0291889 0.0347826 4.82176e-06 ||| 0-0 1-1 2-2 2-3 ||| 2 23 2 ||| |||
you like the ||| anh thích trời ||| 0.4 0.00522412 0.0173913 4.8526e-06 ||| 0-0 1-1 2-2 ||| 1 23 1 ||| |||
you like the ||| anh thích ||| 0.000970872 0.00666848 0.0173913 0.0141848 ||| 0-0 1-1 ||| 412 23 1 ||| |||
you like the ||| bạn cảm_thấy yêu_thích ||| 0.3 0.00129182 0.12 6.57108e-07 ||| 0-0 1-1 1-2 ||| 2 5 1 ||| |||
you like the ||| bạn như với một ||| 0.4 0.00248102 0.0173913 1.0708e-07 ||| 0-0 1-1 2-2 2-3 ||| 1 23 1 ||| |||
you like the ||| bạn thích các ||| 0.3 0.02693 0.12 0.00248335 ||| 0-0 1-1 2-2 ||| 2 5 1 ||| |||
you like the ||| bạn thích đồ ||| 0.6 0.00708462 0.12 4.19278e-06 ||| 0-0 1-1 2-2 ||| 1 5 1 ||| |||
you like the ||| bạn thấy món ||| 0.2 0.000102318 0.12 9.67146e-08 ||| 0-0 1-1 2-2 ||| 3 5 1 ||| |||
you like the ||| con sẽ thích cái ||| 0.4 0.0098 0.0173913 2.3129e-07 ||| 0-0 1-2 2-3 ||| 1 23 1 ||| |||
you like the ||| con thích rolling ||| 0.2 0.0061088 0.0173913 6.19724e-09 ||| 0-0 1-1 2-2 ||| 2 23 1 ||| |||
you like the ||| con thích tên ||| 0.4 0.00456244 0.0347826 7.2104e-06 ||| 0-0 1-1 2-2 ||| 2 23 2 ||| |||
you like the ||| có thích không ||| 0.0190476 0.000168142 0.0173913 1.87739e-05 ||| 0-0 1-1 ||| 21 23 1 ||| |||
you like the ||| có thích ||| 0.00465116 0.000168142 0.0173913 0.00036384 ||| 0-0 1-1 ||| 86 23 1 ||| |||
you like the ||| cô thích nhạc ||| 0.4 0.00958436 0.0173913 1.5358e-06 ||| 0-0 1-1 2-2 ||| 1 23 1 ||| |||
you like the ||| cậu thích mấy quả ||| 0.4 0.0248051 0.0173913 1.30089e-08 ||| 0-0 1-1 2-2 2-3 ||| 1 23 1 ||| |||
you like the ||| em thích chiếc ||| 0.4 0.0174046 0.0173913 2.24445e-05 ||| 0-0 1-1 2-2 ||| 1 23 1 ||| |||
you like the ||| em thích cái ||| 0.0888888 0.0139204 0.0347826 7.03568e-05 ||| 0-0 1-1 2-2 ||| 9 23 2 ||| |||
you like the ||| em thích những ||| 0.1 0.0169579 0.0347826 0.000163546 ||| 0-0 1-1 2-2 ||| 8 23 2 ||| |||
you like the ||| em_như ngày ||| 0.4 0.000918428 0.0173913 1.97e-07 ||| 0-0 1-0 2-1 ||| 1 23 1 ||| |||
you like the ||| như những ||| 0.00483871 5.03513e-05 0.12 0.00629382 ||| 1-0 2-1 ||| 124 5 1 ||| |||
you like the ||| thích nhạc ||| 0.0333333 0.000338989 0.0173913 1.81697e-05 ||| 1-0 2-1 ||| 12 23 1 ||| |||
you like the ||| ông thích ||| 0.00425532 0.00664276 0.0173913 0.00442232 ||| 0-0 1-1 ||| 94 23 1 ||| |||
you like your ||| anh muốn uống ||| 0.15 9.86664e-05 0.15 4.10342e-06 ||| 0-0 1-1 2-2 ||| 4 4 1 ||| |||
you like your ||| anh nằm sàn như ||| 0.2 0.000482024 0.05 3.34437e-10 ||| 0-0 1-3 ||| 2 8 1 ||| |||
you like your ||| anh thích uống ||| 0.266667 0.000539824 0.1 3.35896e-06 ||| 0-0 1-1 2-2 ||| 3 8 2 ||| |||
you like your ||| biết muốn các ||| 0.1 1.66852e-06 0.05 3.43094e-07 ||| 0-0 1-1 2-2 ||| 4 8 1 ||| |||
you like your ||| bà muốn uống ||| 0.2 2.57798e-05 0.05 6.58896e-08 ||| 0-0 1-1 2-2 ||| 2 8 1 ||| |||
you like your ||| cô thích ||| 0.00242424 0.00545996 0.05 0.00354344 ||| 0-0 2-0 1-1 ||| 165 8 1 ||| |||
you like your ||| cậu thích uống ||| 0.2 0.000283432 0.15 4.24858e-07 ||| 0-0 1-1 2-2 ||| 3 4 1 ||| |||
you like your ||| em thích rượu ||| 0.4 0.000285967 0.05 4.15036e-07 ||| 0-0 1-1 2-2 ||| 1 8 1 ||| |||
you like your ||| mày thích con ||| 0.2 0.0041052 0.05 3.16029e-05 ||| 0-0 1-1 2-2 ||| 2 8 1 ||| |||
you like your ||| ông thích các ||| 0.3 0.0025834 0.15 0.000731352 ||| 0-0 2-0 1-1 ||| 2 4 1 ||| |||
you like your ||| ông thích ||| 0.0142857 0.0025834 0.15 0.00819594 ||| 0-0 2-0 1-1 ||| 42 4 1 ||| |||
you like ||| , muốn ||| 0.00384615 0.000119245 0.000471144 0.000917976 ||| 0-1 1-1 ||| 104 849 1 ||| |||
you like ||| , như_thế ||| 0.00930232 0.000176292 0.000942284 0.000636224 ||| 0-1 1-1 ||| 86 849 2 ||| |||
you like ||| anh , oliver , cũng y như ||| 0.4 0.104977 0.000471144 2.06452e-15 ||| 0-0 1-6 ||| 1 849 1 ||| |||
you like ||| anh có thích ||| 0.0974027 0.168002 0.0079116 0.000498615 ||| 0-0 1-2 ||| 11 118 1 ||| |||
you like ||| anh có_vẻ thích ||| 0.4 0.0660516 0.000942284 9.71104e-05 ||| 0-0 1-1 1-2 ||| 2 849 2 ||| |||
you like ||| anh cũng như ||| 0.0571428 0.0533772 0.000471144 0.000184487 ||| 0-0 1-1 1-2 ||| 7 849 1 ||| |||
you like ||| anh cũng thích ||| 0.025 0.0598548 0.000471144 8.88888e-05 ||| 0-0 1-1 1-2 ||| 16 849 1 ||| |||
you like ||| anh giống như ||| 0.05 0.107178 0.000942284 0.00344129 ||| 0-0 1-1 1-2 ||| 16 849 2 ||| |||
you like ||| anh gần ||| 0.133333 0.000717012 0.000471144 3.69175e-05 ||| 0-0 1-1 ||| 3 849 1 ||| |||
you like ||| anh muốn là ||| 0.2 0.027133 0.00508475 0.000222286 ||| 0-0 1-1 ||| 3 118 1 ||| |||
you like ||| anh muốn làm ||| 0.0108108 0.00457192 0.000471144 1.12236e-05 ||| 0-0 1-1 1-2 ||| 37 849 1 ||| |||
you like ||| anh muốn soi ||| 0.4 0.00886088 0.00141343 1.32204e-07 ||| 0-0 1-1 ||| 3 849 3 ||| |||
you like ||| anh muốn ||| 0.0339018 0.0359939 0.0380468 0.0219275 ||| 0-0 1-1 ||| 116 118 6 ||| |||
you like ||| anh như những ||| 0.4 0.0526764 0.000942284 7.89144e-05 ||| 0-0 1-1 1-2 ||| 2 849 2 ||| |||
you like ||| anh như ||| 0.115385 0.104977 0.00706712 0.0294402 ||| 0-0 1-1 ||| 52 849 15 ||| |||
you like ||| anh như_thể ||| 0.0666668 0.0674044 0.000942284 0.000546424 ||| 0-0 1-1 ||| 12 849 2 ||| |||
you like ||| anh nằm sàn như ||| 0.2 0.104977 0.000471144 3.34437e-10 ||| 0-0 1-3 ||| 2 849 1 ||| |||
you like ||| anh sẽ thích ||| 0.0190476 0.117933 0.000942284 9.64324e-05 ||| 0-0 1-2 ||| 42 849 2 ||| |||
you like ||| anh theo ||| 0.0258064 0.000584592 0.000942284 7.01452e-05 ||| 0-0 1-1 ||| 31 849 2 ||| |||
you like ||| anh thích không ||| 0.2 0.117933 0.00188457 0.000731924 ||| 0-0 1-1 ||| 8 849 4 ||| |||
you like ||| anh thích kiểu ||| 0.4 0.0713244 0.000471144 8.94024e-05 ||| 0-0 1-1 1-2 ||| 1 849 1 ||| |||
you like ||| anh thích loại nhạc ||| 0.3 0.108984 0.00508475 3.67021e-09 ||| 0-0 1-1 ||| 2 118 1 ||| |||
you like ||| anh thích loại ||| 0.3 0.108984 0.00508475 2.84292e-05 ||| 0-0 1-1 ||| 2 118 1 ||| |||
you like ||| anh thích nó ||| 0.0307692 0.0589784 0.000471144 2.56886e-06 ||| 0-0 1-1 1-2 ||| 13 849 1 ||| |||
you like ||| anh thích thỉnh_thoảng ||| 0.4 0.059252 0.000471144 5.13488e-07 ||| 0-0 1-1 1-2 ||| 1 849 1 ||| |||
you like ||| anh thích ||| 0.279072 0.226917 0.106931 0.0313667 ||| 0-0 1-1 ||| 27 118 5 ||| |||
you like ||| anh thấy ||| 0.00175953 0.000776268 0.00141343 0.000210446 ||| 0-0 1-1 ||| 682 849 3 ||| |||
you like ||| anh thế_nào ||| 0.00481928 0.00900128 0.000471144 0.00114084 ||| 0-0 1-1 ||| 83 849 1 ||| |||
you like ||| anh uống ||| 0.0108108 0.00064154 0.000471144 2.95381e-05 ||| 0-0 1-1 ||| 37 849 1 ||| |||
you like ||| anh vui_lòng ||| 0.0352941 0.00120403 0.00508475 4.11572e-05 ||| 0-0 1-1 ||| 17 118 1 ||| |||
you like ||| anh ||| 0.000345264 0.000762062 0.0241081 0.208166 ||| 0-0 ||| 7626 118 4 ||| |||
you like ||| anh ăn ||| 0.0242424 0.00112654 0.000942284 5.53764e-05 ||| 0-0 1-1 ||| 33 849 2 ||| |||
you like ||| anh đến ||| 0.000883004 4.37276e-05 0.000471144 1.84588e-05 ||| 0-0 1-1 ||| 453 849 1 ||| |||
you like ||| anh để_dành ||| 0.4 0.00158305 0.000471144 3.68972e-06 ||| 0-0 1-1 ||| 1 849 1 ||| |||
you like ||| biết muốn ||| 0.1 6.30992e-05 0.000471144 2.12232e-05 ||| 0-0 1-1 ||| 4 849 1 ||| |||
you like ||| bà giống như_một ||| 0.4 0.0592448 0.000942284 1.98637e-05 ||| 0-0 1-1 1-2 ||| 2 849 2 ||| |||
you like ||| bà muốn ||| 0.0063492 0.00563196 0.000471144 0.00027825 ||| 0-0 1-1 ||| 63 849 1 ||| |||
you like ||| bà thích ||| 0.271429 0.10728 0.00932503 0.00225489 ||| 0-0 1-1 ||| 6 118 1 ||| |||
you like ||| bà thấy ||| 0.06 0.00020421 0.00508475 1.4098e-05 ||| 0-0 1-1 ||| 10 118 1 ||| |||
you like ||| bạn chỉ muốn ||| 0.04 0.0100316 0.000471144 8.34852e-06 ||| 0-0 1-2 ||| 10 849 1 ||| |||
you like ||| bạn có muốn ||| 0.012766 0.0170539 0.00508475 8.12904e-05 ||| 0-0 1-1 1-2 ||| 47 118 1 ||| |||
you like ||| bạn có thích ||| 0.0815507 0.201892 0.00602703 0.000157233 ||| 0-0 1-1 1-2 ||| 68 118 1 ||| |||
you like ||| bạn có ||| 0.000666666 8.09124e-05 0.00508475 0.000574148 ||| 0-0 1-1 ||| 900 118 1 ||| |||
you like ||| bạn cảm_thấy yêu_thích ||| 0.3 0.00841176 0.00508475 6.57108e-07 ||| 0-0 1-1 1-2 ||| 2 118 1 ||| |||
you like ||| bạn cảm_thấy ||| 0.00588235 0.00291054 0.00508475 0.000678546 ||| 0-0 1-1 ||| 102 118 1 ||| |||
you like ||| bạn muốn thế ||| 0.2 0.0100316 0.000471144 7.66484e-06 ||| 0-0 1-1 ||| 2 849 1 ||| |||
you like ||| bạn muốn ||| 0.0135369 0.0440584 0.0190234 0.0403546 ||| 0-0 1-1 ||| 262 118 3 ||| |||
you like ||| bạn như ||| 0.0363636 0.118847 0.000471144 0.00940232 ||| 0-0 1-1 ||| 11 849 1 ||| |||
you like ||| bạn quý ||| 0.2 0.012895 0.000471144 3.30143e-05 ||| 0-0 1-1 ||| 2 849 1 ||| |||
you like ||| bạn thích sử_dụng ||| 0.4 0.133514 0.000471144 1.02609e-06 ||| 0-0 1-1 ||| 1 849 1 ||| |||
you like ||| bạn thích ||| 0.349723 0.270188 0.193887 0.0481141 ||| 0-0 1-1 ||| 125 118 36 ||| |||
you like ||| bạn thấy ||| 0.022079 0.00174233 0.0157254 0.000432584 ||| 0-0 1-1 ||| 84 118 3 ||| |||
you like ||| bạn yêu_thích ||| 0.2 0.00278042 0.000471144 4.7168e-06 ||| 0-0 1-1 ||| 2 849 1 ||| |||
you like ||| bạn ||| 1.62734e-05 0.000672452 0.000471144 0.032552 ||| 0-0 ||| 24580 849 1 ||| |||
you like ||| bạn ăn ||| 0.0210526 0.00127538 0.000471144 1.76855e-05 ||| 0-0 1-1 ||| 19 849 1 ||| |||
you like ||| bố có thích ||| 0.266667 0.0153874 0.000942284 3.43468e-07 ||| 0-0 1-1 1-2 ||| 3 849 2 ||| |||
you like ||| bố thích ||| 0.063158 0.0307477 0.00141343 0.000210716 ||| 0-0 1-1 ||| 19 849 3 ||| |||
you like ||| cha thích ||| 0.0666668 0.0222259 0.000471144 0.000188372 ||| 0-0 1-1 ||| 6 849 1 ||| |||
you like ||| chàng thích ||| 0.16 0.0462908 0.000942284 3.31274e-05 ||| 0-0 1-1 ||| 5 849 2 ||| |||
you like ||| cháu có muốn ||| 0.0285714 0.00513252 0.000471144 5.27352e-06 ||| 0-0 1-2 ||| 14 849 1 ||| |||
you like ||| cháu như ||| 0.76 0.0725242 0.00602703 0.00265911 ||| 0-0 1-1 ||| 1 118 1 ||| |||
you like ||| cháu thích ||| 0.249153 0.0988157 0.0154499 0.00135092 ||| 0-0 1-1 ||| 6 118 1 ||| |||
you like ||| chú thấy ||| 0.0275862 0.000328222 0.000942284 3.47192e-06 ||| 0-0 1-1 ||| 29 849 2 ||| |||
you like ||| chú_thích ||| 0.0888888 0.00395062 0.000942284 3.898e-05 ||| 0-0 1-0 ||| 9 849 2 ||| |||
you like ||| chắc_hẳn cô yêu ||| 0.4 0.000960112 0.00235571 2.91976e-09 ||| 0-1 1-2 ||| 5 849 5 ||| |||
you like ||| chị thích ||| 0.117647 0.0773828 0.00235571 0.000322234 ||| 0-0 1-1 ||| 17 849 5 ||| |||
you like ||| con có thích ||| 0.0285714 0.0244567 0.000471144 2.59012e-06 ||| 0-0 1-1 1-2 ||| 14 849 1 ||| |||
you like ||| con cũng quý ||| 0.171428 0.00272821 0.00141343 7.25676e-08 ||| 0-0 1-1 1-2 ||| 7 849 3 ||| |||
you like ||| con muốn ||| 0.00526316 0.00367188 0.00282686 0.000771356 ||| 0-0 1-1 ||| 456 849 6 ||| |||
you like ||| con như ||| 0.0266667 0.043502 0.000471144 0.00329801 ||| 0-0 1-1 ||| 15 849 1 ||| |||
you like ||| con sẽ thích ||| 0.0363636 0.0488704 0.000471144 1.08027e-05 ||| 0-0 1-2 ||| 11 849 1 ||| |||
you like ||| con thích ||| 0.105882 0.0488704 0.0127208 0.00158903 ||| 0-0 1-1 ||| 102 849 27 ||| |||
you like ||| các anh chỉ ||| 0.0444444 9.47504e-05 0.000471144 1.80654e-06 ||| 0-0 0-1 1-2 ||| 9 849 1 ||| |||
you like ||| các anh thích ||| 0.3 0.0794508 0.00141343 0.000433768 ||| 0-0 0-1 1-2 ||| 4 849 3 ||| |||
you like ||| các anh thấy ||| 0.0380952 0.000776268 0.000942284 1.59144e-06 ||| 0-1 1-2 ||| 21 849 2 ||| |||
you like ||| các bạn như_thế ||| 0.4 0.0469588 0.000471144 4.774e-05 ||| 0-0 0-1 1-2 ||| 1 849 1 ||| |||
you like ||| các bạn thích ||| 0.1 0.0872416 0.000471144 0.000138532 ||| 0-0 0-1 1-2 ||| 4 849 1 ||| |||
you like ||| các cô muốn ||| 0.3 0.00507028 0.00141343 6.9846e-05 ||| 0-0 0-1 1-2 ||| 4 849 3 ||| |||
you like ||| các ông như_một ||| 0.4 0.0517552 0.000471144 4.00916e-05 ||| 0-0 0-1 1-2 ||| 1 849 1 ||| |||
you like ||| cách khác ||| 0.0028169 2.73672e-05 0.000471144 8.13732e-07 ||| 1-0 ||| 142 849 1 ||| |||
you like ||| cách ||| 9.47644e-05 2.73672e-05 0.000471144 0.0005506 ||| 1-0 ||| 4221 849 1 ||| |||
you like ||| có thích không ||| 0.0190476 0.00297359 0.000471144 1.87739e-05 ||| 0-0 1-1 ||| 21 849 1 ||| |||
you like ||| có thích ||| 0.00930232 0.00297359 0.000942284 0.00036384 ||| 0-0 1-1 ||| 86 849 2 ||| |||
you like ||| cô , thích ||| 0.4 0.093996 0.000942284 0.000311876 ||| 0-0 1-2 ||| 2 849 2 ||| |||
you like ||| cô có thích ||| 0.0129032 0.093996 0.000471144 6.68656e-05 ||| 0-0 1-2 ||| 31 849 1 ||| |||
you like ||| cô cũng thích ||| 0.08 0.0477064 0.000471144 2.94856e-05 ||| 0-0 1-1 1-2 ||| 5 849 1 ||| |||
you like ||| cô cũng ||| 0.0222222 0.00016692 0.00508475 0.000129956 ||| 0-0 1-1 ||| 27 118 1 ||| |||
you like ||| cô cảm_thấy ||| 0.0095238 0.00848648 0.000471144 0.000180029 ||| 0-0 1-1 ||| 42 849 1 ||| |||
you like ||| cô dùng ||| 0.3 0.00027991 0.00508475 3.30797e-05 ||| 0-0 1-1 ||| 2 118 1 ||| |||
you like ||| cô giống như bóc vỏ ||| 0.4 0.085424 0.000942284 1.26243e-12 ||| 0-0 1-1 1-2 ||| 2 849 2 ||| |||
you like ||| cô giống như bóc ||| 0.4 0.085424 0.000942284 2.19172e-08 ||| 0-0 1-1 1-2 ||| 2 849 2 ||| |||
you like ||| cô giống như ||| 0.2 0.085424 0.000942284 0.00114152 ||| 0-0 1-1 1-2 ||| 4 849 2 ||| |||
you like ||| cô lại thích ||| 0.4 0.093996 0.000471144 3.81287e-05 ||| 0-0 1-2 ||| 1 849 1 ||| |||
you like ||| cô muốn , ||| 0.0235294 0.0070624 0.000471144 0.000151392 ||| 0-0 1-1 ||| 17 849 1 ||| |||
you like ||| cô muốn ||| 0.0062112 0.0070624 0.00471144 0.00228405 ||| 0-0 1-1 ||| 644 849 10 ||| |||
you like ||| cô mà cậu thích ||| 0.4 0.112004 0.00188457 1.07599e-05 ||| 0-0 0-2 1-3 ||| 4 849 4 ||| |||
you like ||| cô như ||| 0.0857144 0.08367 0.00282686 0.00976572 ||| 0-0 1-1 ||| 28 849 6 ||| |||
you like ||| cô như_một ||| 0.1 0.061406 0.00141343 0.00139493 ||| 0-0 1-1 ||| 12 849 3 ||| |||
you like ||| cô như_thế ||| 0.4 0.0505948 0.000471144 0.0016215 ||| 0-0 1-1 ||| 1 849 1 ||| |||
you like ||| cô ra như ||| 0.4 0.08367 0.000471144 5.00452e-05 ||| 0-0 1-2 ||| 1 849 1 ||| |||
you like ||| cô sẽ thích ||| 0.6 0.015944 0.00508475 8.56626e-06 ||| 0-0 1-2 ||| 1 118 1 ||| |||
you like ||| cô thích có ||| 0.266667 0.0470392 0.000942284 7.6696e-06 ||| 0-0 1-1 1-2 ||| 3 849 2 ||| |||
you like ||| cô thích ||| 0.274924 0.10994 0.0468208 0.00667825 ||| 0-0 1-1 ||| 16 118 3 ||| |||
you like ||| cô thấy ||| 0.004 0.000618712 0.000942284 6.98076e-05 ||| 0-0 1-1 ||| 200 849 2 ||| |||
you like ||| cô vậy ||| 0.0125 0.000687788 0.000471144 9.79748e-05 ||| 0-0 1-1 ||| 32 849 1 ||| |||
you like ||| cô yêu ||| 0.055814 0.000960112 0.00282686 3.30663e-05 ||| 0-0 1-1 ||| 43 849 6 ||| |||
you like ||| cô ||| 2.55387e-05 0.000473416 0.000942284 0.0338101 ||| 0-0 ||| 31325 849 2 ||| |||
you like ||| cô đúng_là thích ||| 0.4 0.047976 0.000471144 3.91996e-06 ||| 0-0 1-1 1-2 ||| 1 849 1 ||| |||
you like ||| cúa thích ||| 0.6 0.0701682 0.00508475 3.88147e-06 ||| 0-0 1-1 ||| 1 118 1 ||| |||
you like ||| cũng ||| 3.34504e-05 1.36414e-05 0.000471144 0.00134256 ||| 0-0 1-0 ||| 11958 849 1 ||| |||
you like ||| cũng được ||| 0.00258064 1.33311e-05 0.000942284 2.40232e-06 ||| 1-0 0-1 ||| 310 849 2 ||| |||
you like ||| cần_gì ||| 0.025 3.74757e-05 0.00508475 0.00011622 ||| 1-0 ||| 24 118 1 ||| |||
you like ||| cậu có thích ||| 0.0210526 0.130013 0.000471144 6.23028e-05 ||| 0-0 1-2 ||| 19 849 1 ||| |||
you like ||| cậu khoái ||| 0.4 0.0324295 0.000942284 1.71156e-05 ||| 0-0 1-1 ||| 2 849 2 ||| |||
you like ||| cậu như ||| 0.05 0.11573 0.000471144 0.00909932 ||| 0-0 1-1 ||| 8 849 1 ||| |||
you like ||| cậu rất thích ||| 0.133333 0.0652316 0.000471144 8.25808e-06 ||| 0-0 1-1 1-2 ||| 3 849 1 ||| |||
you like ||| cậu thích tôi ||| 0.4 0.130013 0.000942284 4.06768e-05 ||| 0-0 1-1 ||| 2 849 2 ||| |||
you like ||| cậu thích ||| 0.461344 0.207956 0.0378691 0.0059416 ||| 0-0 1-1 ||| 6 118 3 ||| |||
you like ||| cậu ||| 0.000727272 0.000205143 0.00508475 0.00487299 ||| 0-0 1-0 ||| 825 118 1 ||| |||
you like ||| của anh ||| 0.000691242 0.000168086 0.00508475 0.00457408 ||| 0-1 ||| 868 118 1 ||| |||
you like ||| em có thích ||| 0.0363636 0.0347395 0.000471144 5.35636e-06 ||| 0-0 1-1 1-2 ||| 11 849 1 ||| |||
you like ||| em cũng như ||| 0.2 0.0314191 0.000471144 4.27392e-05 ||| 0-0 1-1 1-2 ||| 2 849 1 ||| |||
you like ||| em cũng thích ||| 0.0571428 0.035232 0.000471144 2.05925e-05 ||| 0-0 1-1 1-2 ||| 7 849 1 ||| |||
you like ||| em muốn ||| 0.000801604 0.00521572 0.000942284 0.00159516 ||| 0-0 1-1 ||| 998 849 2 ||| |||
you like ||| em quý ||| 0.2 0.00670448 0.000471144 2.3948e-05 ||| 0-0 1-1 ||| 2 849 1 ||| |||
you like ||| em thích không ||| 0.08 0.069418 0.000471144 0.000169562 ||| 0-0 1-1 ||| 5 849 1 ||| |||
you like ||| em thích kiểu ||| 0.4 0.0419832 0.000471144 2.07114e-05 ||| 0-0 1-1 1-2 ||| 1 849 1 ||| |||
you like ||| em thích ||| 0.0753488 0.12916 0.0234593 0.0059271 ||| 0-0 1-1 ||| 20 118 1 ||| |||
you like ||| em_như ||| 0.0666668 0.00808164 0.00188457 7.282e-05 ||| 0-0 1-0 ||| 24 849 4 ||| |||
you like ||| giống như ||| 0.000182316 0.000315629 0.000471144 0.00675552 ||| 0-0 1-0 1-1 ||| 2194 849 1 ||| |||
you like ||| gì ||| 6.27056e-05 7.54168e-07 0.000471144 0.00011862 ||| 0-0 1-0 ||| 6379 849 1 ||| |||
you like ||| huynh thích ||| 0.4 0.101527 0.000942284 6.64496e-05 ||| 0-0 1-1 ||| 2 849 2 ||| |||
you like ||| là anh thích ||| 0.3 0.108984 0.00508475 0.000253911 ||| 0-1 1-2 ||| 2 118 1 ||| |||
you like ||| là cô thích ||| 0.08 0.093996 0.000471144 0.000119986 ||| 0-1 1-2 ||| 5 849 1 ||| |||
you like ||| là ông thích ||| 0.4 0.117478 0.000471144 0.000112771 ||| 0-1 1-2 ||| 1 849 1 ||| |||
you like ||| mi như ||| 0.266667 0.110016 0.000942284 0.000172299 ||| 0-0 1-1 ||| 3 849 2 ||| |||
you like ||| mi thích ||| 0.133333 0.123594 0.000471144 8.30164e-05 ||| 0-0 1-1 ||| 3 849 1 ||| |||
you like ||| muốn , nhưng ||| 0.01 6.02508e-05 0.000471144 3.99043e-07 ||| 0-0 1-0 1-2 ||| 40 849 1 ||| |||
you like ||| muốn ||| 0.000170648 0.000119245 0.00565372 0.0138494 ||| 0-0 1-0 ||| 28128 849 12 ||| |||
you like ||| mà anh thích - ||| 0.6 2.68081e-05 0.00508475 2.10264e-11 ||| 1-0 0-1 ||| 1 118 1 ||| |||
you like ||| mà anh thích ||| 0.3 2.68081e-05 0.00508475 3.7021e-09 ||| 1-0 0-1 ||| 2 118 1 ||| |||
you like ||| mà anh ||| 0.0095238 2.68081e-05 0.00508475 2.05786e-05 ||| 1-0 0-1 ||| 63 118 1 ||| |||
you like ||| mà bạn thích ||| 0.533334 0.270188 0.0258949 0.000473693 ||| 0-1 1-2 ||| 9 118 5 ||| |||
you like ||| mà mày thích ||| 0.4 0.144656 0.000471144 6.75864e-05 ||| 0-1 1-2 ||| 1 849 1 ||| |||
you like ||| mày làm ||| 0.0028169 0.000347086 0.000471144 2.72631e-05 ||| 0-0 1-1 ||| 142 849 1 ||| |||
you like ||| mày muốn ||| 0.0100314 0.0108687 0.00376914 0.00112992 ||| 0-0 1-1 ||| 319 849 8 ||| |||
you like ||| mày như ||| 0.0727272 0.128764 0.000942284 0.00483108 ||| 0-0 1-1 ||| 11 849 2 ||| |||
you like ||| mày thích ||| 0.252941 0.144656 0.0202591 0.0023277 ||| 0-0 1-1 ||| 68 849 43 ||| |||
you like ||| mày thấy thích ||| 0.4 0.072804 0.000471144 4.806e-06 ||| 0-0 1-1 1-2 ||| 1 849 1 ||| |||
you like ||| mày thấy ||| 0.0166667 0.000952168 0.00141343 3.45338e-05 ||| 0-0 1-1 ||| 72 849 3 ||| |||
you like ||| mày ||| 2.89289e-05 0.000728564 0.000471144 0.0167258 ||| 0-0 ||| 13827 849 1 ||| |||
you like ||| mình muốn ||| 0.00377358 0.000573672 0.000942284 7.70428e-05 ||| 0-0 1-1 ||| 212 849 2 ||| |||
you like ||| mình như những ||| 0.4 0.00341039 0.000471144 8.82968e-07 ||| 0-0 1-1 1-2 ||| 1 849 1 ||| |||
you like ||| mình thích ||| 0.125128 0.0138454 0.00555589 0.00106364 ||| 0-0 1-1 ||| 5 118 1 ||| |||
you like ||| mẹ thích ||| 0.0285714 0.0200443 0.000471144 0.000195887 ||| 0-0 1-1 ||| 14 849 1 ||| |||
you like ||| ngài muốn ||| 0.00392157 0.0059258 0.000471144 0.000274323 ||| 0-0 1-1 ||| 102 849 1 ||| |||
you like ||| ngài thích ||| 0.2 0.0788692 0.00141343 0.00056512 ||| 0-0 1-1 ||| 6 849 3 ||| |||
you like ||| ngươi cũng thích ||| 0.4 0.0711056 0.000471144 6.496e-06 ||| 0-0 1-1 1-2 ||| 1 849 1 ||| |||
you like ||| ngươi muốn ||| 0.00412372 0.0105264 0.000471144 0.000503204 ||| 0-0 1-1 ||| 97 849 1 ||| |||
you like ||| ngươi như ||| 0.15 0.12471 0.00141343 0.0021515 ||| 0-0 1-1 ||| 8 849 3 ||| |||
you like ||| ngươi rất thích ||| 0.4 0.0702928 0.00141343 1.95259e-06 ||| 0-0 1-1 1-2 ||| 3 849 3 ||| |||
you like ||| ngươi theo ||| 0.2 0.000694476 0.000471144 5.12624e-06 ||| 0-0 1-1 ||| 2 849 1 ||| |||
you like ||| ngươi thích ||| 0.0666668 0.1401 0.00141343 0.00103663 ||| 0-0 1-1 ||| 18 849 3 ||| |||
you like ||| nhóc thích ||| 0.4 0.00577004 0.00235571 6.93612e-06 ||| 0-0 1-1 ||| 5 849 5 ||| |||
you like ||| như ||| 0.00019917 0.000212114 0.0101695 0.177455 ||| 1-0 ||| 6025 118 2 ||| |||
you like ||| như_thế này ||| 0.000458192 0.000176292 0.000471144 0.000136368 ||| 0-0 1-0 ||| 873 849 1 ||| |||
you like ||| như_thế ||| 0.000422684 0.000176292 0.00141343 0.00959868 ||| 0-0 1-0 ||| 2839 849 3 ||| |||
you like ||| nàng như ||| 0.2 0.0613848 0.000471144 0.000230656 ||| 0-0 1-1 ||| 2 849 1 ||| |||
you like ||| nàng thích ||| 0.1 0.0689604 0.000471144 0.000111134 ||| 0-0 1-1 ||| 4 849 1 ||| |||
you like ||| nào ông thích ||| 0.6 0.0438281 0.00508475 3.24815e-05 ||| 0-1 1-2 ||| 1 118 1 ||| |||
you like ||| này anh ||| 0.00975608 0.000593976 0.000471144 0.00144805 ||| 0-1 ||| 41 849 1 ||| |||
you like ||| nếu cháu thích ||| 0.133333 0.0364506 0.000471144 1.80392e-06 ||| 0-0 0-1 1-2 ||| 3 849 1 ||| |||
you like ||| nếu thích ||| 0.05 0.00459044 0.000471144 0.000131358 ||| 0-0 1-1 ||| 8 849 1 ||| |||
you like ||| quý_vị muốn ||| 0.05 0.00569716 0.000471144 4.47864e-05 ||| 0-0 1-1 ||| 8 849 1 ||| |||
you like ||| thích cô ||| 0.00625 0.093996 0.000471144 0.00470528 ||| 1-0 0-1 ||| 64 849 1 ||| |||
you like ||| thích gì ||| 0.05 0.00168386 0.000471144 2.69651e-05 ||| 1-0 0-1 ||| 8 849 1 ||| |||
you like ||| thích làm_gì thì làm ||| 0.15 0.000276909 0.00508475 2.705e-10 ||| 1-0 1-1 ||| 4 118 1 ||| |||
you like ||| thích làm_gì thì ||| 0.15 0.000276909 0.00508475 5.16852e-08 ||| 1-0 1-1 ||| 4 118 1 ||| |||
you like ||| thích làm_gì ||| 0.0666666 0.000276909 0.00508475 1.8796e-05 ||| 1-0 1-1 ||| 9 118 1 ||| |||
you like ||| thích ||| 0.000874676 0.00332454 0.00753828 0.0556672 ||| 1-0 ||| 7317 849 16 ||| |||
you like ||| thấy thích ||| 0.0125 0.00269788 0.000471144 5.58564e-05 ||| 0-0 1-1 ||| 32 849 1 ||| |||
you like ||| tuỳ anh ||| 0.3 0.000168086 0.00508475 1.45442e-05 ||| 0-1 ||| 2 118 1 ||| |||
you like ||| tùy_thích ||| 0.0258064 0.0108682 0.000942284 8.25e-05 ||| 0-0 1-0 ||| 31 849 2 ||| |||
you like ||| ông có thích ||| 0.155 0.102618 0.00602703 0.000313205 ||| 0-0 1-2 ||| 8 118 1 ||| |||
you like ||| ông dùng ||| 0.0857142 0.00076944 0.00508475 0.000185389 ||| 0-0 1-1 ||| 7 118 1 ||| |||
you like ||| ông giống ||| 0.0666668 0.108956 0.000471144 0.00371443 ||| 0-0 1-1 ||| 6 849 1 ||| |||
you like ||| ông không muốn ||| 0.005 0.00882668 0.000471144 0.000110769 ||| 0-0 1-2 ||| 80 849 1 ||| |||
you like ||| ông muốn ||| 0.0178065 0.0197383 0.0180811 0.0118267 ||| 0-0 1-1 ||| 130 118 3 ||| |||
you like ||| ông muốn đặt ||| 0.6 0.00557075 0.00508475 5.62504e-06 ||| 0-0 1-1 1-2 ||| 1 118 1 ||| |||
you like ||| ông như ||| 0.2 0.104572 0.00282686 0.00917848 ||| 0-0 1-1 ||| 12 849 6 ||| |||
you like ||| ông như_thế ||| 0.2 0.063234 0.000471144 0.00152399 ||| 0-0 1-1 ||| 2 849 1 ||| |||
you like ||| ông quý ||| 0.4 0.0113462 0.000471144 3.22282e-05 ||| 0-0 1-1 ||| 1 849 1 ||| |||
you like ||| ông sẽ cảm_thấy thế_nào ||| 0.133333 0.00978656 0.000942284 1.2875e-08 ||| 0-0 1-2 1-3 ||| 6 849 2 ||| |||
you like ||| ông thích chứ ||| 0.1 0.117478 0.000471144 5.35928e-05 ||| 0-0 1-1 ||| 4 849 1 ||| |||
you like ||| ông thích ||| 0.264742 0.161306 0.0608393 0.0154795 ||| 0-0 1-1 ||| 42 118 9 ||| |||
you like ||| ông thấy ||| 0.0075 0.000773272 0.00141343 6.561e-05 ||| 0-0 1-1 ||| 160 849 3 ||| |||
you like ||| ông ||| 6.11058e-05 6.7596e-05 0.00508475 0.0683688 ||| 0-0 ||| 9819 118 1 ||| |||
you like ||| ông_bạn thích ||| 0.4 0.0154888 0.00235571 7.50948e-06 ||| 0-0 1-1 ||| 5 849 5 ||| |||
you like ||| ông_ta thích ||| 0.0470588 0.00332454 0.000942284 1.88043e-05 ||| 1-1 ||| 17 849 2 ||| |||
you like ||| đúng_là em thích kiểu ||| 0.4 0.0419832 0.000471144 4.134e-09 ||| 0-1 1-2 1-3 ||| 1 849 1 ||| |||
you like ||| để_xem anh có thích ||| 0.4 0.117933 0.000471144 4.63628e-09 ||| 0-1 1-3 ||| 1 849 1 ||| |||
you look at the ||| anh nhìn vào ||| 0.6 0.000178993 0.15 0.000443056 ||| 0-0 1-1 2-1 2-2 3-2 ||| 2 8 2 ||| |||
you look at the ||| anh đang nhìn vào ||| 0.266667 0.000325001 0.0153846 1.6764e-06 ||| 0-0 1-1 1-2 2-2 2-3 3-3 ||| 3 52 2 ||| |||
you look at the ||| bạn hãy nhìn vào các ||| 0.4 0.00175572 0.00769232 5.57876e-07 ||| 0-0 1-1 1-2 2-2 2-3 3-4 ||| 1 52 1 ||| |||
you look at the ||| bạn nhìn lên những ||| 0.4 0.00464288 0.0153846 1.10981e-06 ||| 0-0 1-1 2-1 2-2 3-3 ||| 2 52 2 ||| |||
you look at the ||| bạn nhìn vào bản ||| 0.4 0.00534748 0.00769232 5.84196e-07 ||| 0-0 1-1 2-1 2-2 3-3 ||| 1 52 1 ||| |||
you look at the ||| bạn nhìn vào chiêc ||| 0.4 0.00577596 0.00769232 9.96832e-09 ||| 0-0 1-1 2-1 2-2 3-3 ||| 1 52 1 ||| |||
you look at the ||| bạn nhìn vào con_số ||| 0.6 0.00202237 0.075 1.2593e-06 ||| 0-0 1-1 2-1 2-2 3-3 ||| 1 8 1 ||| |||
you look at the ||| bạn nhìn vào các ||| 1 0.00576414 0.0980769 0.000139475 ||| 0-0 1-1 2-1 2-2 3-3 ||| 1 8 1 ||| |||
you look at the ||| bạn nhìn vào cái ||| 0.4 0.004633 0.00769232 1.35939e-05 ||| 0-0 1-1 2-1 2-2 3-3 ||| 1 52 1 ||| |||
you look at the ||| bạn nhìn vào cơ_quan ||| 0.4 0.0037946 0.00769232 1.97208e-07 ||| 0-0 1-1 2-1 2-2 3-3 ||| 1 52 1 ||| |||
you look at the ||| bạn nhìn vào những ||| 0.0761904 0.00564396 0.0307692 3.15993e-05 ||| 0-0 1-1 2-1 2-2 3-3 ||| 21 52 4 ||| |||
you look at the ||| bạn nhìn vào phương_trình ||| 0.133333 0.00306479 0.00769232 3.24446e-08 ||| 0-0 1-1 2-1 2-2 3-3 ||| 3 52 1 ||| |||
you look at the ||| bạn nhìn vào quả ||| 0.4 0.00519128 0.00769232 7.31496e-07 ||| 0-0 1-1 2-1 2-2 3-3 ||| 1 52 1 ||| |||
you look at the ||| bạn nhìn vào sợi ||| 0.4 0.0049508 0.00769232 2.6216e-07 ||| 0-0 1-1 2-1 2-2 3-3 ||| 1 52 1 ||| |||
you look at the ||| bạn nhìn vào ||| 0.0821168 0.00095931 0.159615 0.00145456 ||| 0-0 1-1 2-1 2-2 3-2 ||| 12 8 1 ||| |||
you look at the ||| bạn nhìn ở tầm ||| 0.4 0.00651656 0.00769232 1.07538e-06 ||| 0-0 1-1 2-1 2-2 3-3 ||| 1 52 1 ||| |||
you look at the ||| bạn nhìn_xuống phía ||| 0.4 0.00124064 0.00769232 3.9886e-07 ||| 0-0 1-1 2-1 3-2 ||| 1 52 1 ||| |||
you look at the ||| bạn nhìn_đến số_liệu ||| 0.4 0.00241235 0.00769232 1.3861e-09 ||| 0-0 1-1 2-1 3-2 ||| 1 52 1 ||| |||
you look at the ||| bạn quan_sát ||| 0.0173913 0.000171677 0.00769232 0.000135526 ||| 0-0 1-1 2-1 ||| 23 52 1 ||| |||
you look at the ||| bạn theo_dõi các cuộc ||| 0.6 1.40204e-08 0.075 1.0319e-07 ||| 0-0 1-1 2-2 3-2 3-3 ||| 1 8 1 ||| |||
you look at the ||| bạn xem lại quá_trình ||| 0.4 0.000121389 0.00769232 1.40751e-09 ||| 0-0 1-1 2-1 2-2 3-3 ||| 1 52 1 ||| |||
you look at the ||| bạn xem ||| 0.00727272 6.19932e-05 0.00769232 0.00102726 ||| 0-0 1-1 2-1 ||| 55 52 1 ||| |||
you look at the ||| bạn xem_xét con ||| 0.4 0.000568816 0.00769232 1.79958e-06 ||| 0-0 1-1 2-1 3-2 ||| 1 52 1 ||| |||
you look at the ||| bạn để_ý tới chiếc ||| 0.4 8.05488e-06 0.00769232 7.47684e-10 ||| 0-0 1-1 2-2 3-3 ||| 1 52 1 ||| |||
you look at the ||| bạn để_ý đến sự ||| 0.4 8.9744e-06 0.00769232 3.589e-09 ||| 0-0 1-1 2-2 3-3 ||| 1 52 1 ||| |||
you look at the ||| chúng_ta xem_xét con ||| 0.4 1.01684e-05 0.00769232 5.35584e-08 ||| 0-0 1-1 2-1 3-2 ||| 1 52 1 ||| |||
you look at the ||| chị nhìn vào ||| 0.4 0.000425904 0.00769232 2.35223e-05 ||| 0-0 1-1 2-1 2-2 3-2 ||| 1 52 1 ||| |||
you look at the ||| các bạn nhìn vào các ||| 0.4 0.00210514 0.00769232 4.12264e-07 ||| 0-0 0-1 1-2 2-2 2-3 3-4 ||| 1 52 1 ||| |||
you look at the ||| các bạn nhìn vào khía_cạnh ||| 0.4 0.0014516 0.00769232 1.90858e-09 ||| 0-0 0-1 1-2 2-2 2-3 3-4 ||| 1 52 1 ||| |||
you look at the ||| các bạn nhìn vào phần ||| 0.4 0.00424244 0.00769232 6.98564e-08 ||| 0-0 0-1 1-2 2-2 2-3 3-4 ||| 1 52 1 ||| |||
you look at the ||| các bạn nhìn vào ||| 0.02 0.000480164 0.00769232 1.01125e-05 ||| 0-0 0-1 1-2 2-2 2-3 3-3 ||| 20 52 1 ||| |||
you look at the ||| các bạn theo_dõi các cuộc ||| 0.6 1.40204e-08 0.075 9.20802e-09 ||| 0-1 1-2 2-3 3-3 3-4 ||| 1 8 1 ||| |||
you look at the ||| em nhìn vào nhà_nguyện ||| 0.4 0.00400412 0.00769232 3.26079e-08 ||| 0-0 1-1 2-1 2-2 3-3 ||| 1 52 1 ||| |||
you look at the ||| hãy nhìn người_dân ||| 0.4 0.000135332 0.00769232 1.48962e-06 ||| 0-0 1-0 1-1 2-1 3-2 ||| 1 52 1 ||| |||
you look at the ||| hãy nhìn vào nhà ||| 0.4 3.62965e-05 0.00769232 6.60068e-07 ||| 0-0 1-0 1-1 2-1 2-2 3-3 ||| 1 52 1 ||| |||
you look at the ||| nhìn vào cây ||| 0.4 9.3542e-06 0.00769232 9.22848e-06 ||| 0-0 1-0 2-1 3-2 ||| 1 52 1 ||| |||
you look at the ||| ta nhìn vào các ||| 0.4 8.58444e-05 0.0153846 3.23288e-07 ||| 0-0 1-1 2-1 2-2 3-3 ||| 2 52 2 ||| |||
you look at the ||| vào các ||| 0.0051282 1.0092e-07 0.00769232 0.000722028 ||| 2-0 3-1 ||| 78 52 1 ||| |||
you look at the ||| ông nhìn vào việc ||| 0.6 0.00115261 0.075 1.05716e-05 ||| 0-0 1-1 2-1 2-2 3-3 ||| 1 8 1 ||| |||
you look at what ||| bạn chỉ xem những_gì ||| 0.6 0.000152415 0.3 5.48833e-07 ||| 0-0 1-1 1-2 2-2 3-3 ||| 1 2 1 ||| |||
you look at what ||| bạn nhìn những_gì ||| 0.4 0.022664 0.08 0.000481048 ||| 0-0 1-1 2-1 3-2 ||| 1 5 1 ||| |||
you look at what ||| bạn nhìn vào những thứ ||| 0.4 0.00103946 0.08 1.14501e-07 ||| 0-0 1-1 2-1 2-2 3-3 3-4 ||| 1 5 1 ||| |||
you look at what ||| bạn nhìn vào những_gì ||| 0.866667 0.0229913 0.46 0.000263956 ||| 0-0 1-1 2-1 2-2 3-3 ||| 1 2 1 ||| |||
you look at what ||| bạn nhìn_đến những_gì ||| 0.4 0.0081016 0.08 5.67556e-07 ||| 0-0 1-1 2-1 3-2 ||| 1 5 1 ||| |||
you look at ||| anh kiểm_tra mấy ||| 0.4 1.10468e-05 0.00155642 9.9602e-08 ||| 0-0 1-1 2-2 ||| 1 257 1 ||| |||
you look at ||| anh nhìn lên ||| 0.0333333 0.0167879 0.00155642 6.98232e-05 ||| 0-0 1-1 2-1 2-2 ||| 12 257 1 ||| |||
you look at ||| anh nhìn ||| 0.0338028 0.0329339 0.00933852 0.0233858 ||| 0-0 1-1 2-1 ||| 71 257 6 ||| |||
you look at ||| anh quan_sát ||| 0.08 0.0026818 0.00155642 0.000424352 ||| 0-0 1-1 2-1 ||| 5 257 1 ||| |||
you look at ||| anh thấy rồi ||| 0.025 1.56756e-07 0.00155642 1.23025e-07 ||| 0-0 1-1 2-2 ||| 16 257 1 ||| |||
you look at ||| anh xem ||| 0.10381 0.0013177 0.0444136 0.00668885 ||| 0-0 1-1 2-1 ||| 6 14 1 ||| |||
you look at ||| bà nhìn ||| 0.2 0.0209328 0.00155642 0.000945024 ||| 0-0 1-1 2-1 ||| 2 257 1 ||| |||
you look at ||| bạn chỉ xem ||| 0.6 0.000219798 0.0428572 5.44067e-06 ||| 0-0 1-1 1-2 2-2 ||| 1 14 1 ||| |||
you look at ||| bạn hãy nhìn vào ||| 0.08 0.0125908 0.00155642 2.62736e-05 ||| 0-0 1-1 1-2 2-2 2-3 ||| 5 257 1 ||| |||
you look at ||| bạn hãy nhìn_về ||| 0.4 0.00488464 0.00155642 1.11123e-06 ||| 0-0 1-1 1-2 2-2 ||| 1 257 1 ||| |||
you look at ||| bạn nghĩ về ||| 0.0060606 6.84628e-07 0.00155642 1.09457e-07 ||| 0-0 1-1 2-2 ||| 66 257 1 ||| |||
you look at ||| bạn nhìn lên ||| 0.2 0.0190059 0.00466928 2.22994e-05 ||| 0-0 1-1 2-1 2-2 ||| 6 257 3 ||| |||
you look at ||| bạn nhìn những ||| 0.2 0.0187144 0.00155642 1.8683e-05 ||| 0-0 1-1 2-1 2-2 ||| 2 257 1 ||| |||
you look at ||| bạn nhìn vào những bức_ảnh của ||| 0.4 0.0231038 0.00155642 1.31071e-12 ||| 0-0 1-1 2-1 2-2 ||| 1 257 1 ||| |||
you look at ||| bạn nhìn vào những bức_ảnh ||| 0.4 0.0231038 0.00155642 8.74168e-11 ||| 0-0 1-1 2-1 2-2 ||| 1 257 1 ||| |||
you look at ||| bạn nhìn vào những ||| 0.0380952 0.0154504 0.00311284 1.58826e-06 ||| 0-0 1-1 2-1 2-2 2-3 ||| 21 257 2 ||| |||
you look at ||| bạn nhìn vào ||| 0.509854 0.0360071 0.352807 0.00284617 ||| 0-0 1-1 2-1 2-2 ||| 12 14 5 ||| |||
you look at ||| bạn nhìn ||| 0.103226 0.0372852 0.0373541 0.00746872 ||| 0-0 1-1 2-1 ||| 93 257 24 ||| |||
you look at ||| bạn nhìn ở ||| 0.266667 0.0232132 0.00311284 0.00136055 ||| 0-0 1-1 2-1 2-2 ||| 3 257 2 ||| |||
you look at ||| bạn nhìn_lại ||| 0.133333 0.0100469 0.00155642 0.000127178 ||| 0-0 1-1 2-1 ||| 3 257 1 ||| |||
you look at ||| bạn nhìn_ngắm ||| 0.6 0.00997278 0.0428572 0.000365091 ||| 0-0 1-1 2-1 ||| 1 14 1 ||| |||
you look at ||| bạn nhìn_nhận ||| 0.05 0.0028977 0.00155642 3.27636e-05 ||| 0-0 1-1 2-1 ||| 8 257 1 ||| |||
you look at ||| bạn nhìn_thấy những ||| 0.4 6.86616e-05 0.00155642 2.48806e-07 ||| 0-0 1-1 2-1 2-2 ||| 1 257 1 ||| |||
you look at ||| bạn nhìn_thấy ||| 0.0258064 0.000130796 0.00933852 9.94628e-05 ||| 0-0 1-1 2-1 ||| 93 257 6 ||| |||
you look at ||| bạn nhìn_xuống ||| 0.133333 0.00518036 0.00155642 9.83868e-05 ||| 0-0 1-1 2-1 ||| 3 257 1 ||| |||
you look at ||| bạn nhìn_được tương_lai ||| 0.4 0.000603496 0.00155642 2.7575e-10 ||| 0-0 1-1 2-1 2-2 ||| 1 257 1 ||| |||
you look at ||| bạn nhìn_được ||| 0.2 0.00119932 0.00311284 6.84244e-06 ||| 0-0 1-1 2-1 ||| 4 257 2 ||| |||
you look at ||| bạn nhìn_đến ||| 0.4 0.0133282 0.00311284 8.81184e-06 ||| 0-0 1-1 2-1 ||| 2 257 2 ||| |||
you look at ||| bạn quan_sát những ||| 0.2 0.00153486 0.00155642 3.39017e-07 ||| 0-0 1-1 2-1 2-2 ||| 2 257 1 ||| |||
you look at ||| bạn quan_sát ||| 0.104348 0.00303612 0.00933852 0.000135526 ||| 0-0 1-1 2-1 ||| 23 257 6 ||| |||
you look at ||| bạn quan_sát ở ||| 0.3 0.00195575 0.0428572 0.000432572 ||| 0-0 1-1 2-2 ||| 2 14 1 ||| |||
you look at ||| bạn thấy ||| 0.00130081 1.8457e-06 0.00311284 9.25488e-05 ||| 0-0 1-1 2-1 ||| 615 257 2 ||| |||
you look at ||| bạn tính_đến ||| 0.2 5.5012e-05 0.00155642 2.36816e-06 ||| 0-0 1-1 2-1 ||| 2 257 1 ||| |||
you look at ||| bạn xem lại ||| 0.1 0.000565368 0.00155642 1.4092e-06 ||| 0-0 1-1 2-1 2-2 ||| 4 257 1 ||| |||
you look at ||| bạn xem ||| 0.0218182 0.00109636 0.00466928 0.00102726 ||| 0-0 1-1 2-1 ||| 55 257 3 ||| |||
you look at ||| bạn xem_xét vào ||| 0.4 0.00537952 0.00155642 1.71018e-05 ||| 0-0 1-1 2-1 2-2 ||| 1 257 1 ||| |||
you look at ||| bạn xem_xét ||| 0.433333 0.00861432 0.0934963 0.00595911 ||| 0-0 1-1 2-1 ||| 4 14 2 ||| |||
you look at ||| bạn để_ý tới ||| 0.4 3.21268e-05 0.00155642 1.09469e-07 ||| 0-0 1-1 2-2 ||| 1 257 1 ||| |||
you look at ||| bạn để_ý đến ||| 0.2 4.6498e-05 0.00155642 2.67588e-07 ||| 0-0 1-1 2-2 ||| 2 257 1 ||| |||
you look at ||| bạn_đọc ||| 0.0153846 4.07408e-05 0.00155642 2.416e-05 ||| 0-0 1-0 2-0 ||| 26 257 1 ||| |||
you look at ||| cha nhìn ||| 0.133333 0.0062068 0.00155642 0.00031056 ||| 0-0 1-1 2-1 ||| 3 257 1 ||| |||
you look at ||| cháu nhìn ||| 0.0470588 0.0190765 0.00311284 0.00126035 ||| 0-0 1-1 2-1 ||| 17 257 2 ||| |||
you look at ||| chú nhìn ||| 0.4 0.0139252 0.00311284 0.000385816 ||| 0-0 1-1 2-1 ||| 2 257 2 ||| |||
you look at ||| chú thấy ||| 0.0137931 6.89324e-07 0.00155642 4.78084e-06 ||| 0-0 1-1 2-1 ||| 29 257 1 ||| |||
you look at ||| chúng_ta nhìn vào ||| 0.008 0.000413016 0.00155642 1.88964e-05 ||| 0-0 1-1 2-1 2-2 ||| 50 257 1 ||| |||
you look at ||| chúng_ta xem_xét ||| 0.0307692 0.000135448 0.00155642 5.9872e-06 ||| 0-0 1-1 2-1 ||| 13 257 1 ||| |||
you look at ||| chị nhìn ||| 0.0571428 0.02161 0.00155642 0.000531252 ||| 0-0 1-1 2-1 ||| 7 257 1 ||| |||
you look at ||| con nhìn vào ||| 0.133333 0.00845676 0.00155642 0.000222709 ||| 0-0 1-1 2-1 2-2 ||| 3 257 1 ||| |||
you look at ||| con nhìn ||| 0.02 0.0136476 0.00155642 0.00261977 ||| 0-0 1-1 2-1 ||| 20 257 1 ||| |||
you look at ||| các bạn biết ||| 0.00159362 3.30138e-09 0.00155642 3.29738e-07 ||| 0-0 0-1 1-2 2-2 ||| 251 257 1 ||| |||
you look at ||| các bạn nhìn vào ||| 0.22 0.0150966 0.0171206 1.94159e-05 ||| 0-0 0-1 1-2 2-2 2-3 ||| 20 257 11 ||| |||
you look at ||| các bạn nhìn ||| 0.0307692 0.0243631 0.00155642 0.000228392 ||| 0-0 0-1 1-2 2-2 ||| 13 257 1 ||| |||
you look at ||| các bạn nhìn_lại ||| 0.4 0.00656492 0.00155642 3.88906e-06 ||| 0-0 0-1 1-2 2-2 ||| 1 257 1 ||| |||
you look at ||| các bạn nhìn_ngắm ||| 0.6 0.00997278 0.0428572 3.25785e-05 ||| 0-1 1-2 2-2 ||| 1 14 1 ||| |||
you look at ||| các bạn xem_xét vào ||| 0.4 0.00351512 0.00155642 5.22972e-07 ||| 0-0 0-1 1-2 2-2 2-3 ||| 1 257 1 ||| |||
you look at ||| các cậu nhìn ||| 0.2 0.0238742 0.00155642 0.000221032 ||| 0-0 0-1 1-2 2-2 ||| 2 257 1 ||| |||
you look at ||| cô có_thể nhìn_thẳng vào ||| 0.4 0.00373158 0.00622568 1.3348e-08 ||| 0-0 1-2 2-2 2-3 ||| 4 257 4 ||| |||
you look at ||| cô hãy tự nhìn ||| 0.4 3.61657e-05 0.00466928 5.24796e-08 ||| 0-0 1-1 2-2 1-3 ||| 3 257 3 ||| |||
you look at ||| cô nhìn vào ||| 0.4 0.0162654 0.00311284 0.000659464 ||| 0-0 1-1 2-1 2-2 ||| 2 257 2 ||| |||
you look at ||| cậu nhìn ||| 0.04 0.0363074 0.00466928 0.00722804 ||| 0-0 1-1 2-1 ||| 30 257 3 ||| |||
you look at ||| cậu tìm_đến ||| 0.0666668 1.94627e-05 0.00155642 1.02006e-05 ||| 0-0 1-1 ||| 6 257 1 ||| |||
you look at ||| em nhìn vào ||| 0.0444444 0.0120124 0.00155642 0.000460564 ||| 0-0 1-1 2-1 2-2 ||| 9 257 1 ||| |||
you look at ||| em nhìn ||| 0.0526316 0.0193857 0.00778212 0.00541768 ||| 0-0 1-1 2-1 ||| 38 257 5 ||| |||
you look at ||| hãy nhìn vào ||| 0.00322581 0.000387139 0.00155642 0.000166865 ||| 0-0 1-0 1-1 2-1 2-2 ||| 124 257 1 ||| |||
you look at ||| hãy nhìn ||| 0.00092166 0.000624768 0.00155642 0.00196286 ||| 0-0 1-0 1-1 2-1 ||| 434 257 1 ||| |||
you look at ||| hướng cậu tìm_đến ||| 0.1 1.94627e-05 0.00155642 2.34921e-09 ||| 0-1 1-2 ||| 4 257 1 ||| |||
you look at ||| mà bạn nhìn những ||| 0.4 0.0187144 0.00155642 5.42476e-07 ||| 0-1 1-2 2-2 2-3 ||| 1 257 1 ||| |||
you look at ||| mà bạn nhìn vào ||| 0.2 0.0231038 0.00155642 1.84355e-05 ||| 0-1 1-2 2-2 2-3 ||| 2 257 1 ||| |||
you look at ||| mà bạn nhìn_thấy ||| 0.08 0.000130796 0.00155642 2.88797e-06 ||| 0-1 1-2 2-2 ||| 5 257 1 ||| |||
you look at ||| mày mà nhìn ||| 0.4 0.0403964 0.00466928 0.000111426 ||| 0-0 1-2 2-2 ||| 3 257 3 ||| |||
you look at ||| mọi_người nhìn vào ||| 0.114286 0.00265246 0.00311284 1.71955e-05 ||| 0-0 1-1 2-1 2-2 ||| 7 257 2 ||| |||
you look at ||| người_ta nhìn_qua ||| 0.4 0.000167534 0.00155642 1.29991e-07 ||| 0-0 1-1 2-1 ||| 1 257 1 ||| |||
you look at ||| nhìn anh ||| 0.00246914 0.0329339 0.00155642 0.0233858 ||| 1-0 2-0 0-1 ||| 162 257 1 ||| |||
you look at ||| nhìn con ||| 0.0108108 0.0136476 0.00155642 0.00261977 ||| 1-0 2-0 0-1 ||| 37 257 1 ||| |||
you look at ||| nhìn vào ||| 0.00302267 5.75968e-05 0.0140078 0.005274 ||| 0-0 1-0 2-1 ||| 1191 257 9 ||| |||
you look at ||| nhìn ||| 0.00121104 0.00101047 0.0475264 0.147114 ||| 1-0 2-0 ||| 626 14 1 ||| |||
you look at ||| quý_vị xem_xét ||| 0.4 0.00430308 0.00155642 4.09708e-06 ||| 0-0 1-1 2-1 ||| 1 257 1 ||| |||
you look at ||| rồi bạn đến ngó ||| 0.4 0.00101461 0.00155642 3.93466e-10 ||| 0-0 0-1 2-2 1-3 2-3 ||| 1 257 1 ||| |||
you look at ||| ta nhìn vào ||| 0.0888888 0.000615616 0.00311284 1.52255e-05 ||| 0-0 1-1 2-1 2-2 ||| 9 257 2 ||| |||
you look at ||| vào ||| 2.40139e-05 7.23732e-07 0.00155642 0.0340044 ||| 2-0 ||| 16657 257 1 ||| |||
you look at ||| ông nhìn vào ||| 0.2 0.00413777 0.0428572 0.000560989 ||| 0-0 1-1 2-1 2-2 ||| 3 14 1 ||| |||
you look at ||| ông nhìn ||| 0.0307692 0.0328069 0.00311284 0.00729092 ||| 0-0 1-1 2-1 ||| 26 257 2 ||| |||
you look at ||| ông thấy ||| 0.005 1.62401e-06 0.00311284 9.03452e-05 ||| 0-0 1-1 2-1 ||| 160 257 2 ||| |||
you look ||| , anh giống ||| 0.2 0.00674504 0.0004329 8.70624e-05 ||| 0-1 1-2 ||| 2 924 1 ||| |||
you look ||| , cậu trông ||| 0.114286 0.11128 0.0008658 0.000185118 ||| 0-1 1-2 ||| 7 924 2 ||| |||
you look ||| , trông anh ||| 0.6 0.0998988 0.0117647 0.000613944 ||| 1-1 0-2 ||| 1 51 1 ||| |||
you look ||| anh có_vẻ ||| 0.394444 0.0279314 0.019124 0.00462639 ||| 0-0 1-1 ||| 2 51 1 ||| |||
you look ||| anh giống ||| 0.0117647 0.00674504 0.0004329 0.00131351 ||| 0-0 1-1 ||| 34 924 1 ||| |||
you look ||| anh kiểm_tra ||| 0.0307692 0.00271294 0.0004329 0.000145214 ||| 0-0 1-1 ||| 13 924 1 ||| |||
you look ||| anh lại trông ||| 0.4 0.0522792 0.0004329 1.82278e-05 ||| 0-0 0-1 1-2 ||| 1 924 1 ||| |||
you look ||| anh nhìn rất kỳ dưới cái nón ||| 0.133333 0.0531136 0.0004329 3.53604e-20 ||| 0-0 1-1 1-2 ||| 3 924 1 ||| |||
you look ||| anh nhìn rất kỳ dưới cái ||| 0.133333 0.0531136 0.0004329 4.59224e-15 ||| 0-0 1-1 1-2 ||| 3 924 1 ||| |||
you look ||| anh nhìn rất kỳ dưới ||| 0.133333 0.0531136 0.0004329 1.4124e-12 ||| 0-0 1-1 1-2 ||| 3 924 1 ||| |||
you look ||| anh nhìn rất kỳ ||| 0.133333 0.0531136 0.0004329 4.54292e-09 ||| 0-0 1-1 1-2 ||| 3 924 1 ||| |||
you look ||| anh nhìn rất ||| 0.08 0.0531136 0.0004329 6.957e-05 ||| 0-0 1-1 1-2 ||| 5 924 1 ||| |||
you look ||| anh nhìn vào ||| 0.0666668 0.05304 0.0004329 2.66014e-05 ||| 0-0 1-1 1-2 ||| 6 924 1 ||| |||
you look ||| anh nhìn ||| 0.667606 0.167854 0.0169595 0.0489863 ||| 0-0 1-1 ||| 1 51 1 ||| |||
you look ||| anh nhìn_ra ||| 0.4 0.0694972 0.0004329 0.000422432 ||| 0-0 1-1 ||| 1 924 1 ||| |||
you look ||| anh rất ||| 0.00495356 0.000267279 0.0017316 0.00022442 ||| 0-0 1-1 ||| 323 924 4 ||| |||
you look ||| anh thấy ||| 0.00117302 0.000898832 0.0008658 0.00043564 ||| 0-0 1-1 ||| 682 924 2 ||| |||
you look ||| anh thật ||| 0.00167364 0.000207758 0.0004329 9.90108e-05 ||| 0-0 1-1 ||| 239 924 1 ||| |||
you look ||| anh trông có_vẻ ||| 0.0888888 0.0569932 0.0008658 0.00010182 ||| 0-0 1-1 1-2 ||| 9 924 2 ||| |||
you look ||| anh trông cũng ||| 0.4 0.0505168 0.0004329 5.26628e-06 ||| 0-0 1-1 1-2 ||| 1 924 1 ||| |||
you look ||| anh trông ||| 0.278481 0.100941 0.0238095 0.00903616 ||| 0-0 1-1 ||| 79 924 55 ||| |||
you look ||| anh tìm ||| 0.0225352 0.00845036 0.0017316 0.00189436 ||| 0-0 1-1 ||| 71 924 4 ||| |||
you look ||| anh_ta trông ||| 0.0545455 0.000688854 0.0117647 5.60657e-05 ||| 0-0 1-1 ||| 11 51 1 ||| |||
you look ||| bà coi ||| 0.133333 0.0134137 0.0004329 5.548e-05 ||| 0-0 1-1 ||| 3 924 1 ||| |||
you look ||| bà giống ||| 0.4 0.00428716 0.0012987 5.30792e-05 ||| 0-0 1-1 ||| 3 924 3 ||| |||
