wife , ||| - ženu , ||| 0.333333 0.178646 0.00117165 0.00108023 ||| 0-1 1-2 ||| 6 1707 2 ||| |||
wife for ||| manželka ||| 0.000377644 0.00528646 0.0232558 0.109978 ||| 0-0 ||| 2648 43 1 ||| |||
wife for ||| manželkou pro ||| 0.666667 0.272188 0.0465116 0.0091804 ||| 0-0 1-1 ||| 3 43 2 ||| |||
wife for ||| manželkou ||| 0.00135501 0.00472573 0.0232558 0.0314722 ||| 0-0 ||| 738 43 1 ||| |||
wife for ||| žena pro ||| 0.217391 0.113937 0.116279 0.0801245 ||| 0-0 1-1 ||| 23 43 5 ||| |||
wife for ||| žena ||| 4.29185e-05 0.00197817 0.0232558 0.274682 ||| 0-0 ||| 23300 43 1 ||| |||
wife for ||| ženou pro ||| 0.181818 0.16542 0.0465116 0.0195169 ||| 0-0 1-1 ||| 11 43 2 ||| |||
wife for ||| ženou ||| 0.000257003 0.00287203 0.0232558 0.0669076 ||| 0-0 ||| 3891 43 1 ||| |||
wife for ||| ženu kvůli ||| 0.2 0.059754 0.0232558 0.000523781 ||| 0-0 1-1 ||| 5 43 1 ||| |||
wife for ||| ženu o ||| 0.130435 0.0204525 0.0697674 0.00710655 ||| 0-0 1-1 ||| 23 43 3 ||| |||
wife for ||| ženu ||| 0.000422208 0.00295032 0.0930233 0.157244 ||| 0-0 ||| 9474 43 4 ||| |||
wife in the ||| manželku ||| 0.00175285 0.00133872 0.222222 0.0497144 ||| 0-0 ||| 1141 9 2 ||| |||
wife in the ||| ženou v ||| 0.011236 0.0331541 0.111111 0.028947 ||| 0-0 1-1 ||| 89 9 1 ||| |||
wife in the ||| ženou ||| 0.000257003 0.000870214 0.111111 0.0669076 ||| 0-0 ||| 3891 9 1 ||| |||
wife in ||| manželce do ||| 0.333333 0.0508206 0.0116279 0.000658869 ||| 0-0 1-1 ||| 3 86 1 ||| |||
wife in ||| manželka na ||| 0.5 0.0344813 0.0232558 0.00487593 ||| 0-0 1-1 ||| 4 86 2 ||| |||
wife in ||| manželka v ||| 0.4 0.305723 0.0232558 0.047581 ||| 0-0 1-1 ||| 5 86 2 ||| |||
wife in ||| manželkou v ||| 0.285714 0.273296 0.0232558 0.0136162 ||| 0-0 1-1 ||| 7 86 2 ||| |||
wife in ||| manželku při ||| 0.333333 0.116407 0.0116279 0.000869162 ||| 0-0 1-1 ||| 3 86 1 ||| |||
wife in ||| manželku v ||| 0.181818 0.255514 0.0232558 0.0215085 ||| 0-0 1-1 ||| 11 86 2 ||| |||
wife in ||| manželku ||| 0.00175285 0.00670662 0.0232558 0.0497144 ||| 0-0 ||| 1141 86 2 ||| |||
wife in ||| manželky na ||| 0.25 0.0156428 0.0232558 0.00122996 ||| 0-0 1-1 ||| 8 86 2 ||| |||
wife in ||| v ||| 3.42736e-07 1.06232e-05 0.0116279 0.432641 ||| 1-0 ||| 2.9177e+06 86 1 ||| |||
wife in ||| žena ||| 4.29185e-05 0.00300273 0.0116279 0.274682 ||| 0-0 ||| 23300 86 1 ||| |||
wife in ||| ženou v ||| 0.0449438 0.166094 0.0465116 0.028947 ||| 0-0 1-1 ||| 89 86 4 ||| |||
wife in ||| ženou ||| 0.000514007 0.00435954 0.0232558 0.0669076 ||| 0-0 ||| 3891 86 2 ||| |||
wife in ||| ženu , ||| 0.000958773 0.00161146 0.0232558 0.00240598 ||| 0-0 1-1 ||| 2086 86 2 ||| |||
wife in ||| ženu v ||| 0.0637255 0.170621 0.151163 0.0680304 ||| 0-0 1-1 ||| 204 86 13 ||| |||
wife in ||| ženu ve ||| 0.05 0.168345 0.0348837 0.0142452 ||| 0-0 1-1 ||| 60 86 3 ||| |||
wife in ||| ženu ||| 0.000422208 0.00447839 0.0465116 0.157244 ||| 0-0 ||| 9474 86 4 ||| |||
wife in ||| ženy ||| 4.88305e-05 0.000691008 0.0116279 0.058107 ||| 0-0 ||| 20479 86 1 ||| |||
wife in ||| ženě ||| 0.000775194 0.00465738 0.0348837 0.0665579 ||| 0-0 ||| 3870 86 3 ||| |||
wife ||| ženo ||| 0.269129 0.27182 0.00707744 0.0063527 ||| 0-0 ||| 379 14412 102 ||| |||
wife ||| ženu ||| 0.270108 0.326042 0.17756 0.157244 ||| 0-0 ||| 9474 14412 2559 ||| |||
wife ||| paní ||| 0.00676112 0.0053377 0.0108937 0.0108987 ||| 0-0 ||| 23221 14412 157 ||| |||
wife ||| žena ||| 0.184378 0.218609 0.298085 0.274682 ||| 0-0 ||| 23300 14412 4296 ||| |||
wife ||| ženou ||| 0.272424 0.31739 0.0735498 0.0669076 ||| 0-0 ||| 3891 14412 1060 ||| |||
wife ||| manželka ||| 0.55136 0.584211 0.101304 0.109978 ||| 0-0 ||| 2648 14412 1460 ||| |||
wife ||| manželce ||| 0.360236 0.364971 0.0126978 0.0217391 ||| 0-0 ||| 508 14412 183 ||| |||
wife ||| ženy ||| 0.0303726 0.0503078 0.0431585 0.058107 ||| 0-0 ||| 20479 14412 622 ||| |||
wife ||| ženu , ||| 0.0517737 0.326042 0.00749376 0.0496887 ||| 0-0 ||| 2086 14412 108 ||| |||
wife ||| manželky ||| 0.238777 0.265033 0.0173467 0.0277422 ||| 0-0 ||| 1047 14412 250 ||| |||
wife ||| ženě ||| 0.273643 0.339074 0.0734804 0.0665579 ||| 0-0 ||| 3870 14412 1059 ||| |||
wife ||| manželku ||| 0.419807 0.488266 0.0332362 0.0497144 ||| 0-0 ||| 1141 14412 479 ||| |||
wife ||| manželkou ||| 0.417344 0.522244 0.0213711 0.0314722 ||| 0-0 ||| 738 14412 308 ||| |||
wife ||| paní , ||| 0.00458453 0.0053377 0.000555093 0.00344395 ||| 0-0 ||| 1745 14412 8 ||| |||
wife ||| jeho žena ||| 0.00596421 0.218609 0.00062448 0.000289378 ||| 0-1 ||| 1509 14412 9 ||| |||
wife ||| manželku , ||| 0.135922 0.488266 0.00194283 0.0157096 ||| 0-0 ||| 206 14412 28 ||| |||
wife ||| žena , ||| 0.0254312 0.218609 0.00603664 0.0867987 ||| 0-0 ||| 3421 14412 87 ||| |||
wife ||| manželkou , ||| 0.175258 0.522244 0.00117957 0.0099451 ||| 0-0 ||| 97 14412 17 ||| |||
wife ||| choti ||| 0.184783 0.174242 0.00117957 0.0013405 ||| 0-0 ||| 92 14412 17 ||| |||
wife ||| manželce , ||| 0.205128 0.364971 0.00111019 0.00686948 ||| 0-0 ||| 78 14412 16 ||| |||
wife ||| ji ||| 8.47115e-05 7.49e-05 0.00062448 0.0006411 ||| 0-0 ||| 106243 14412 9 ||| |||
wife ||| soužití ||| 0.0457235 0.0548012 0.00589786 0.0065858 ||| 0-0 ||| 1859 14412 85 ||| |||
wife ||| ženou , ||| 0.0440986 0.31739 0.00235915 0.0211426 ||| 0-0 ||| 771 14412 34 ||| |||
wife ||| chotí ||| 0.173913 0.275362 0.000832639 0.0011074 ||| 0-0 ||| 69 14412 12 ||| |||
wife ||| ženy , ||| 0.00869044 0.0503078 0.00201221 0.0183616 ||| 0-0 ||| 3337 14412 29 ||| |||
wife ||| žena se ||| 0.0246154 0.218609 0.00111019 0.0115747 ||| 0-0 ||| 650 14412 16 ||| |||
wife ||| ženě , ||| 0.0767327 0.339074 0.00645296 0.0210321 ||| 0-0 ||| 1212 14412 93 ||| |||
wife ||| manželky , ||| 0.0858896 0.265033 0.000971413 0.00876644 ||| 0-0 ||| 163 14412 14 ||| |||
wife ||| manžele ||| 0.0107991 0.0203291 0.000693866 0.0012239 ||| 0-0 ||| 926 14412 10 ||| |||
wife ||| manželé ||| 0.0008 0.0032178 0.00062448 0.0025644 ||| 0-0 ||| 11250 14412 9 ||| |||
wife ||| jí ||| 0.000149016 0.0001522 0.000693866 0.0008742 ||| 0-0 ||| 67107 14412 10 ||| |||
wife ||| . manželka ||| 0.482759 0.584211 0.00194283 0.00513742 ||| 0-1 ||| 58 14412 28 ||| |||
wife ||| manželka , ||| 0.130435 0.584211 0.00187344 0.0347526 ||| 0-0 ||| 207 14412 27 ||| |||
wife ||| oženil ||| 0.0379747 0.0128655 0.00062448 0.0006411 ||| 0-0 ||| 237 14412 9 ||| |||
wife ||| manželského ||| 0.0205479 0.016385 0.0020816 0.001865 ||| 0-0 ||| 1460 14412 30 ||| |||
wife ||| stará ||| 0.00292208 0.0023866 0.00124896 0.0012239 ||| 0-0 ||| 6160 14412 18 ||| |||
wife ||| choť ||| 0.366492 0.370192 0.00485706 0.0044877 ||| 0-0 ||| 191 14412 70 ||| |||
wife ||| ženě , že ||| 0.031746 0.339074 0.00041632 0.000258566 ||| 0-0 ||| 189 14412 6 ||| |||
wife ||| manželství ||| 0.000212025 0.0001357 0.000485706 0.000408 ||| 0-0 ||| 33015 14412 7 ||| |||
wife ||| manžel ||| 0.000876534 0.0011182 0.000485706 0.0005828 ||| 0-0 ||| 7986 14412 7 ||| |||
wife ||| ženuška ||| 0.0740741 0.102804 0.00041632 0.0006411 ||| 0-0 ||| 81 14412 6 ||| |||
wife ||| ženatý ||| 0.00713558 0.0151643 0.000485706 0.0010491 ||| 0-0 ||| 981 14412 7 ||| |||
wife ||| žena mu ||| 0.186047 0.218609 0.000555093 0.000511047 ||| 0-0 ||| 43 14412 8 ||| |||
wife ||| wife ||| 0.75 0.6875 0.00041632 0.0006411 ||| 0-0 ||| 8 14412 6 ||| |||
wife ||| ženušku ||| 0.28 0.354839 0.000485706 0.0006411 ||| 0-0 ||| 25 14412 7 ||| |||
wife ||| se ženou ||| 0.0141988 0.31739 0.000485706 0.00281939 ||| 0-1 ||| 493 14412 7 ||| |||
wife ||| manžela ||| 0.00063012 0.0006776 0.000346933 0.0002914 ||| 0-0 ||| 7935 14412 5 ||| |||
wife ||| žena - ||| 0.0297619 0.218609 0.000346933 0.00279198 ||| 0-0 ||| 168 14412 5 ||| |||
wikileaks . ||| wikileaks . ||| 1 0.506273 1 0.529163 ||| 0-0 1-1 ||| 2 2 2 ||| |||
wikileaks founder julian ||| zakladatel wikileaks julian ||| 1 0.143037 0.5 0.118444 ||| 1-0 0-1 2-2 ||| 2 4 2 ||| |||
wikileaks founder ||| zakladatel wikileaks ||| 1 0.226288 0.5 0.20202 ||| 1-0 0-1 ||| 2 4 2 ||| |||
wikileaks has ||| wikileaks ||| 0.0555556 0.026732 0.5 0.277782 ||| 0-0 1-0 ||| 18 2 1 ||| |||
wikileaks ||| serverem wikileaks ||| 0.5 0.299373 0.047619 0.0308642 ||| 0-0 0-1 ||| 2 21 1 ||| |||
wikileaks ||| serveru wikileaks ||| 0.666667 0.298613 0.0952381 0.0385802 ||| 0-0 0-1 ||| 3 21 2 ||| |||
wikileaks ||| wikileaks , ||| 0.333333 0.597015 0.047619 0.175554 ||| 0-0 ||| 3 21 1 ||| |||
wikileaks ||| wikileaks se ||| 0.5 0.597015 0.047619 0.0234103 ||| 0-0 ||| 2 21 1 ||| |||
wikileaks ||| wikileaks ||| 0.722222 0.597015 0.619048 0.555556 ||| 0-0 ||| 18 21 13 ||| |||
wild and ||| přírodě a ||| 0.0454545 0.0861874 0.0135135 0.00991066 ||| 0-0 1-1 ||| 88 296 4 ||| |||
wild and ||| přírody a ||| 0.0115607 0.0270534 0.0135135 0.00786563 ||| 0-0 1-1 ||| 346 296 4 ||| |||
wild and ||| masa volně žijící a ||| 0.666667 0.128285 0.0135135 5.15859e-07 ||| 0-1 0-2 1-3 ||| 6 296 4 ||| |||
wild and ||| volně žijící a ||| 0.851852 0.128285 0.0777027 0.0100167 ||| 0-0 0-1 1-2 ||| 27 296 23 ||| |||
wild and ||| volně žijící i ||| 0.25 0.0259009 0.027027 0.000170571 ||| 0-0 0-1 1-2 ||| 32 296 8 ||| |||
wild and ||| divokým a ||| 0.5 0.249007 0.0168919 0.0136862 ||| 0-0 1-1 ||| 10 296 5 ||| |||
wild and ||| divokých a ||| 0.3125 0.216521 0.0337838 0.0278444 ||| 0-0 1-1 ||| 32 296 10 ||| |||
wild and ||| divoký a ||| 0.37037 0.309782 0.0675676 0.0346088 ||| 0-0 1-1 ||| 54 296 20 ||| |||
wild and ||| divoké a ||| 0.344262 0.300483 0.0709459 0.0504974 ||| 0-0 1-1 ||| 61 296 21 ||| |||
wild and ||| divoká a ||| 0.342857 0.313755 0.0405405 0.0292602 ||| 0-0 1-1 ||| 35 296 12 ||| |||
wild and ||| divoká , ||| 0.0714286 0.00498093 0.0135135 0.00101569 ||| 0-0 1-1 ||| 56 296 4 ||| |||
wild and ||| divocí a ||| 0.361111 0.353967 0.0439189 0.0110905 ||| 0-0 1-1 ||| 36 296 13 ||| |||
wild and ||| a ||| 9.243e-07 2.22931e-05 0.0168919 0.854051 ||| 1-0 ||| 5.4095e+06 296 5 ||| |||
wild and ||| divoce ||| 0.00230814 0.000508407 0.0135135 0.0083829 ||| 0-0 1-0 ||| 1733 296 4 ||| |||
wild and ||| divoce a ||| 0.0641026 0.0520312 0.0168919 0.0143154 ||| 0-0 1-1 ||| 78 296 5 ||| |||
wild and ||| přírodě , a ||| 0.117647 0.0861874 0.00675676 0.00313173 ||| 0-0 1-2 ||| 17 296 2 ||| |||
wild and ||| jsou divocí a ||| 0.4 0.353967 0.00675676 4.21995e-05 ||| 0-1 1-2 ||| 5 296 2 ||| |||
wild and ||| rozbouřené a ||| 0.285714 0.00852105 0.00675676 0.000157316 ||| 0-0 1-1 ||| 7 296 2 ||| |||
wild and ||| zběsilé a ||| 0.333333 0.0199711 0.00675676 0.000235974 ||| 0-0 1-1 ||| 6 296 2 ||| |||
wild and ||| divokou a ||| 0.153846 0.275975 0.00675676 0.0142368 ||| 0-0 1-1 ||| 13 296 2 ||| |||
wild and ||| zdivočelý a ||| 0.75 0.189787 0.0101351 0.00110121 ||| 0-0 1-1 ||| 4 296 3 ||| |||
wild and ||| mezi planými rostlinami a ||| 1 0.0382354 0.00675676 1.89327e-13 ||| 0-1 1-3 ||| 2 296 2 ||| |||
wild and ||| volně žijícími a ||| 1 0.220253 0.00675676 0.0013059 ||| 0-0 0-1 1-2 ||| 2 296 2 ||| |||
wild and ||| tak ||| 3.60929e-06 1.02675e-06 0.00337838 0.0034894 ||| 1-0 ||| 277063 296 1 ||| |||
wild and ||| divokého a ||| 0.25 0.305389 0.0101351 0.0174617 ||| 0-0 1-1 ||| 12 296 3 ||| |||
wild and ||| volně žijícího lososa a ||| 0.5 0.202648 0.0101351 2.57161e-09 ||| 0-0 0-1 1-3 ||| 6 296 3 ||| |||
wild and ||| planými rostlinami a ||| 1 0.0382354 0.00675676 2.83169e-10 ||| 0-0 1-2 ||| 2 296 2 ||| |||
wild and ||| volně žijících a ||| 0.666667 0.274843 0.00675676 0.0168332 ||| 0-0 0-1 1-2 ||| 3 296 2 ||| |||
wild and ||| zmatené a ||| 0.0666667 0.00510677 0.0101351 0.000314632 ||| 0-0 1-1 ||| 45 296 3 ||| |||
wild and ||| divoký kraj , i ||| 0.5 0.0625458 0.00675676 8.00791e-10 ||| 0-0 1-3 ||| 4 296 2 ||| |||
wild and ||| nespoutané a ||| 0.666667 0.0760806 0.00675676 0.00078658 ||| 0-0 1-1 ||| 3 296 2 ||| |||
wild and ||| volně žijící losos a ||| 1 0.128285 0.0101351 1.10183e-08 ||| 0-0 0-1 1-3 ||| 3 296 3 ||| |||
wild and ||| volně žijící exempláře a ||| 1 0.128285 0.00675676 2.404e-08 ||| 0-0 0-1 1-3 ||| 2 296 2 ||| |||
wild and ||| žijících a ||| 0.142857 0.37216 0.00337838 0.0922638 ||| 0-0 1-1 ||| 7 296 1 ||| |||
wild ||| volně žijícím ||| 0.966667 0.154382 0.00455474 0.00055449 ||| 0-0 0-1 ||| 30 6367 29 ||| |||
wild ||| divoké ||| 0.407031 0.403013 0.0818282 0.0591269 ||| 0-0 ||| 1280 6367 521 ||| |||
wild ||| volně žijícími ||| 0.876289 0.295407 0.0133501 0.00152906 ||| 0-0 0-1 ||| 97 6367 85 ||| |||
wild ||| volně žijícího ||| 0.664384 0.271795 0.0152348 0.00215077 ||| 0-0 0-1 ||| 146 6367 97 ||| |||
wild ||| divokými ||| 0.299492 0.336585 0.00926653 0.0063548 ||| 0-0 ||| 197 6367 59 ||| |||
wild ||| divokého ||| 0.368421 0.409594 0.0263861 0.0204458 ||| 0-0 ||| 456 6367 168 ||| |||
wild ||| divokém ||| 0.282486 0.330357 0.00785299 0.0068153 ||| 0-0 ||| 177 6367 50 ||| |||
wild ||| volně žijících ||| 0.439787 0.368625 0.0906235 0.0197098 ||| 0-0 0-1 ||| 1312 6367 577 ||| |||
wild ||| přírodě ||| 0.108025 0.115596 0.0164913 0.0116043 ||| 0-0 ||| 972 6367 105 ||| |||
wild ||| divokým ||| 0.277778 0.333973 0.0164913 0.0160251 ||| 0-0 ||| 378 6367 105 ||| |||
wild ||| divoká ||| 0.413686 0.420815 0.0417779 0.0342605 ||| 0-0 ||| 643 6367 266 ||| |||
wild ||| žijících ||| 0.322581 0.499149 0.0424062 0.108031 ||| 0-0 ||| 837 6367 270 ||| |||
wild ||| divokou ||| 0.360743 0.370143 0.0213601 0.0166697 ||| 0-0 ||| 377 6367 136 ||| |||
wild ||| divokej ||| 0.704545 0.729167 0.00486886 0.0032234 ||| 0-0 ||| 44 6367 31 ||| |||
wild ||| žijící ||| 0.0457574 0.106015 0.0161772 0.0642844 ||| 0-0 ||| 2251 6367 103 ||| |||
wild ||| wild ||| 0.800971 0.806867 0.0259149 0.0173144 ||| 0-0 ||| 206 6367 165 ||| |||
wild ||| přírody ||| 0.0371732 0.0362845 0.0142924 0.0092098 ||| 0-0 ||| 2448 6367 91 ||| |||
wild ||| divocí ||| 0.445736 0.474748 0.0180619 0.0129858 ||| 0-0 ||| 258 6367 115 ||| |||
wild ||| volně žijící ||| 0.704172 0.172058 0.0874823 0.0117284 ||| 0-0 0-1 ||| 791 6367 557 ||| |||
wild ||| divokých ||| 0.28122 0.290402 0.0463327 0.0326027 ||| 0-0 ||| 1049 6367 295 ||| |||
wild ||| divoce ||| 0.0525101 0.0697853 0.0142924 0.0167618 ||| 0-0 ||| 1733 6367 91 ||| |||
wild ||| divoký ||| 0.392814 0.415486 0.0515156 0.0405231 ||| 0-0 ||| 835 6367 328 ||| |||
wild ||| volně ||| 0.0550176 0.238101 0.039265 0.182446 ||| 0-0 ||| 4544 6367 250 ||| |||
wild ||| volné přírodě ||| 0.0584416 0.0602928 0.00141354 2.24439e-05 ||| 0-0 0-1 ||| 154 6367 9 ||| |||
wild ||| divá ||| 0.265306 0.153846 0.00204178 0.0014736 ||| 0-0 ||| 49 6367 13 ||| |||
wild ||| lesní ||| 0.00522345 0.0063657 0.00141354 0.0010131 ||| 0-0 ||| 1723 6367 9 ||| |||
wild ||| divočině ||| 0.03125 0.136752 0.00172766 0.0073678 ||| 0-0 ||| 352 6367 11 ||| |||
wild ||| divou ||| 0.588235 0.461538 0.0015706 0.0011052 ||| 0-0 ||| 17 6367 10 ||| |||
wild ||| masa volně žijící ||| 0.152778 0.172058 0.00172766 6.04015e-07 ||| 0-1 0-2 ||| 72 6367 11 ||| |||
wild ||| volné přírody ||| 0.0819672 0.0362845 0.0015706 1.36305e-07 ||| 0-1 ||| 122 6367 10 ||| |||
wild ||| planě ||| 0.173333 0.0660377 0.00204178 0.0032234 ||| 0-0 ||| 75 6367 13 ||| |||
wild ||| divočiny ||| 0.0445104 0.130189 0.0023559 0.0063548 ||| 0-0 ||| 337 6367 15 ||| |||
wild ||| divokýma ||| 0.294118 0.354167 0.0015706 0.0015657 ||| 0-0 ||| 34 6367 10 ||| |||
wild ||| černé ||| 0.0019025 0.0017111 0.00251296 0.0015657 ||| 0-0 ||| 8410 6367 16 ||| |||
wild ||| šílený ||| 0.00884035 0.0095877 0.00267002 0.001842 ||| 0-0 ||| 1923 6367 17 ||| |||
wild ||| divokému ||| 0.411765 0.531646 0.00439768 0.0038681 ||| 0-0 ||| 68 6367 28 ||| |||
wild ||| bláznivé ||| 0.0194175 0.0251346 0.0015706 0.0012894 ||| 0-0 ||| 515 6367 10 ||| |||
wild ||| šílené ||| 0.0108011 0.0105634 0.00188472 0.0011052 ||| 0-0 ||| 1111 6367 12 ||| |||
wild ||| divočina ||| 0.0992366 0.168317 0.00204178 0.0031313 ||| 0-0 ||| 131 6367 13 ||| |||
wild ||| volně rostoucích ||| 0.526316 0.132159 0.0015706 0.000470474 ||| 0-0 0-1 ||| 19 6367 10 ||| |||
wild ||| divoký , ||| 0.108434 0.415486 0.00141354 0.0128052 ||| 0-0 ||| 83 6367 9 ||| |||
wild ||| žijícího ||| 0.0926829 0.305489 0.00298414 0.0117885 ||| 0-0 ||| 205 6367 19 ||| |||
wild ||| divoké , ||| 0.0888889 0.403013 0.00125648 0.0186839 ||| 0-0 ||| 90 6367 8 ||| |||
wild ||| divoce žijících ||| 0.409091 0.284467 0.00141354 0.00181079 ||| 0-0 0-1 ||| 22 6367 9 ||| |||
wild ||| divokýho ||| 0.4 0.625 0.00125648 0.000921 ||| 0-0 ||| 20 6367 8 ||| |||
wild ||| izolovaných patogenů divokého ||| 1 0.409594 0.00125648 2.4535e-14 ||| 0-2 ||| 8 6367 8 ||| |||
wild ||| patogenů divokého ||| 1 0.409594 0.00125648 2.4535e-08 ||| 0-1 ||| 8 6367 8 ||| |||
wild ||| přírodě , ||| 0.0473373 0.115596 0.00125648 0.00366692 ||| 0-0 ||| 169 6367 8 ||| |||
wild ||| plané ||| 0.091954 0.0434783 0.00125648 0.0008289 ||| 0-0 ||| 87 6367 8 ||| |||
wild ||| volně žijících ptáků ||| 0.00956938 0.238101 0.00125648 2.25795e-11 ||| 0-0 ||| 836 6367 8 ||| |||
will . ||| to . ||| 0.000614193 0.00427549 0.00451076 0.0137216 ||| 0-0 1-1 ||| 21166 2882 13 ||| |||
will . ||| nebudu . ||| 0.0282486 0.141996 0.00346981 0.00427517 ||| 0-0 1-1 ||| 354 2882 10 ||| |||
will . ||| udělají . ||| 0.113636 0.101967 0.00346981 0.000524443 ||| 0-0 1-1 ||| 88 2882 10 ||| |||
will . ||| jo . ||| 0.00351273 0.00467922 0.019431 0.000541016 ||| 0-0 1-1 ||| 15942 2882 56 ||| |||
will . ||| přeješ . ||| 0.044586 0.0239297 0.00242887 5.31491e-05 ||| 0-0 1-1 ||| 157 2882 7 ||| |||
will . ||| závěť . ||| 0.494505 0.466162 0.0156142 0.000798284 ||| 0-0 1-1 ||| 91 2882 45 ||| |||
will . ||| závěti . ||| 0.322464 0.263769 0.0308813 0.00104222 ||| 0-0 1-1 ||| 276 2882 89 ||| |||
will . ||| přijde . ||| 0.0192572 0.0525605 0.00485774 0.00169782 ||| 0-0 1-1 ||| 727 2882 14 ||| |||
will . ||| chce . ||| 0.0120048 0.00475045 0.00346981 0.000376711 ||| 0-0 1-1 ||| 833 2882 10 ||| |||
will . ||| udělá . ||| 0.0515152 0.0740581 0.00589868 0.001175 ||| 0-0 1-1 ||| 330 2882 17 ||| |||
will . ||| udělám . ||| 0.208738 0.158651 0.0298404 0.00384693 ||| 0-0 1-1 ||| 412 2882 86 ||| |||
will . ||| uděláme . ||| 0.107595 0.0768075 0.00589868 0.00134597 ||| 0-0 1-1 ||| 158 2882 17 ||| |||
will . ||| libo . ||| 0.0990991 0.0418769 0.00381679 3.98142e-05 ||| 0-0 1-1 ||| 111 2882 11 ||| |||
will . ||| chcete . ||| 0.00966184 0.00267038 0.00277585 0.000564257 ||| 0-0 1-1 ||| 828 2882 8 ||| |||
will . ||| libosti . ||| 0.12069 0.110401 0.00242887 0.00011449 ||| 0-0 1-1 ||| 58 2882 7 ||| |||
will . ||| willovi . ||| 0.722222 0.720007 0.00451076 7.46755e-05 ||| 0-0 1-1 ||| 18 2882 13 ||| |||
will . ||| willem . ||| 1 0.275939 0.00242887 6.8008e-05 ||| 0-0 1-1 ||| 7 2882 7 ||| |||
will . ||| poslední vůli . ||| 0.191781 0.172263 0.00485774 3.62554e-07 ||| 0-0 0-1 1-2 ||| 73 2882 14 ||| |||
will . ||| . ||| 2.69564e-05 0.00183806 0.102706 0.952493 ||| 1-0 ||| 1.09807e+07 2882 296 ||| |||
will . ||| wille . ||| 0.906077 0.694984 0.0569049 0.000723609 ||| 0-0 1-1 ||| 181 2882 164 ||| |||
will . ||| chceš . ||| 0.0040404 0.0053846 0.00208189 0.000633979 ||| 0-0 1-1 ||| 1485 2882 6 ||| |||
will . ||| willa . ||| 0.842105 0.775481 0.0055517 0.000230694 ||| 0-0 1-1 ||| 19 2882 16 ||| |||
will . ||| will . ||| 0.861538 0.796691 0.019431 0.00206119 ||| 0-0 1-1 ||| 65 2882 56 ||| |||
will . ||| budu . ||| 0.130208 0.17956 0.0173491 0.0197808 ||| 0-0 1-1 ||| 384 2882 50 ||| |||
will . ||| vůlí . ||| 0.54321 0.302382 0.0152672 0.000449767 ||| 0-0 1-1 ||| 81 2882 44 ||| |||
will . ||| ano . ||| 0.00506475 0.00609192 0.054823 0.00163305 ||| 0-0 1-1 ||| 31196 2882 158 ||| |||
will . ||| vůli . ||| 0.631016 0.343956 0.122831 0.0036511 ||| 0-0 1-1 ||| 561 2882 354 ||| |||
will . ||| chci . ||| 0.00819672 0.00365491 0.00242887 0.000577496 ||| 0-0 1-1 ||| 854 2882 7 ||| |||
will . ||| určitě . ||| 0.00622776 0.0290115 0.00242887 0.00248944 ||| 0-0 1-1 ||| 1124 2882 7 ||| |||
will . ||| vůle . ||| 0.470289 0.330741 0.0961138 0.00390503 ||| 0-0 1-1 ||| 589 2882 277 ||| |||
will . ||| chtít . ||| 0.0203686 0.0148471 0.00728661 0.000414906 ||| 0-0 1-1 ||| 1031 2882 21 ||| |||
will . ||| nebude . ||| 0.0260116 0.127309 0.00624566 0.0171072 ||| 0-0 1-1 ||| 692 2882 18 ||| |||
will . ||| půjdu . ||| 0.0198915 0.139876 0.00381679 0.0036611 ||| 0-0 1-1 ||| 553 2882 11 ||| |||
will . ||| bude . ||| 0.06244 0.169508 0.0225538 0.123951 ||| 0-0 1-1 ||| 1041 2882 65 ||| |||
will . ||| se . ||| 0.00249087 0.00904341 0.00520472 0.0697398 ||| 0-0 1-1 ||| 6022 2882 15 ||| |||
will . ||| uvážení . ||| 0.049505 0.00369146 0.00346981 2.99083e-05 ||| 0-0 1-1 ||| 202 2882 10 ||| |||
will . ||| budeme . ||| 0.10101 0.154005 0.00346981 0.0114977 ||| 0-0 1-1 ||| 99 2882 10 ||| |||
will . ||| budete . ||| 0.125 0.18657 0.00208189 0.011058 ||| 0-0 1-1 ||| 48 2882 6 ||| |||
will . ||| budou . ||| 0.133333 0.185043 0.00693963 0.0481219 ||| 0-0 1-1 ||| 150 2882 20 ||| |||
will . ||| budeš . ||| 0.164706 0.154906 0.00971548 0.00976839 ||| 0-0 1-1 ||| 170 2882 28 ||| |||
will . ||| dojde . ||| 0.0195312 0.0455472 0.00173491 0.00156504 ||| 0-0 1-1 ||| 256 2882 5 ||| |||
will . ||| stane . ||| 0.00931099 0.0286625 0.00173491 0.00089782 ||| 0-0 1-1 ||| 537 2882 5 ||| |||
will . ||| zachce . ||| 0.0257732 0.0347544 0.00173491 3.31468e-05 ||| 0-0 1-1 ||| 194 2882 5 ||| |||
will . ||| vůle ! ||| 0.227273 0.0356365 0.00173491 1.72938e-05 ||| 0-0 1-1 ||| 22 2882 5 ||| |||
will . ||| přeje . ||| 0.034965 0.00147477 0.00173491 1.65734e-05 ||| 0-0 1-1 ||| 143 2882 5 ||| |||
will ` ` ||| bude „ ||| 0.047619 0.135744 0.166667 0.113953 ||| 0-0 1-1 2-1 ||| 63 18 3 ||| |||
will ` ` ||| měl „ ||| 0.05 0.000108995 0.0555556 4.88621e-05 ||| 0-0 1-1 2-1 ||| 20 18 1 ||| |||
will ` ` ||| „ ||| 2.76853e-06 0.00147194 0.222222 0.875665 ||| 1-0 2-0 ||| 1.44481e+06 18 4 ||| |||
will allow us to ||| nám umožní ||| 0.08 0.000973528 0.4 0.0044789 ||| 2-0 0-1 1-1 3-1 ||| 50 10 4 ||| |||
will allow us to ||| umožní ||| 0.000123289 1.25583e-07 0.1 0.0190406 ||| 0-0 1-0 2-0 3-0 ||| 8111 10 1 ||| |||
will allow us ||| dovolí ||| 0.00110132 3.09774e-05 0.0666667 0.00209087 ||| 0-0 1-0 2-0 ||| 908 15 1 ||| |||
will allow us ||| nám povolí ||| 0.333333 7.16653e-05 0.0666667 0.00137537 ||| 2-0 1-1 ||| 3 15 1 ||| |||
will allow us ||| nám umožní ||| 0.06 0.00483363 0.2 0.00665953 ||| 2-0 0-1 1-1 ||| 50 15 3 ||| |||
will allow us ||| umožní nám ||| 0.0909091 0.00483363 0.0666667 0.00665953 ||| 0-0 1-0 2-1 ||| 11 15 1 ||| |||
will allow ||| povede ||| 0.00364431 0.000572153 0.0112867 0.00119525 ||| 0-0 1-0 ||| 2744 886 10 ||| |||
will allow ||| se umožní ||| 0.0618557 0.001139 0.00677201 0.00528073 ||| 0-0 1-1 ||| 97 886 6 ||| |||
will allow ||| poskytnout ||| 0.00280961 2.4047e-05 0.0575621 0.00352615 ||| 0-0 1-0 ||| 18152 886 51 ||| |||
will allow ||| poskytne ||| 0.00471865 0.000280724 0.0451467 0.002023 ||| 0-0 1-0 ||| 8477 886 40 ||| |||
will allow ||| dovolíte ||| 0.00334448 0.0037594 0.00225734 0.0015203 ||| 0-0 1-0 ||| 598 886 2 ||| |||
will allow ||| dovolím ||| 0.0127389 0.0149444 0.00225734 0.00092545 ||| 0-0 1-0 ||| 157 886 2 ||| |||
will allow ||| smím ||| 0.00194175 1.67697e-05 0.00225734 0.0004083 ||| 1-0 ||| 1030 886 2 ||| |||
will allow ||| dovolí ||| 0.030837 0.00921891 0.0316027 0.00311645 ||| 0-0 1-0 ||| 908 886 28 ||| |||
will allow ||| dovolí , ||| 0.0290698 0.00921891 0.00564334 0.000984787 ||| 0-0 1-0 ||| 172 886 5 ||| |||
will allow ||| povolí ||| 0.00146413 0.000572731 0.00451467 0.00391495 ||| 0-0 1-0 ||| 2732 886 4 ||| |||
will allow ||| , umožní ||| 0.103448 4.68341e-05 0.030474 0.000658362 ||| 0-0 1-1 ||| 261 886 27 ||| |||
will allow ||| tak budou moci ||| 0.0666667 0.000599332 0.00225734 4.28351e-07 ||| 0-1 1-2 ||| 30 886 2 ||| |||
will allow ||| kapitálem umožní ||| 1 0.0113369 0.00225734 1.39652e-07 ||| 0-1 1-1 ||| 2 886 2 ||| |||
will allow ||| které umožní ||| 0.00164204 0.00567137 0.00225734 4.06313e-05 ||| 1-0 0-1 1-1 ||| 1218 886 2 ||| |||
will allow ||| akce povolí ||| 1 0.000384878 0.003386 1.72506e-06 ||| 0-0 1-1 ||| 3 886 3 ||| |||
will allow ||| nedovolí ||| 0.00511945 0.0104291 0.003386 0.0025478 ||| 0-0 1-0 ||| 586 886 3 ||| |||
will allow ||| s dostatečným kapitálem umožní ||| 1 0.0113369 0.00225734 4.4126e-15 ||| 0-3 1-3 ||| 2 886 2 ||| |||
will allow ||| umožní , aby si ||| 0.0606061 0.0113369 0.00225734 1.54452e-07 ||| 0-0 1-0 ||| 33 886 2 ||| |||
will allow ||| bude možné ||| 0.0045403 0.000985356 0.00902935 0.00207228 ||| 0-0 1-1 ||| 1762 886 8 ||| |||
will allow ||| umožní , aby ||| 0.0289017 0.00582972 0.00564334 0.000680463 ||| 0-0 1-0 1-2 ||| 173 886 5 ||| |||
will allow ||| dostatečným kapitálem umožní ||| 1 0.0113369 0.00225734 7.12226e-13 ||| 0-2 1-2 ||| 2 886 2 ||| |||
will allow ||| umožní , ||| 0.0669975 0.0113369 0.030474 0.0119269 ||| 0-0 1-0 ||| 403 886 27 ||| |||
will allow ||| by ||| 7.16954e-06 4.34763e-07 0.00225734 0.0082345 ||| 0-0 ||| 278958 886 2 ||| |||
will allow ||| možné ||| 3.78139e-05 1.06847e-05 0.003386 0.0159243 ||| 1-0 ||| 79336 886 3 ||| |||
will allow ||| budou moci ||| 0.00883753 0.000599332 0.0146727 0.00015003 ||| 0-0 1-1 ||| 1471 886 13 ||| |||
will allow ||| mu umožní ||| 0.0101523 0.000218716 0.00225734 5.16474e-05 ||| 0-0 1-1 ||| 197 886 2 ||| |||
will allow ||| budou ||| 5.22637e-05 1.36599e-05 0.00451467 0.050522 ||| 0-0 ||| 76535 886 4 ||| |||
will allow ||| umožňují ||| 0.00095057 9.18281e-05 0.00451467 0.0256725 ||| 0-0 1-0 ||| 4208 886 4 ||| |||
will allow ||| umožňuje ||| 0.000163827 9.59453e-06 0.003386 0.0096836 ||| 0-0 1-0 ||| 18312 886 3 ||| |||
will allow ||| umožní ||| 0.052398 0.0113369 0.479684 0.0377439 ||| 0-0 1-0 ||| 8111 886 425 ||| |||
will allow ||| může umožnit ||| 0.0566038 0.000385827 0.003386 7.10743e-05 ||| 0-0 0-1 1-1 ||| 53 886 3 ||| |||
will allow ||| úspěšně uplatněny ||| 0.4 5.15453e-06 0.00225734 1.08332e-09 ||| 1-1 ||| 5 886 2 ||| |||
will allow ||| přispěje ||| 0.00130804 0.000317879 0.00225734 0.000703 ||| 0-0 1-0 ||| 1529 886 2 ||| |||
will allow ||| pomůže ||| 0.000463392 0.000173539 0.00225734 0.0010864 ||| 0-0 1-0 ||| 4316 886 2 ||| |||
will allow ||| vezme v tomto ohledu ||| 1 5.23304e-06 0.00225734 1.85521e-13 ||| 0-0 1-3 ||| 2 886 2 ||| |||
will allow ||| určitě bude možné ||| 1 0.000577001 0.00225734 5.4161e-06 ||| 0-0 0-1 1-2 ||| 2 886 2 ||| |||
will at least ||| alespoň ||| 5.83328e-05 0.000348011 0.0952381 0.179676 ||| 1-0 2-0 ||| 34286 21 2 ||| |||
will at least ||| aspoň ||| 0.000364067 0.000160847 0.190476 0.0494292 ||| 1-0 2-0 ||| 10987 21 4 ||| |||
will at least ||| přinejmenším ||| 0.000229043 0.00039818 0.0952381 0.0458606 ||| 1-0 2-0 ||| 8732 21 2 ||| |||
will at ||| , ||| 3.72486e-07 3.77145e-07 0.125 0.0025659 ||| 1-0 ||| 8.054e+06 24 3 ||| |||
will be a good ||| bude dobrá ||| 0.0169492 0.000610528 0.04 0.00254613 ||| 0-0 1-0 2-1 3-1 ||| 59 25 1 ||| |||
will be a good ||| bude dobrý ||| 0.00931677 0.00301544 0.12 0.00515781 ||| 0-0 1-0 2-1 3-1 ||| 322 25 3 ||| |||
will be a good ||| budu hodný ||| 0.04 0.00126967 0.04 5.02497e-05 ||| 0-0 1-0 2-1 3-1 ||| 25 25 1 ||| |||
will be a good ||| dobrý ||| 4.801e-05 1.15206e-06 0.04 0.0569151 ||| 2-0 3-0 ||| 20829 25 1 ||| |||
will be a good ||| půjde o dobrou ||| 0.666667 7.07437e-05 0.08 5.25298e-07 ||| 0-0 1-0 2-1 3-2 ||| 3 25 2 ||| |||
will be a little ||| bude o něco ||| 0.111111 2.05922e-05 0.0909091 2.70831e-05 ||| 0-0 1-0 2-1 3-2 ||| 18 22 2 ||| |||
will be a little ||| bude trochu ||| 0.0267857 0.00262087 0.136364 0.00706844 ||| 0-0 1-0 2-1 3-1 ||| 112 22 3 ||| |||
will be a little ||| budou trochu ||| 0.272727 0.00311108 0.136364 0.00274119 ||| 0-0 1-0 2-1 3-1 ||| 11 22 3 ||| |||
will be a ||| se stane ||| 0.0014455 3.93091e-06 0.0139276 1.02927e-05 ||| 0-0 1-0 1-1 2-1 ||| 6918 718 10 ||| |||
will be a ||| budou ||| 0.000182923 0.000338033 0.0194986 0.0235041 ||| 0-0 1-0 2-0 ||| 76535 718 14 ||| |||
will be a ||| , bude to ||| 0.00317209 1.84864e-06 0.00557103 3.8193e-06 ||| 0-0 1-1 2-2 ||| 1261 718 4 ||| |||
will be a ||| , bude ||| 0.000438927 4.12212e-06 0.0097493 0.00046657 ||| 0-0 1-1 ||| 15948 718 7 ||| |||
will be a ||| představovat ||| 0.000877963 3.40913e-06 0.00417827 0.0002723 ||| 2-0 ||| 3417 718 3 ||| |||
will be a ||| bude velice ||| 0.027027 0.00502298 0.00278552 5.86329e-05 ||| 0-0 1-0 2-1 ||| 74 718 2 ||| |||
will be a ||| will be a ||| 1 0.0250293 0.0111421 1.79033e-07 ||| 0-0 1-1 2-2 ||| 8 718 8 ||| |||
will be a ||| bude velmi ||| 0.0109091 0.00517771 0.00417827 0.000194567 ||| 0-0 1-0 2-1 ||| 275 718 3 ||| |||
will be a ||| , to bude ||| 0.00921659 1.71014e-05 0.00557103 0.000119754 ||| 0-1 1-2 2-2 ||| 434 718 4 ||| |||
will be a ||| to bude ||| 0.000887049 1.71014e-05 0.0125348 0.000378972 ||| 0-0 1-1 2-1 ||| 10146 718 9 ||| |||
will be a ||| a ||| 5.5458e-07 6.12777e-07 0.00417827 0.051909 ||| 2-0 ||| 5.4095e+06 718 3 ||| |||
will be a ||| budu ||| 0.000116964 0.000139724 0.00417827 0.0041664 ||| 1-0 ||| 25649 718 3 ||| |||
will be a ||| dojde k ||| 0.00104022 5.30616e-05 0.00417827 7.53971e-06 ||| 0-0 1-0 2-1 ||| 2884 718 3 ||| |||
will be a ||| bude to ||| 0.000847889 0.000842699 0.00696379 0.000741829 ||| 0-0 1-0 2-1 ||| 5897 718 5 ||| |||
will be a ||| bude ||| 0.000864902 0.000678011 0.243733 0.0609154 ||| 0-0 1-0 2-0 ||| 202335 718 175 ||| |||
will be a ||| půjde o ||| 0.0288462 0.000127983 0.00835655 1.17073e-05 ||| 0-0 1-0 2-1 ||| 208 718 6 ||| |||
will be a ||| je ||| 3.30364e-05 9.34295e-06 0.0696379 0.0530657 ||| 0-0 1-0 ||| 1.51348e+06 718 50 ||| |||
will be a ||| nebude ||| 9.37178e-05 0.00019729 0.00417827 0.00829533 ||| 0-0 1-0 2-0 ||| 32011 718 3 ||| |||
will be a ||| toho bude ||| 0.0140845 1.26838e-05 0.00557103 3.04814e-05 ||| 0-0 1-1 2-1 ||| 284 718 4 ||| |||
will be a ||| se ||| 9.79704e-06 1.93444e-05 0.0250696 0.0886158 ||| 0-0 1-0 ||| 1.83729e+06 718 18 ||| |||
will be a ||| nebyl ||| 0.000631822 3.19526e-06 0.04039 0.0018358 ||| 1-0 ||| 45899 718 29 ||| |||
will be a ||| se bude ||| 0.000733891 3.61725e-05 0.00696379 0.00192612 ||| 0-0 1-1 2-1 ||| 6813 718 5 ||| |||
will be a ||| bude znamenat ||| 0.00990099 0.00121504 0.00417827 3.79709e-06 ||| 0-0 1-0 2-1 ||| 303 718 3 ||| |||
will be a ||| bude ze ||| 0.0555556 0.000350083 0.00417827 7.47547e-05 ||| 0-0 1-0 2-1 ||| 54 718 3 ||| |||
will be a ||| bude z ní ||| 0.0652174 0.000633104 0.00417827 8.1874e-08 ||| 0-0 1-0 2-1 2-2 ||| 46 718 3 ||| |||
will be a ||| bude představovat ||| 0.0242424 0.00616254 0.00557103 2.45135e-05 ||| 0-0 1-0 1-1 2-1 ||| 165 718 4 ||| |||
will be a ||| bude z ||| 0.0373563 0.000609727 0.0181058 0.00029881 ||| 0-0 1-0 2-1 ||| 348 718 13 ||| |||
will be a ||| bude mít ||| 0.000917852 0.00217101 0.00835655 0.000402197 ||| 0-0 1-0 1-1 2-1 ||| 6537 718 6 ||| |||
will be a ||| budeš ||| 0.000122835 0.000119875 0.00278552 0.0041433 ||| 0-0 1-0 2-0 ||| 16282 718 2 ||| |||
will be a ||| budete ||| 0.000129752 0.000108977 0.00278552 0.0045183 ||| 0-0 1-0 2-0 ||| 15414 718 2 ||| |||
will be a ||| bude z něj ||| 0.0392157 0.000595612 0.00278552 6.3557e-08 ||| 0-0 1-0 2-1 2-2 ||| 51 718 2 ||| |||
will be a ||| stane ||| 0.000327708 2.63656e-05 0.00278552 0.0001817 ||| 1-0 ||| 6103 718 2 ||| |||
will be about ||| bude asi ||| 0.0100251 0.00638194 0.133333 0.00374363 ||| 0-0 1-0 2-1 ||| 399 30 4 ||| |||
will be about ||| bude přibližně ||| 0.00948767 0.00764918 0.166667 0.00112955 ||| 0-0 1-0 2-1 ||| 527 30 5 ||| |||
will be about ||| bude ||| 4.9423e-06 2.51208e-05 0.0333333 0.0906228 ||| 0-0 1-0 ||| 202335 30 1 ||| |||
will be about ||| bude činit přibližně ||| 0.166667 0.00555645 0.0666667 6.28694e-07 ||| 0-0 1-1 2-2 ||| 12 30 2 ||| |||
will be about ||| budou přibližně ||| 0.333333 0.00907989 0.0666667 0.000438047 ||| 0-0 1-0 2-1 ||| 6 30 2 ||| |||
will be about ||| to bude tak ||| 0.0377358 4.23652e-06 0.0666667 5.05194e-06 ||| 0-0 1-1 2-2 ||| 53 30 2 ||| |||
will be about ||| činit přibližně ||| 0.030303 0.00014964 0.0333333 2.64368e-06 ||| 0-0 1-0 2-1 ||| 33 30 1 ||| |||
will be brought to ||| bude souzen u ||| 0.5 0.000382266 0.1875 9.94221e-08 ||| 0-0 1-0 2-1 3-1 3-2 ||| 60 160 30 ||| |||
will be brought to ||| kompetentním pro soudní ||| 0.125 4.74619e-10 0.1875 2.79343e-11 ||| 3-1 ||| 240 160 30 ||| |||
will be brought to ||| kompetentním pro ||| 0.125 4.74619e-10 0.1875 1.17618e-07 ||| 3-1 ||| 240 160 30 ||| |||
will be brought to ||| pro soudní ||| 0.0164654 4.74619e-10 0.1875 6.49634e-06 ||| 3-0 ||| 1822 160 30 ||| |||
will be brought to ||| pro ||| 2.68168e-05 4.74619e-10 0.1875 0.027353 ||| 3-0 ||| 1.1187e+06 160 30 ||| |||
will be brought ||| bude ||| 9.8846e-06 9.906e-06 0.02 0.0906228 ||| 0-0 1-0 ||| 202335 100 2 ||| |||
will be brought ||| budou převedeny ||| 0.0283019 0.000172741 0.03 3.33166e-06 ||| 0-0 1-0 2-1 ||| 106 100 3 ||| |||
will be brought ||| budou ||| 2.61318e-05 1.17588e-05 0.02 0.0351441 ||| 0-0 1-0 ||| 76535 100 2 ||| |||
will be brought ||| projednáván ||| 0.0571992 7.50014e-05 0.29 0.000282033 ||| 0-0 1-0 2-0 ||| 507 100 29 ||| |||
will be brought ||| přivezou ||| 0.00980392 0.000264203 0.01 0.0001422 ||| 0-0 1-0 2-0 ||| 102 100 1 ||| |||
will be brought ||| se podávají ||| 0.0244698 1.60435e-05 0.3 0.000256109 ||| 0-0 1-0 2-1 ||| 1226 100 30 ||| |||
will be brought ||| se ||| 1.63284e-06 9.27518e-09 0.03 0.104013 ||| 1-0 ||| 1.83729e+06 100 3 ||| |||
will be fine . '' ||| bude v pořádku . “ ||| 0.0555556 0.000976279 0.142857 0.000805733 ||| 0-0 1-0 2-1 2-2 3-3 4-4 ||| 54 21 3 ||| |||
will be fine . '' ||| budete v pořádku . “ ||| 0.2 0.000494585 0.047619 6.00872e-05 ||| 0-0 1-0 2-1 2-2 3-3 4-4 ||| 5 21 1 ||| |||
will be fine . ||| bude dobré . ||| 0.131579 0.000493435 0.0638298 0.000887025 ||| 0-0 1-0 2-1 3-2 ||| 114 235 15 ||| |||
will be fine . ||| bude dobrý . ||| 0.077381 0.000682271 0.0553191 0.00149828 ||| 0-0 1-0 2-1 3-2 ||| 168 235 13 ||| |||
will be fine . ||| bude fajn . ||| 0.145455 0.00955592 0.0340426 0.00530796 ||| 0-0 1-0 2-1 3-2 ||| 55 235 8 ||| |||
will be fine . ||| nestane . ||| 0.0107296 5.32929e-06 0.0212766 0.000373092 ||| 0-0 1-0 2-0 3-1 ||| 466 235 5 ||| |||
will be fine . ||| to zvládnu . ||| 0.0182482 2.62718e-07 0.0212766 7.82017e-06 ||| 0-0 1-0 2-1 3-2 ||| 274 235 5 ||| |||
will be fine . ||| bude stačit . ||| 0.0520833 0.00060081 0.0425532 0.000173429 ||| 0-0 1-0 2-1 3-2 ||| 192 235 10 ||| |||
will be fine . ||| to zvládne . ||| 0.0280374 2.05253e-07 0.012766 3.58412e-06 ||| 0-0 1-0 2-1 3-2 ||| 107 235 3 ||| |||
will be fine . ||| . ||| 2.73207e-07 7.49954e-10 0.012766 0.952493 ||| 3-0 ||| 1.09807e+07 235 3 ||| |||
will be fine . ||| bude v pohodě . ||| 0.0990991 0.00347328 0.0468085 0.000278273 ||| 0-0 1-0 2-1 2-2 3-3 ||| 111 235 11 ||| |||
will be fine . ||| bude v pořádku . ||| 0.0506757 0.00140657 0.191489 0.000890607 ||| 0-0 1-0 2-1 2-2 3-3 ||| 888 235 45 ||| |||
will be fine . ||| bude vpořádku . ||| 0.111111 0.00215753 0.00851064 7.10739e-05 ||| 0-0 1-0 2-1 3-2 ||| 18 235 2 ||| |||
will be fine . ||| to bude příjemné . ||| 0.666667 6.78516e-06 0.00851064 4.61977e-07 ||| 0-0 1-1 2-2 3-3 ||| 3 235 2 ||| |||
will be fine . ||| bude zase v pořádku . ||| 0.0714286 0.000724502 0.00851064 1.45971e-07 ||| 0-0 1-0 1-1 2-2 2-3 3-4 ||| 28 235 2 ||| |||
will be fine . ||| dobře dopadne . ||| 0.0461538 4.17976e-05 0.012766 2.07245e-05 ||| 2-0 0-1 1-1 2-1 3-2 ||| 65 235 3 ||| |||
will be fine . ||| budeš v pořádku . ||| 0.0231788 0.000618891 0.0297872 6.08227e-05 ||| 0-0 1-0 2-1 2-2 3-3 ||| 302 235 7 ||| |||
will be fine . ||| budou v pořádku . ||| 0.0571429 0.00166966 0.00851064 0.000345383 ||| 0-0 1-0 2-1 2-2 3-3 ||| 35 235 2 ||| |||
will be fine . ||| se uzdraví . ||| 0.0666667 5.80912e-05 0.00851064 1.24633e-05 ||| 1-0 0-1 2-1 3-2 ||| 30 235 2 ||| |||
will be fine . ||| budu v pohodě . ||| 0.0816327 0.00199075 0.0170213 3.82817e-05 ||| 0-0 1-0 2-1 2-2 3-3 ||| 49 235 4 ||| |||
will be fine . ||| budu v pořádku . ||| 0.0196078 0.000806193 0.0170213 0.00012252 ||| 0-0 1-0 2-1 2-2 3-3 ||| 204 235 4 ||| |||
will be fine . ||| zase v pořádku . ||| 0.0192308 4.06176e-06 0.00425532 2.90528e-06 ||| 0-0 2-1 1-2 2-2 3-3 ||| 52 235 1 ||| |||
will be fine . ||| v pohodě . ||| 0.000590667 1.06168e-06 0.00425532 0.00102715 ||| 2-0 0-1 1-1 2-1 3-2 ||| 1693 235 1 ||| |||
will be fine . ||| to zvládneš . ||| 0.01 3.84638e-07 0.00425532 7.4947e-06 ||| 0-0 1-0 2-1 3-2 ||| 100 235 1 ||| |||
will be fine ||| bude ||| 9.8846e-06 1.60788e-06 0.00574713 0.0511125 ||| 1-0 ||| 202335 348 2 ||| |||
will be fine ||| bude dobré ||| 0.0700389 0.000581876 0.0517241 0.000931267 ||| 0-0 1-0 2-1 ||| 257 348 18 ||| |||
will be fine ||| bude dobrý ||| 0.0496894 0.000804558 0.045977 0.00157301 ||| 0-0 1-0 2-1 ||| 322 348 16 ||| |||
will be fine ||| bude dobře ||| 0.0316456 0.00125908 0.0143678 0.00778745 ||| 0-0 1-0 2-1 ||| 158 348 5 ||| |||
will be fine ||| bude fajn ||| 0.119565 0.0112687 0.0316092 0.0055727 ||| 0-0 1-0 2-1 ||| 92 348 11 ||| |||
will be fine ||| nestane ||| 0.00244598 6.28448e-06 0.0172414 0.0003917 ||| 0-0 1-0 2-0 ||| 2453 348 6 ||| |||
will be fine ||| dobře dopadne ||| 0.0409836 4.92891e-05 0.0143678 2.17581e-05 ||| 2-0 0-1 1-1 2-1 ||| 122 348 5 ||| |||
will be fine ||| budu v pořádku ||| 0.0218978 0.00095069 0.0172414 0.000128631 ||| 0-0 1-0 2-1 2-2 ||| 274 348 6 ||| |||
will be fine ||| budu v pohodě ||| 0.0714286 0.00234756 0.0114943 4.01911e-05 ||| 0-0 1-0 2-1 2-2 ||| 56 348 4 ||| |||
will be fine ||| to zvládnu ||| 0.0122249 3.09806e-07 0.0143678 8.21021e-06 ||| 0-0 1-0 2-1 ||| 409 348 5 ||| |||
will be fine ||| budou v pořádku ||| 0.0327869 0.00196892 0.00574713 0.00036261 ||| 0-0 1-0 2-1 2-2 ||| 61 348 2 ||| |||
will be fine ||| budeš v pořádku ||| 0.0146252 0.000729818 0.0229885 6.38564e-05 ||| 0-0 1-0 2-1 2-2 ||| 547 348 8 ||| |||
will be fine ||| to zvládne ||| 0.0135135 2.42042e-07 0.00862069 3.76288e-06 ||| 0-0 1-0 2-1 ||| 222 348 3 ||| |||
will be fine ||| budete v pořádku ||| 0.025641 0.00084029 0.0114943 6.97293e-05 ||| 0-0 1-0 2-1 2-2 ||| 156 348 4 ||| |||
will be fine ||| budeme v pořádku ||| 0.0246914 0.000609787 0.00574713 7.31677e-05 ||| 0-0 1-0 2-1 2-2 ||| 81 348 2 ||| |||
will be fine ||| bude stačit ||| 0.0272537 0.000708496 0.0373563 0.000182079 ||| 0-0 1-0 2-1 ||| 477 348 13 ||| |||
will be fine ||| bude zase v pořádku ||| 0.0454545 0.000854357 0.00574713 1.53251e-07 ||| 0-0 1-0 1-1 2-2 2-3 ||| 44 348 2 ||| |||
will be fine ||| se uzdraví ||| 0.0294118 6.85031e-05 0.00574713 1.30849e-05 ||| 1-0 0-1 2-1 ||| 68 348 2 ||| |||
will be fine ||| bude vpořádku ||| 0.0769231 0.00254424 0.00574713 7.46188e-05 ||| 0-0 1-0 2-1 ||| 26 348 2 ||| |||
will be fine ||| bude v pořádku ||| 0.0428094 0.00165868 0.183908 0.000935028 ||| 0-0 1-0 2-1 2-2 ||| 1495 348 64 ||| |||
will be fine ||| bude v pořádku , ||| 0.017316 0.00165868 0.0114943 0.000295465 ||| 0-0 1-0 2-1 2-2 ||| 231 348 4 ||| |||
will be fine ||| bude v pohodě ||| 0.0764331 0.00409582 0.0344828 0.000292152 ||| 0-0 1-0 2-1 2-2 ||| 157 348 12 ||| |||
will be fine ||| to bude příjemné ||| 0.4 8.00129e-06 0.00574713 4.85018e-07 ||| 0-0 1-1 2-2 ||| 5 348 2 ||| |||
will be fine ||| pohodě ||| 0.000892857 1.26741e-05 0.00287356 0.013682 ||| 1-0 2-0 ||| 1120 348 1 ||| |||
will be fine ||| nic nestane ||| 0.00446429 5.42554e-06 0.00287356 5.03154e-06 ||| 2-0 0-1 1-1 2-1 ||| 224 348 1 ||| |||
will be fine ||| v pohodě ||| 0.00070028 1.25197e-06 0.00574713 0.00107838 ||| 2-0 0-1 1-1 2-1 ||| 2856 348 2 ||| |||
will be launched ||| bude spuštěn ||| 0.0454545 0.00131689 0.0689655 0.000973769 ||| 0-0 1-0 2-1 ||| 88 58 4 ||| |||
will be launched ||| bude zahájen ||| 0.0304878 0.00316737 0.0862069 0.00261053 ||| 0-0 1-0 2-1 ||| 164 58 5 ||| |||
will be launched ||| bude zahájena ||| 0.0442478 0.00287853 0.0862069 0.00406082 ||| 0-0 1-0 2-1 ||| 113 58 5 ||| |||
will be launched ||| bude zahájeno ||| 0.0583942 0.00176349 0.137931 0.00486885 ||| 0-0 1-0 2-1 ||| 137 58 8 ||| |||
will be launched ||| bude zveřejněna ||| 0.0104439 0.000290878 0.0689655 0.000393656 ||| 0-0 1-0 2-1 ||| 383 58 4 ||| |||
will be launched ||| budou vypuštěny ||| 0.0243902 0.008241 0.0172414 0.000233009 ||| 0-0 1-0 2-1 ||| 41 58 1 ||| |||
will be launched ||| budou zahájena ||| 0.0869565 0.00341693 0.0344828 0.00157481 ||| 0-0 1-0 2-1 ||| 23 58 2 ||| |||
will be launched ||| budou zahájeny ||| 0.0675676 0.00545169 0.0862069 0.000666887 ||| 0-0 1-0 2-1 ||| 74 58 5 ||| |||
will be launched ||| zahájena ||| 0.000369004 1.09975e-06 0.0172414 0.0448102 ||| 2-0 ||| 2710 58 1 ||| |||
will be launched ||| zahájí ||| 0.000335121 7.5228e-08 0.0172414 0.0045725 ||| 2-0 ||| 2984 58 1 ||| |||
will be legally ||| bude mít zákonnou ||| 1 0.00906223 0.135135 4.29429e-05 ||| 0-0 1-1 2-2 ||| 5 37 5 ||| |||
will be legally ||| bude právně ||| 0.885714 0.0310171 0.837838 0.0272813 ||| 0-0 1-0 2-1 ||| 35 37 31 ||| |||
will be made from ||| se provede z ||| 1 5.56523e-06 0.4 0.000110841 ||| 0-0 1-0 2-1 3-2 ||| 2 5 2 ||| |||
will be made ||| bude vyvinuto ||| 0.5 0.0180584 0.00495663 5.55789e-05 ||| 0-0 1-0 2-1 ||| 8 807 4 ||| |||
will be made ||| se poskytují ||| 0.0164975 3.91774e-06 0.016109 4.55308e-05 ||| 0-0 1-0 2-1 ||| 788 807 13 ||| |||
will be made ||| nebudou provedeny ||| 0.321429 0.0041382 0.0111524 3.06659e-05 ||| 0-0 1-0 2-1 ||| 28 807 9 ||| |||
will be made ||| se provede ||| 0.0096225 2.32369e-05 0.016109 0.000378451 ||| 0-0 1-0 2-1 ||| 1351 807 13 ||| |||
will be made ||| se provedou ||| 0.0172414 2.22541e-05 0.0086741 8.51864e-05 ||| 0-0 1-0 2-1 ||| 406 807 7 ||| |||
will be made ||| nebude provedena ||| 0.125 0.00283823 0.00619579 7.03187e-05 ||| 0-0 1-0 2-1 ||| 40 807 5 ||| |||
will be made ||| , bude učiněn ||| 0.833333 1.09197e-05 0.00619579 1.3894e-06 ||| 0-0 1-1 2-2 ||| 6 807 5 ||| |||
will be made ||| bude ||| 0.000217461 3.0545e-05 0.0545229 0.06087 ||| 0-0 1-0 2-0 ||| 202335 807 44 ||| |||
will be made ||| , bude ||| 0.000877853 3.0545e-05 0.0173482 0.0192347 ||| 0-1 1-1 2-1 ||| 15948 807 14 ||| |||
will be made ||| budou dány ||| 0.459016 0.0116701 0.0346964 5.68913e-05 ||| 0-0 1-0 2-1 ||| 61 807 28 ||| |||
will be made ||| osoby vydáno ||| 1 2.2082e-08 0.00743494 6.95e-09 ||| 0-0 1-1 2-1 ||| 6 807 6 ||| |||
will be made ||| budou k ||| 0.0717703 4.45563e-05 0.0185874 0.000168927 ||| 0-0 1-0 2-1 ||| 209 807 15 ||| |||
will be made ||| probíhají ||| 0.0245399 6.04452e-06 0.0297398 0.000118967 ||| 0-0 1-0 2-0 ||| 978 807 24 ||| |||
will be made ||| bude vydán ||| 0.46875 0.00165695 0.0371747 5.20718e-05 ||| 0-0 1-0 2-1 ||| 64 807 30 ||| |||
will be made ||| bude učiněno ||| 0.0895522 0.00880211 0.00743494 0.000285389 ||| 0-0 1-0 2-1 ||| 67 807 6 ||| |||
will be made ||| proběhne ||| 0.00504686 9.11043e-05 0.0086741 0.000247933 ||| 0-0 1-0 2-0 ||| 1387 807 7 ||| |||
will be made ||| jmenuje ||| 0.00311423 3.14473e-08 0.0346964 0.0001547 ||| 2-0 ||| 8991 807 28 ||| |||
will be made ||| se neprovádějí ||| 0.116279 3.08682e-05 0.00619579 1.07668e-05 ||| 0-0 1-0 2-1 ||| 43 807 5 ||| |||
will be made ||| bude učiněn ||| 0.366667 0.00497774 0.0136307 0.000269866 ||| 0-0 1-0 2-1 ||| 30 807 11 ||| |||
will be made ||| se nebude konat ||| 0.307692 3.08072e-05 0.00495663 4.00289e-08 ||| 0-0 0-1 1-1 2-2 ||| 13 807 4 ||| |||
will be made ||| se uskuteční ||| 0.0164042 3.09214e-05 0.0309789 0.000162548 ||| 0-0 1-0 2-1 ||| 1524 807 25 ||| |||
will be made ||| budou provedeny ||| 0.0513513 0.00758392 0.023544 0.000221158 ||| 0-0 1-0 2-1 ||| 370 807 19 ||| |||
will be made ||| budou prováděny ||| 0.0811518 0.00312149 0.0384139 7.04815e-05 ||| 0-0 1-0 2-1 ||| 382 807 31 ||| |||
will be made ||| bude se ||| 0.0147131 9.34047e-05 0.0371747 0.00398843 ||| 0-0 1-0 2-1 ||| 2039 807 30 ||| |||
will be made ||| bude k ||| 0.040201 3.75356e-05 0.0198265 0.000435596 ||| 0-0 1-0 2-1 ||| 398 807 16 ||| |||
will be made ||| dojde ||| 0.000665513 1.60368e-05 0.00619579 0.000929133 ||| 0-0 1-0 2-0 ||| 7513 807 5 ||| |||
will be made ||| provádí ||| 0.000611757 4.0867e-06 0.0136307 0.001465 ||| 0-0 1-0 2-0 ||| 17981 807 11 ||| |||
will be made ||| budou převedeny na ||| 0.123077 0.000176799 0.00991326 3.6818e-09 ||| 0-0 1-0 2-1 2-2 ||| 65 807 8 ||| |||
will be made ||| budou ||| 0.000235187 6.02585e-05 0.0223048 0.0236983 ||| 0-0 1-0 2-0 ||| 76535 807 18 ||| |||
will be made ||| bude provedeno ||| 0.0227273 0.00353786 0.00743494 0.00030191 ||| 0-0 1-0 2-1 ||| 264 807 6 ||| |||
will be made ||| bude provedena ||| 0.113537 0.0052372 0.0322181 0.000515199 ||| 0-0 1-0 2-1 ||| 229 807 26 ||| |||
will be made ||| bude proveden ||| 0.0215311 0.00264472 0.0111524 0.000158717 ||| 0-0 1-0 2-1 ||| 418 807 9 ||| |||
will be made ||| budou učiněny ||| 0.553571 0.0178814 0.0384139 5.20379e-05 ||| 0-0 1-0 2-1 ||| 56 807 31 ||| |||
will be made ||| budou vytvořena ||| 0.15 0.0022721 0.00371747 1.96104e-05 ||| 0-0 1-0 2-1 ||| 20 807 3 ||| |||
will be made ||| budou poskytnuty ||| 0.0168539 0.00279153 0.00371747 5.61146e-05 ||| 0-0 1-0 2-1 ||| 178 807 3 ||| |||
will be made ||| je ||| 2.64292e-06 2.47395e-07 0.00495663 0.0530657 ||| 0-0 1-0 ||| 1.51348e+06 807 4 ||| |||
will be made ||| bude dána ||| 0.028777 0.00113904 0.00495663 3.55513e-05 ||| 0-0 1-0 2-1 ||| 139 807 4 ||| |||
will be made ||| budou zvoleny ||| 0.272727 0.00197049 0.00371747 1.16327e-06 ||| 0-0 1-0 2-1 ||| 11 807 3 ||| |||
will be made ||| části se proto ||| 0.5 1.59901e-07 0.00247831 1.91771e-08 ||| 1-1 2-2 ||| 4 807 2 ||| |||
will be made ||| bude pokračovat ||| 0.00365408 2.84844e-05 0.00371747 7.51263e-06 ||| 0-0 1-0 2-1 ||| 821 807 3 ||| |||
will be published at ||| budou publikována v ||| 1 0.00186459 0.857143 1.95871e-05 ||| 0-0 1-0 2-1 3-2 ||| 6 7 6 ||| |||
will be published ||| budou publikována ||| 1 0.0431967 0.0141343 0.000115241 ||| 0-0 1-0 2-1 ||| 8 566 8 ||| |||
will be published ||| se zveřejní ||| 0.034662 5.40061e-05 0.0353357 0.00364362 ||| 0-0 1-0 2-1 ||| 577 566 20 ||| |||
will be published ||| platnost bude zveřejněn ||| 0.6875 0.0363958 0.0194346 2.49015e-06 ||| 0-1 1-1 2-2 ||| 16 566 11 ||| |||
will be published ||| v platnost bude zveřejněn ||| 0.733333 0.0363958 0.0194346 4.25497e-08 ||| 0-2 1-2 2-3 ||| 15 566 11 ||| |||
will be published ||| vyjde ||| 0.00562588 1.15671e-05 0.0141343 0.000443433 ||| 0-0 1-0 2-0 ||| 1422 566 8 ||| |||
will be published ||| budou zveřejněny ||| 0.222004 0.031003 0.199647 0.00197331 ||| 0-0 1-0 2-1 ||| 509 566 113 ||| |||
will be published ||| budou uveřejněny ||| 0.761905 0.00906034 0.0282686 9.71102e-05 ||| 0-0 1-0 2-1 ||| 21 566 16 ||| |||
will be published ||| bude publikováno ||| 0.7 0.0316292 0.024735 0.00034056 ||| 0-0 1-0 2-1 ||| 20 566 14 ||| |||
will be published ||| bude zveřejněno ||| 0.0185695 0.0258353 0.0954064 0.0144839 ||| 0-0 1-0 2-1 ||| 2908 566 54 ||| |||
will be published ||| bude zveřejněna ||| 0.0678851 0.0373852 0.0459364 0.00815345 ||| 0-0 1-0 2-1 ||| 383 566 26 ||| |||
will be published ||| bude zveřejněn ||| 0.362791 0.0363958 0.275618 0.00484466 ||| 0-0 1-0 2-1 ||| 430 566 156 ||| |||
will be published ||| zveřejněn ||| 0.00438356 1.39051e-05 0.0141343 0.0534596 ||| 2-0 ||| 1825 566 8 ||| |||
will be published ||| platnost zveřejní ||| 0.0869565 2.00425e-06 0.00353357 2.11342e-05 ||| 2-1 ||| 23 566 2 ||| |||
will be published ||| bude vyhlášen ||| 0.333333 0.00322975 0.00530035 0.000240395 ||| 0-0 1-0 2-1 ||| 9 566 3 ||| |||
will be published ||| platnost bude zveřejněno ||| 1 0.0258353 0.00353357 7.44471e-06 ||| 0-1 1-1 2-2 ||| 2 566 2 ||| |||
will be published ||| zveřejněno ||| 0.000401123 9.87044e-06 0.00530035 0.159826 ||| 2-0 ||| 7479 566 3 ||| |||
will be published ||| , bude zveřejněno ||| 0.26087 5.66751e-05 0.0106007 7.45701e-05 ||| 0-0 1-1 2-2 ||| 23 566 6 ||| |||
will be published ||| uveřejní je ||| 1 0.000436004 0.00530035 6.41472e-05 ||| 0-0 2-0 1-1 ||| 3 566 3 ||| |||
will be published ||| , budou zveřejněna ||| 0.25 0.0222335 0.00530035 2.88633e-05 ||| 0-0 0-1 1-1 2-2 ||| 12 566 3 ||| |||
will be published ||| v platnost bude zveřejněno ||| 1 0.0258353 0.00353357 1.27209e-07 ||| 0-2 1-2 2-3 ||| 2 566 2 ||| |||
will be published ||| bude zveřejněno , ||| 0.25 0.0258353 0.00530035 0.00457686 ||| 0-0 1-0 2-1 ||| 12 566 3 ||| |||
will be published ||| jmenovala , budou zveřejněna ||| 1 0.0222335 0.00353357 5.77266e-11 ||| 0-1 0-2 1-2 2-3 ||| 2 566 2 ||| |||
will be published ||| zveřejní ||| 0.00136519 2.00425e-06 0.0106007 0.0411171 ||| 2-0 ||| 4395 566 6 ||| |||
will be published ||| v platnost zveřejní ||| 0.333333 2.00425e-06 0.00353357 3.61124e-07 ||| 2-2 ||| 6 566 2 ||| |||
will be published ||| budou publikovány ||| 0.142857 0.0364315 0.00706714 0.000238249 ||| 0-0 1-0 2-1 ||| 28 566 4 ||| |||
will be published ||| , budou zveřejněny ||| 0.0571429 6.2302e-05 0.00353357 1.01311e-05 ||| 0-0 1-1 2-2 ||| 35 566 2 ||| |||
will be published ||| zveřejní se ||| 0.0265487 6.28578e-05 0.00530035 0.00214942 ||| 0-0 2-0 1-1 ||| 113 566 3 ||| |||
will be published ||| budou zveřejňovány ||| 0.175 0.0245142 0.0123675 0.000305578 ||| 0-0 1-0 2-1 ||| 40 566 7 ||| |||
will be published ||| budou zveřejněna ||| 0.108108 0.0443778 0.00706714 0.00316196 ||| 0-0 1-0 2-1 ||| 37 566 4 ||| |||
will be published ||| ) vyjde ||| 0.2 5.028e-07 0.00176678 3.47987e-06 ||| 1-1 2-1 ||| 5 566 1 ||| |||
will be published ||| will be published ||| 1 0.553505 0.00353357 9.6575e-09 ||| 0-0 1-1 2-2 ||| 2 566 2 ||| |||
will be published ||| bude publikována ||| 0.5 0.0363903 0.00353357 0.000297161 ||| 0-0 1-0 2-1 ||| 4 566 2 ||| |||
will be published ||| bude zveřejňována ||| 0.666667 0.0313407 0.00353357 0.000323868 ||| 0-0 1-0 2-1 ||| 3 566 2 ||| |||
will be published ||| bude uveřejněna ||| 0.4 0.0265242 0.00353357 0.00020701 ||| 0-0 1-0 2-1 ||| 5 566 2 ||| |||
will be published ||| bude zveřejněn , ||| 1 0.0363958 0.00353357 0.00153089 ||| 0-0 1-0 2-1 ||| 2 566 2 ||| |||
will be published ||| zveřejňují ||| 0.0008726 8.86852e-06 0.00176678 0.0269324 ||| 2-0 ||| 1146 566 1 ||| |||
will be serious ||| bude mít vážné ||| 0.0714286 0.0134143 0.333333 0.000123397 ||| 0-0 1-1 2-2 ||| 14 3 1 ||| |||
will be submitted to ||| , budou předloženy ke ||| 0.363636 1.23794e-05 0.0120482 1.52324e-07 ||| 0-0 1-1 2-2 3-3 ||| 11 332 4 ||| |||
will be submitted to ||| bude předložen ||| 0.0165289 0.00165485 0.0060241 0.00162641 ||| 0-0 1-0 2-1 3-1 ||| 121 332 2 ||| |||
will be submitted to ||| bude předložena ||| 0.0267176 0.00115141 0.0210843 0.00161579 ||| 0-0 1-0 2-1 3-1 ||| 262 332 7 ||| |||
will be submitted to ||| bude ||| 4.9423e-06 1.43161e-07 0.00301205 0.0906228 ||| 0-0 1-0 ||| 202335 332 1 ||| |||
will be submitted to ||| budou předloženy ||| 0.0216607 0.00230069 0.0180723 0.00113432 ||| 0-0 1-0 2-1 3-1 ||| 277 332 6 ||| |||
will be submitted to ||| budou ||| 1.30659e-05 1.69937e-07 0.00301205 0.0351441 ||| 0-0 1-0 ||| 76535 332 1 ||| |||
will be submitted to ||| byl předložen , ||| 0.833333 1.04219e-06 0.0903614 2.27081e-05 ||| 0-0 1-0 2-1 3-1 ||| 36 332 30 ||| |||
will be submitted to ||| byl předložen ||| 0.0646552 1.04219e-06 0.0903614 7.18618e-05 ||| 0-0 1-0 2-1 3-1 ||| 464 332 30 ||| |||
will be submitted to ||| jej předloží ||| 0.38961 9.68242e-07 0.0903614 6.70634e-06 ||| 0-0 1-0 2-1 3-1 ||| 77 332 30 ||| |||
will be submitted to ||| projdou ||| 0.151515 6.69312e-08 0.271084 0.00012335 ||| 0-0 1-0 ||| 594 332 90 ||| |||
will be submitted to ||| předloženy ||| 0.000137268 1.0406e-07 0.00301205 0.0215193 ||| 0-0 2-0 3-0 ||| 7285 332 1 ||| |||
will be submitted to ||| se budou nejprve řešit pomocí ||| 1 4.21337e-06 0.0873494 1.62734e-13 ||| 0-0 1-1 2-2 3-3 ||| 29 332 29 ||| |||
will be submitted to ||| se budou nejprve řešit ||| 1 4.21337e-06 0.268072 1.07344e-09 ||| 0-0 1-1 2-2 3-3 ||| 89 332 89 ||| |||
will be submitted to ||| se předloží ||| 0.00268817 3.11547e-06 0.0060241 0.00117471 ||| 0-0 1-0 2-1 3-1 ||| 744 332 2 ||| |||
will be submitted ||| , budou předloženy ||| 0.363636 3.17951e-05 0.0172414 1.16003e-05 ||| 0-0 1-1 2-2 ||| 11 232 4 ||| |||
will be submitted ||| bude předložen ||| 0.0991736 0.00978322 0.0517241 0.00323206 ||| 0-0 1-0 2-1 ||| 121 232 12 ||| |||
will be submitted ||| bude předložena ||| 0.0267176 0.00788531 0.0301724 0.0032095 ||| 0-0 1-0 2-1 ||| 262 232 7 ||| |||
will be submitted ||| bude ||| 4.9423e-06 4.32001e-06 0.00431034 0.0906228 ||| 0-0 1-0 ||| 202335 232 1 ||| |||
will be submitted ||| budou předloženy ||| 0.00722022 0.015822 0.00862069 0.00225948 ||| 0-0 1-0 2-1 ||| 277 232 2 ||| |||
will be submitted ||| budou ||| 9.14614e-05 1.66158e-07 0.0301724 0.050522 ||| 0-0 ||| 76535 232 7 ||| |||
will be submitted ||| projdou ||| 0.151515 2.01972e-06 0.387931 0.00012335 ||| 0-0 1-0 ||| 594 232 90 ||| |||
will be submitted ||| předložena ||| 0.000160875 3.0126e-06 0.00431034 0.0354161 ||| 2-0 ||| 6216 232 1 ||| |||
will be submitted ||| předloženy ||| 0.000411805 5.09237e-06 0.012931 0.064292 ||| 2-0 ||| 7285 232 3 ||| |||
will be submitted ||| předloží ||| 8.58369e-05 7.13756e-07 0.00431034 0.0256851 ||| 2-0 ||| 11650 232 1 ||| |||
will be submitted ||| se budou nejprve ||| 1 2.24668e-05 0.383621 3.11143e-06 ||| 0-0 1-1 2-2 ||| 89 232 89 ||| |||
will be submitted ||| se predloží ||| 1 9.513e-05 0.00431034 4.0143e-06 ||| 0-0 1-0 2-1 ||| 1 232 1 ||| |||
will be taken on ||| bude přijato na ||| 0.285714 0.00165398 0.222222 0.000363758 ||| 0-0 1-0 2-1 3-2 ||| 7 9 2 ||| |||
will be taken on ||| jsou přijímána ||| 0.00775194 2.50774e-07 0.222222 3.43931e-05 ||| 0-0 1-0 2-1 ||| 258 9 2 ||| |||
will be taken ||| budou okamžitě přijata ||| 0.4 0.000169046 0.0058651 7.83538e-08 ||| 1-0 0-1 2-2 ||| 10 682 4 ||| |||
will be taken ||| budou podniknuty ||| 0.277778 0.0362823 0.00733138 8.21493e-05 ||| 0-0 1-0 2-1 ||| 18 682 5 ||| |||
will be taken ||| budou prováděny ||| 0.0183246 0.000206377 0.0102639 9.1691e-06 ||| 0-0 1-0 2-1 ||| 382 682 7 ||| |||
will be taken ||| budou brány ||| 0.298246 0.00311419 0.0249267 0.000126856 ||| 0-0 1-0 2-1 ||| 57 682 17 ||| |||
will be taken ||| budou převzaty ||| 0.571429 0.0168302 0.0117302 5.46385e-05 ||| 0-0 1-0 2-1 ||| 14 682 8 ||| |||
will be taken ||| jsou přijímána ||| 0.0155039 4.52603e-05 0.0058651 3.43931e-05 ||| 0-0 1-0 2-1 ||| 258 682 4 ||| |||
will be taken ||| bude ||| 1.48269e-05 2.09024e-05 0.00439883 0.0906228 ||| 0-0 1-0 ||| 202335 682 3 ||| |||
will be taken ||| se budou brát ||| 0.416667 0.00387788 0.00733138 2.87039e-05 ||| 0-0 0-1 1-1 2-2 ||| 12 682 5 ||| |||
will be taken ||| je věnována ||| 0.0191571 5.97926e-06 0.00733138 5.48116e-05 ||| 0-0 1-0 2-1 ||| 261 682 5 ||| |||
will be taken ||| budou přijata ||| 0.148438 0.0150168 0.111437 0.00122959 ||| 0-0 1-0 2-1 ||| 512 682 76 ||| |||
will be taken ||| , se při ||| 0.0526316 4.6114e-08 0.0058651 4.82435e-05 ||| 1-1 2-2 ||| 76 682 4 ||| |||
will be taken ||| přijme ||| 0.000352883 3.73992e-07 0.00733138 0.0049143 ||| 2-0 ||| 14169 682 5 ||| |||
will be taken ||| vezme ||| 0.00135823 6.50456e-07 0.0058651 0.0022832 ||| 2-0 ||| 2945 682 4 ||| |||
will be taken ||| bude vzat ||| 0.444444 0.00690891 0.0058651 9.4583e-05 ||| 0-0 1-0 2-1 ||| 9 682 4 ||| |||
will be taken ||| bere ||| 0.00160809 9.41304e-06 0.0102639 0.00186467 ||| 0-0 1-0 2-0 ||| 4353 682 7 ||| |||
will be taken ||| bude vydáno ||| 0.197368 0.00196087 0.0439883 0.000306423 ||| 0-0 1-0 2-1 ||| 152 682 30 ||| |||
will be taken ||| budou přijímána ||| 0.0857143 0.0170263 0.00439883 0.000126094 ||| 0-0 1-0 2-1 ||| 35 682 3 ||| |||
will be taken ||| se podniknou ||| 0.454545 9.72726e-05 0.00733138 1.23776e-05 ||| 1-0 0-1 2-1 ||| 11 682 5 ||| |||
will be taken ||| bude brán ||| 0.116279 0.0140085 0.00733138 0.000224645 ||| 0-0 1-0 2-1 ||| 43 682 5 ||| |||
will be taken ||| budou učiněna ||| 0.234043 0.00481178 0.016129 0.00012189 ||| 0-0 1-0 2-1 ||| 47 682 11 ||| |||
will be taken ||| bude bráno ||| 0.903226 0.0193646 0.0410557 0.000112318 ||| 0-0 1-0 2-1 ||| 31 682 28 ||| |||
will be taken ||| se při ||| 0.00122399 4.6114e-08 0.0058651 0.000152671 ||| 1-0 2-1 ||| 3268 682 4 ||| |||
will be taken ||| se bere ||| 0.0121359 2.44964e-05 0.00733138 0.000471126 ||| 0-0 1-0 2-1 ||| 412 682 5 ||| |||
will be taken ||| se berou ||| 0.013289 6.28367e-05 0.0058651 0.000446696 ||| 1-0 2-1 ||| 301 682 4 ||| |||
will be taken ||| bude kladen ||| 0.0934579 0.000587827 0.0146628 9.85069e-06 ||| 0-0 1-0 2-1 ||| 107 682 10 ||| |||
will be taken ||| se ||| 4.89852e-06 1.88736e-08 0.0131965 0.0458049 ||| 2-0 ||| 1.83729e+06 682 9 ||| |||
will be taken ||| se vezmou ||| 0.158537 0.000561994 0.0571848 0.000151152 ||| 1-0 0-1 2-1 ||| 246 682 39 ||| |||
will be taken ||| bude považováno ||| 0.173913 0.000212341 0.0058651 2.1677e-05 ||| 0-0 1-0 2-1 ||| 23 682 4 ||| |||
will be taken ||| se vezme ||| 0.0276243 1.7527e-05 0.00733138 0.000202328 ||| 0-0 1-0 2-1 ||| 181 682 5 ||| |||
will be taken ||| se uskuteční ||| 0.00918635 3.72548e-06 0.0205279 3.8539e-05 ||| 0-0 1-0 2-1 ||| 1524 682 14 ||| |||
will be taken ||| se rozhodne ||| 0.00411946 1.32862e-05 0.0058651 0.000574222 ||| 0-0 1-0 2-1 ||| 971 682 4 ||| |||
will be taken ||| budou ||| 9.14614e-05 1.73366e-05 0.0102639 0.0235816 ||| 0-0 1-0 2-0 ||| 76535 682 7 ||| |||
will be taken ||| bude spuštěna ||| 0.0545455 9.69116e-05 0.00439883 3.94209e-06 ||| 0-0 1-0 2-1 ||| 55 682 3 ||| |||
will be taken ||| budou vzaty ||| 0.323529 0.0343711 0.016129 0.000247597 ||| 0-0 1-0 2-1 ||| 34 682 11 ||| |||
will be taken ||| bude přijato ||| 0.166667 0.00969029 0.0571848 0.00117642 ||| 0-0 1-0 2-1 ||| 234 682 39 ||| |||
will be taken ||| bude rozhodnuto ||| 0.216438 0.00228573 0.115836 0.000344206 ||| 0-0 1-0 2-0 2-1 ||| 365 682 79 ||| |||
will be taken ||| bude se ||| 0.00245218 4.94006e-05 0.00733138 0.00415097 ||| 0-0 1-0 2-1 ||| 2039 682 5 ||| |||
will be taken ||| nebude vzato ||| 0.5 0.0024032 0.00293255 2.24583e-05 ||| 0-0 1-0 2-1 ||| 4 682 2 ||| |||
will be taken ||| will be taken ||| 1 0.560788 0.00439883 2.09974e-09 ||| 0-0 1-1 2-2 ||| 3 682 3 ||| |||
will be taken ||| na palubě se bere ||| 1 2.67146e-07 0.00293255 1.04883e-11 ||| 0-0 1-2 2-3 ||| 2 682 2 ||| |||
will be to ||| úkolem bude ||| 0.00840336 5.03728e-05 0.0103093 4.18611e-06 ||| 0-0 1-1 ||| 238 194 2 ||| |||
will be to ||| uchazeč bude přijat ve ||| 1 0.000115507 0.0206186 5.66171e-14 ||| 0-0 1-1 2-3 ||| 4 194 4 ||| |||
will be to ||| této databáze bude ||| 0.4 1.05783e-06 0.0103093 4.11558e-11 ||| 0-0 1-2 ||| 5 194 2 ||| |||
will be to ||| je ||| 3.96437e-06 7.61298e-06 0.0309278 0.0530657 ||| 0-0 1-0 ||| 1.51348e+06 194 6 ||| |||
will be to ||| je na základě úlovků ||| 1 4.50101e-05 0.0206186 5.64908e-12 ||| 0-0 1-0 2-1 ||| 4 194 4 ||| |||
will be to ||| je na základě ||| 0.0125392 4.50101e-05 0.0206186 2.35379e-06 ||| 0-0 1-0 2-1 ||| 319 194 4 ||| |||
will be to ||| budou ||| 5.22637e-05 0.00181751 0.0206186 0.0351441 ||| 0-0 1-0 ||| 76535 194 4 ||| |||
will be to ||| budou se sledovat ||| 1 0.000401651 0.0154639 6.93655e-07 ||| 0-0 1-1 1-2 2-2 ||| 3 194 3 ||| |||
will be to ||| bude mít za ||| 0.0162162 0.0014347 0.0154639 7.72346e-06 ||| 0-0 1-1 2-2 ||| 185 194 3 ||| |||
will be to ||| bude ||| 0.000331134 0.00153113 0.345361 0.0906228 ||| 0-0 1-0 ||| 202335 194 67 ||| |||
will be to ||| že ||| 9.89638e-07 1.37162e-08 0.00515464 0.00453427 ||| 0-0 1-0 2-0 ||| 1.01047e+06 194 1 ||| |||
will be to ||| bude , že ||| 0.0240964 0.00217325 0.0103093 0.000339256 ||| 0-0 1-0 2-2 ||| 83 194 2 ||| |||
will be worse ||| bude horší ||| 0.0769231 0.0292656 0.25 0.0319417 ||| 0-0 1-0 2-1 ||| 39 12 3 ||| |||
will be worse ||| budou horší , ||| 0.222222 0.0347395 0.166667 0.00391432 ||| 0-0 1-0 2-1 ||| 9 12 2 ||| |||
will be worse ||| budou horší ||| 0.142857 0.0347395 0.166667 0.0123872 ||| 0-0 1-0 2-1 ||| 14 12 2 ||| |||
will be worse ||| se zhorší , ||| 0.142857 8.77556e-05 0.166667 0.000262054 ||| 0-0 1-0 2-1 ||| 14 12 2 ||| |||
will be worse ||| se zhorší ||| 0.0454545 8.77556e-05 0.166667 0.000829293 ||| 0-0 1-0 2-1 ||| 44 12 2 ||| |||
will be ||| se budou ||| 0.171429 0.0026804 0.00760801 0.00144725 ||| 0-0 1-1 ||| 3325 74921 570 ||| |||
will be ||| se ||| 0.00332936 0.00047565 0.081646 0.0886158 ||| 0-0 1-0 ||| 1.83729e+06 74921 6117 ||| |||
will be ||| budu ||| 0.0330227 0.026482 0.0113052 0.0124669 ||| 0-0 1-0 ||| 25649 74921 847 ||| |||
will be ||| se bude ||| 0.119624 0.00246499 0.0108781 0.00374237 ||| 0-0 1-1 ||| 6813 74921 815 ||| |||
will be ||| budou ||| 0.160528 0.0548453 0.163986 0.0351441 ||| 0-0 1-0 ||| 76535 74921 12286 ||| |||
will be ||| , budou ||| 0.129561 0.000110214 0.0112785 0.000180432 ||| 0-0 1-1 ||| 6522 74921 845 ||| |||
will be ||| nebude ||| 0.0296148 0.0250393 0.0126533 0.012369 ||| 0-0 1-0 ||| 32011 74921 948 ||| |||
will be ||| , bude ||| 0.0593178 0.000101357 0.0126266 0.00046657 ||| 0-0 1-1 ||| 15948 74921 946 ||| |||
will be ||| budete ||| 0.0373037 0.0234067 0.00767475 0.00675815 ||| 0-0 1-0 ||| 15414 74921 575 ||| |||
will be ||| je ||| 0.00163729 0.000229729 0.0330748 0.0530657 ||| 0-0 1-0 ||| 1.51348e+06 74921 2478 ||| |||
will be ||| bude ||| 0.135009 0.0462034 0.364611 0.0906228 ||| 0-0 1-0 ||| 202335 74921 27317 ||| |||
will be ||| jsou ||| 0.00175283 0.000145793 0.0097436 0.00958585 ||| 0-0 1-0 ||| 416469 74921 730 ||| |||
will be ||| vám ||| 0.00165933 0.000388488 0.00130804 0.0050154 ||| 0-0 1-0 ||| 59060 74921 98 ||| |||
will be ||| , ||| 1.88726e-05 3.57114e-06 0.0020288 0.0091283 ||| 0-0 ||| 8.054e+06 74921 152 ||| |||
will be ||| bude mít ||| 0.0454337 0.0219466 0.00396418 0.00091071 ||| 0-0 1-1 ||| 6537 74921 297 ||| |||
will be ||| budeme ||| 0.0299122 0.0169859 0.00727433 0.0070914 ||| 0-0 1-0 ||| 18220 74921 545 ||| |||
will be ||| to bude ||| 0.015277 0.00116538 0.00206885 0.000736327 ||| 0-0 1-1 ||| 10146 74921 155 ||| |||
will be ||| budeš ||| 0.0330426 0.0203294 0.0071809 0.00618895 ||| 0-0 1-0 ||| 16282 74921 538 ||| |||
will be ||| vám bude ||| 0.202578 0.0129577 0.00146821 0.00049204 ||| 0-0 1-1 ||| 543 74921 110 ||| |||
will be ||| nebudou ||| 0.0314439 0.0299266 0.00493854 0.0048731 ||| 0-0 1-0 ||| 11767 74921 370 ||| |||
will be ||| to ||| 0.000128325 3.30717e-05 0.00153495 0.0103861 ||| 0-0 1-0 ||| 896161 74921 115 ||| |||
will be ||| být ||| 0.000290689 0.00103263 0.00168177 0.112428 ||| 0-0 1-0 ||| 433453 74921 126 ||| |||
will be ||| má ||| 0.000727082 7.26862e-05 0.00166842 0.0041569 ||| 0-0 1-0 ||| 171920 74921 125 ||| |||
will be ||| , se ||| 0.00589423 1.9558e-05 0.00389744 0.000949465 ||| 0-0 1-1 ||| 49540 74921 292 ||| |||
will be ||| by ||| 0.000906947 0.000523346 0.00337689 0.0192906 ||| 0-0 1-0 ||| 278958 74921 253 ||| |||
will be ||| budou mít ||| 0.0582011 0.0239579 0.00190868 0.000353568 ||| 0-0 1-1 ||| 2457 74921 143 ||| |||
will be ||| není ||| 0.000488052 6.61576e-05 0.00134809 0.0040914 ||| 0-0 1-0 ||| 206945 74921 101 ||| |||
will be ||| bude se ||| 0.0490436 0.0275594 0.00133474 0.00942598 ||| 0-0 1-0 1-1 ||| 2039 74921 100 ||| |||
will be ||| will be ||| 0.989796 0.721013 0.00258939 3.44898e-06 ||| 0-0 1-1 ||| 196 74921 194 ||| |||
will be ||| bude v ||| 0.0265935 0.0462034 0.000840886 0.00154849 ||| 0-0 1-0 ||| 2369 74921 63 ||| |||
will be ||| projdou ||| 0.154882 0.0216013 0.00122796 0.00012335 ||| 0-0 1-0 ||| 594 74921 92 ||| |||
will be ||| bude , ||| 0.0644444 0.0462034 0.00116122 0.0286365 ||| 0-0 1-0 ||| 1350 74921 87 ||| |||
will be ||| dojde ||| 0.00838547 0.00211698 0.000840886 0.0010263 ||| 0-0 1-0 ||| 7513 74921 63 ||| |||
will be ||| se má ||| 0.0181139 0.00044559 0.0012947 0.000542254 ||| 0-0 1-1 ||| 5355 74921 97 ||| |||
will be ||| , je ||| 0.00117095 0.000133021 0.00124131 0.0284316 ||| 1-1 ||| 79423 74921 93 ||| |||
will be ||| bude ji ||| 0.5 0.000916372 0.00102775 5.18332e-05 ||| 1-0 0-1 ||| 154 74921 77 ||| |||
will be ||| bude následně ||| 0.584158 0.0462034 0.000787496 4.14146e-06 ||| 0-0 1-0 ||| 101 74921 59 ||| |||
will be ||| ke studiu , bude ||| 1 0.0231524 0.000827538 5.8161e-12 ||| 0-2 0-3 1-3 ||| 62 74921 62 ||| |||
will be ||| studiu , bude ||| 1 0.0231524 0.000827538 7.44508e-09 ||| 0-1 0-2 1-2 ||| 62 74921 62 ||| |||
will be ||| se provádí ||| 0.00724638 0.000512461 0.000800844 7.58906e-05 ||| 0-0 1-0 1-1 ||| 8280 74921 60 ||| |||
will be ||| přijde ||| 0.00755418 0.00196402 0.000814191 0.001046 ||| 0-0 1-0 ||| 8075 74921 61 ||| |||
will begin . ||| začne . ||| 0.03125 0.00274553 0.444444 0.0268245 ||| 0-0 1-0 2-1 ||| 128 9 4 ||| |||
will begin . ||| začneme . ||| 0.0124224 0.00460329 0.222222 0.0138276 ||| 0-0 1-0 2-1 ||| 161 9 2 ||| |||
will begin . ||| začnu . ||| 0.0227273 0.00573385 0.111111 0.00545069 ||| 0-0 1-0 2-1 ||| 44 9 1 ||| |||
will begin ||| začít ||| 0.000279681 0.000584074 0.00677966 0.137463 ||| 1-0 ||| 7151 295 2 ||| |||
will begin ||| začíná ||| 0.00175246 0.000234725 0.0542373 0.0551233 ||| 0-0 1-0 ||| 9130 295 16 ||| |||
will begin ||| začínat ||| 0.0033557 0.000483537 0.00677966 0.00585085 ||| 0-0 1-0 ||| 596 295 2 ||| |||
will begin ||| začnu ||| 0.00865801 0.00676155 0.0271186 0.00572255 ||| 0-0 1-0 ||| 924 295 8 ||| |||
will begin ||| začnou ||| 0.00617871 0.00513042 0.0440678 0.0169105 ||| 0-0 1-0 ||| 2104 295 13 ||| |||
will begin ||| bude zahájen ||| 0.176829 0.00489392 0.0983051 0.00058038 ||| 0-0 1-1 ||| 164 295 29 ||| |||
will begin ||| bude zahájena ||| 0.0442478 0.00260504 0.0169492 0.000528782 ||| 0-0 1-1 ||| 113 295 5 ||| |||
will begin ||| bude zahájeno ||| 0.248175 0.00269463 0.115254 0.00107047 ||| 0-0 1-1 ||| 137 295 34 ||| |||
will begin ||| se začne ||| 0.00584795 0.00062318 0.00677966 0.00405639 ||| 0-0 1-1 ||| 342 295 2 ||| |||
will begin ||| začneš ||| 0.00663717 0.0018708 0.0101695 0.00172665 ||| 0-0 1-0 ||| 452 295 3 ||| |||
will begin ||| budou zahájena ||| 0.130435 0.00284378 0.0101695 0.000205291 ||| 0-0 1-1 ||| 23 295 3 ||| |||
will begin ||| budou ||| 2.61318e-05 8.44467e-06 0.00677966 0.050522 ||| 0-0 ||| 76535 295 2 ||| |||
will begin ||| běžet ||| 0.00043262 1.26136e-05 0.00677966 0.0055544 ||| 0-0 1-0 ||| 4623 295 2 ||| |||
will begin ||| začneme ||| 0.00705053 0.00542836 0.040678 0.0145172 ||| 0-0 1-0 ||| 1702 295 12 ||| |||
will begin ||| začne ||| 0.0128928 0.00323763 0.216949 0.0281624 ||| 0-0 1-0 ||| 4964 295 64 ||| |||
will begin ||| začne za ||| 0.0909091 0.00165119 0.0101695 3.87656e-05 ||| 0-0 1-0 0-1 ||| 33 295 3 ||| |||
will begin ||| vypukne ||| 0.00729927 0.000833335 0.00338983 0.0003652 ||| 0-0 1-0 ||| 137 295 1 ||| |||
will begin ||| započne ||| 0.0078125 0.00297521 0.00677966 0.0008007 ||| 0-0 1-0 ||| 256 295 2 ||| |||
will begin ||| od ||| 6.64388e-06 1.55626e-07 0.00677966 0.0022795 ||| 1-0 ||| 301029 295 2 ||| |||
will begin ||| zahájí ||| 0.00201072 0.00116939 0.020339 0.00447605 ||| 0-0 1-0 ||| 2984 295 6 ||| |||
will begin ||| začnete ||| 0.000609013 0.000291555 0.00338983 0.00365315 ||| 0-0 1-0 ||| 1642 295 1 ||| |||
will begin ||| začne v ||| 0.0126582 2.80493e-06 0.00338983 1.477e-05 ||| 1-0 0-1 ||| 79 295 1 ||| |||
will bring ||| povede k ||| 0.00187091 0.00046498 0.00325203 1.09038e-06 ||| 0-0 1-0 1-1 ||| 1069 615 2 ||| |||
will bring ||| přinese ||| 0.0640593 0.0215093 0.154472 0.0067245 ||| 0-0 1-0 ||| 1483 615 95 ||| |||
will bring ||| ti přinesu ||| 0.06 0.00464114 0.00487805 5.96104e-05 ||| 0-0 1-1 ||| 50 615 3 ||| |||
will bring ||| nepřinese ||| 0.0242718 0.0144223 0.00813008 0.0009522 ||| 0-0 1-0 ||| 206 615 5 ||| |||
will bring ||| způsobí ||| 0.00288046 0.000826993 0.0097561 0.0007365 ||| 0-0 1-0 ||| 2083 615 6 ||| |||
will bring ||| zobrazíte ||| 0.00210748 1.04058e-05 0.00650406 0.00012915 ||| 0-0 1-0 ||| 1898 615 4 ||| |||
will bring ||| přinesou ||| 0.0681818 0.021738 0.0390244 0.001907 ||| 0-0 1-0 ||| 352 615 24 ||| |||
will bring ||| přinesu ||| 0.0443787 0.031149 0.0487805 0.0046179 ||| 0-0 1-0 ||| 676 615 30 ||| |||
will bring ||| přinese , ||| 0.0491803 0.0215093 0.00487805 0.00212492 ||| 0-0 1-0 ||| 61 615 3 ||| |||
will bring ||| přináší ||| 0.00533204 0.000157184 0.0178862 0.00124545 ||| 0-0 1-0 ||| 2063 615 11 ||| |||
will bring ||| nepřivede ||| 0.0444444 0.0198817 0.00325203 0.0002191 ||| 0-0 1-0 ||| 45 615 2 ||| |||
will bring ||| umožní ||| 0.000739736 9.91931e-05 0.0097561 0.0019419 ||| 0-0 1-0 ||| 8111 615 6 ||| |||
will bring ||| přispěje ||| 0.00392413 0.0011656 0.0097561 0.0008153 ||| 0-0 1-0 ||| 1529 615 6 ||| |||
will bring ||| přispějí k ||| 0.00983607 0.00229459 0.0097561 1.81106e-06 ||| 0-0 1-0 ||| 610 615 6 ||| |||
will bring ||| zajistí ||| 0.00074129 2.29303e-05 0.0227642 0.00140885 ||| 0-0 1-0 ||| 18886 615 14 ||| |||
will bring ||| přispějí ||| 0.0116959 0.00229459 0.0097561 0.0003575 ||| 0-0 1-0 ||| 513 615 6 ||| |||
will bring ||| dovede ||| 0.00687758 0.00108048 0.00813008 0.00042585 ||| 0-0 1-0 ||| 727 615 5 ||| |||
will bring ||| bude mít ||| 0.000458926 7.4239e-05 0.00487805 0.000159023 ||| 0-0 1-1 ||| 6537 615 3 ||| |||
will bring ||| vezmu ||| 0.00246103 0.00120518 0.0097561 0.00191875 ||| 0-0 1-0 ||| 2438 615 6 ||| |||
will bring ||| přivede ||| 0.0346939 0.0188095 0.0276423 0.00239055 ||| 0-0 1-0 ||| 490 615 17 ||| |||
will bring ||| vnese ||| 0.0857143 0.0127551 0.00487805 0.00012655 ||| 0-0 1-0 ||| 35 615 3 ||| |||
will bring ||| bude ||| 0.000108731 1.39123e-05 0.0357724 0.0654636 ||| 0-0 1-0 ||| 202335 615 22 ||| |||
will bring ||| přivedeme ||| 0.0405405 0.0281969 0.00487805 0.00058255 ||| 0-0 1-0 ||| 74 615 3 ||| |||
will bring ||| vám přinesu ||| 0.0810811 0.00817159 0.00487805 8.20494e-05 ||| 0-0 1-1 ||| 37 615 3 ||| |||
will bring ||| přivolá ||| 0.0357143 0.00591239 0.00325203 0.0001318 ||| 0-0 1-0 ||| 56 615 2 ||| |||
will bring ||| přivedou ||| 0.0448718 0.0212191 0.0113821 0.0007065 ||| 0-0 1-0 ||| 156 615 7 ||| |||
will bring ||| přivezu ||| 0.0365854 0.0436098 0.00487805 0.0007833 ||| 0-0 1-0 ||| 82 615 3 ||| |||
will bring ||| donesu ||| 0.0226244 0.0112596 0.00813008 0.00059725 ||| 0-0 1-0 ||| 221 615 5 ||| |||
will bring ||| donese ||| 0.0191083 0.00479256 0.00487805 0.00035345 ||| 0-0 1-0 ||| 157 615 3 ||| |||
will bring ||| přivedu ||| 0.0282686 0.0390726 0.0130081 0.0029024 ||| 0-0 1-0 ||| 283 615 8 ||| |||
will bring ||| přiveze ||| 0.038835 0.0122281 0.00650406 0.0006232 ||| 0-0 1-0 ||| 103 615 4 ||| |||
will bring ||| povede ||| 0.00255102 0.00092423 0.0113821 0.0012747 ||| 0-0 1-0 ||| 2744 615 7 ||| |||
will bring ||| přineseš ||| 0.0212766 0.0316327 0.00325203 0.00124895 ||| 0-0 1-0 ||| 94 615 2 ||| |||
will bring ||| zavedu ||| 0.00925926 0.00231905 0.00325203 9.205e-05 ||| 0-0 1-0 ||| 216 615 2 ||| |||
will bring ||| přineseme ||| 0.0217391 0.0237827 0.00325203 0.0006812 ||| 0-0 1-0 ||| 92 615 2 ||| |||
will call ||| se ozvu ||| 0.04 0.000837748 0.00268817 5.2329e-05 ||| 0-0 1-1 ||| 25 372 1 ||| |||
will call ||| , zavolám ||| 0.0311284 0.000121327 0.0215054 0.000357388 ||| 0-0 1-1 ||| 257 372 8 ||| |||
will call ||| říkejme ||| 0.0149254 0.00128555 0.00537634 0.0016611 ||| 1-0 ||| 134 372 2 ||| |||
will call ||| . zavolám ||| 0.142857 0.0580489 0.00537634 0.0018289 ||| 1-1 ||| 14 372 2 ||| |||
will call ||| zavoláš ||| 0.0245614 0.0341531 0.0188172 0.0024403 ||| 0-0 1-0 ||| 285 372 7 ||| |||
will call ||| zavoláte ||| 0.0166667 0.0207629 0.00806452 0.00114825 ||| 0-0 1-0 ||| 180 372 3 ||| |||
will call ||| zavoláme ||| 0.0267857 0.0473123 0.0241935 0.00270245 ||| 0-0 1-0 ||| 336 372 9 ||| |||
will call ||| zavolám ||| 0.0449438 0.0580489 0.311828 0.0209149 ||| 0-0 1-0 ||| 2581 372 116 ||| |||
will call ||| bude říkat ||| 0.03125 0.0316834 0.00537634 0.00330278 ||| 0-0 1-1 ||| 64 372 2 ||| |||
will call ||| zavolá ||| 0.0452586 0.0198124 0.112903 0.00516075 ||| 0-0 1-0 ||| 928 372 42 ||| |||
will call ||| budou nazývat ||| 0.333333 0.0851216 0.00537634 0.000245911 ||| 0-0 1-1 ||| 6 372 2 ||| |||
will call ||| zavolat ||| 0.00192149 0.0026516 0.0188172 0.0247538 ||| 0-0 1-0 ||| 3643 372 7 ||| |||
will call ||| zavolají ||| 0.0561224 0.0307153 0.0295699 0.00134305 ||| 0-0 1-0 ||| 196 372 11 ||| |||
will call ||| políčko k vyzvednutí ||| 1 8.7344e-05 0.00537634 1.81283e-13 ||| 0-2 1-2 ||| 2 372 2 ||| |||
will call ||| budu volat ||| 0.130435 0.0677415 0.00806452 0.000267951 ||| 0-0 1-1 ||| 23 372 3 ||| |||
will call ||| svolá ||| 0.0052356 0.000130155 0.00537634 0.00015885 ||| 0-0 1-0 ||| 382 372 2 ||| |||
will call ||| svolám ||| 0.0217391 0.000384883 0.00268817 0.000367 ||| 1-0 ||| 46 372 1 ||| |||
will call ||| odvolá ||| 0.00943396 0.000566892 0.00537634 0.0001159 ||| 1-0 ||| 212 372 2 ||| |||
will call ||| objednám ||| 0.027027 0.00270258 0.00537634 5.17e-05 ||| 0-0 1-0 ||| 74 372 2 ||| |||
will call ||| tak zavolám ||| 0.0666667 0.0293433 0.00268817 4.07045e-05 ||| 0-0 0-1 1-1 ||| 15 372 1 ||| |||
will call ||| jí zavolám ||| 0.0666667 0.0294526 0.00537634 1.11142e-05 ||| 0-0 0-1 1-1 ||| 30 372 2 ||| |||
will call ||| tam zavolám ||| 0.285714 0.00240302 0.00537634 9.13409e-05 ||| 0-0 1-1 ||| 7 372 2 ||| |||
will call ||| ti zavolám ||| 0.0391061 0.00880945 0.0188172 0.000273823 ||| 0-0 1-1 ||| 179 372 7 ||| |||
will call ||| nazvu ||| 0.125 0.0425 0.00806452 0.0001677 ||| 0-0 1-0 ||| 24 372 3 ||| |||
will call ||| nazvou ||| 0.117647 0.0442177 0.00537634 0.0001308 ||| 0-0 1-0 ||| 17 372 2 ||| |||
will claim to ||| bude tvrdit , že ||| 0.1 0.00113681 1 2.07411e-06 ||| 0-0 1-1 2-3 ||| 20 2 2 ||| |||
will claim ||| bude tvrdit , ||| 0.16 0.0241686 0.125 0.000175075 ||| 0-0 1-1 ||| 25 32 4 ||| |||
will claim ||| bude tvrdit ||| 0.111111 0.0241686 0.125 0.000554041 ||| 0-0 1-1 ||| 36 32 4 ||| |||
will claim ||| budu požadovat ||| 0.0666667 0.0202224 0.03125 0.000436001 ||| 0-0 1-1 ||| 15 32 1 ||| |||
will claim ||| tvrdit , ||| 0.000825764 0.000262072 0.03125 0.00134536 ||| 1-0 ||| 1211 32 1 ||| |||
will claim ||| tvrdit ||| 0.000555556 0.000262072 0.03125 0.0042575 ||| 1-0 ||| 1800 32 1 ||| |||
will continue to be ||| bude i nadále ||| 0.0414634 6.09535e-05 0.10303 0.00099502 ||| 0-0 1-1 1-2 2-2 ||| 410 165 17 ||| |||
will continue to be ||| bude nadále ||| 0.0211416 0.00336495 0.0606061 0.00855115 ||| 0-0 3-0 1-1 2-1 ||| 473 165 10 ||| |||
will continue to be ||| bude pokračovat ||| 0.00243605 0.0028438 0.0121212 0.0125524 ||| 0-0 3-0 1-1 2-1 ||| 821 165 2 ||| |||
will continue to be ||| bude stále ||| 0.017341 2.90547e-07 0.0181818 0.00107774 ||| 0-0 1-1 ||| 173 165 3 ||| |||
will continue to be ||| zůstanou ||| 0.00269397 9.11132e-07 0.030303 0.000379275 ||| 0-0 1-0 2-0 3-0 ||| 1856 165 5 ||| |||
will continue to be ||| zůstane ||| 0.000688389 6.63813e-07 0.0181818 0.0007088 ||| 0-0 1-0 2-0 3-0 ||| 4358 165 3 ||| |||
will continue to be ||| bude ||| 9.8846e-06 9.53625e-08 0.0121212 0.0459153 ||| 0-0 1-0 2-0 3-0 ||| 202335 165 2 ||| |||
will continue to be ||| zůstane i ||| 0.037037 8.34616e-07 0.00606061 5.74356e-05 ||| 0-0 1-0 2-0 3-0 1-1 ||| 27 165 1 ||| |||
will continue to be ||| budou i nadále k ||| 1 8.83636e-06 0.0242424 1.28794e-05 ||| 0-0 1-1 1-2 2-2 2-3 3-3 ||| 4 165 4 ||| |||
will continue to be ||| budou i nadále ||| 0.055336 6.65396e-05 0.0848485 0.0003863 ||| 0-0 1-1 1-2 2-2 ||| 253 165 14 ||| |||
will continue to be ||| budou i ||| 0.0340909 6.02642e-06 0.0181818 0.00190909 ||| 0-0 2-0 3-0 1-1 ||| 88 165 3 ||| |||
will continue to be ||| budou nadále ||| 0.037037 0.00399434 0.0545455 0.00331619 ||| 0-0 3-0 1-1 2-1 ||| 243 165 9 ||| |||
will continue to be ||| však bude ||| 0.00549451 1.63205e-09 0.00606061 2.64558e-05 ||| 1-0 3-1 ||| 182 165 1 ||| |||
will continue to be ||| v ||| 3.42736e-07 8.42125e-10 0.00606061 0.118869 ||| 1-0 ||| 2.9177e+06 165 1 ||| |||
will continue to be ||| v případě ||| 2.14011e-05 9.23192e-11 0.0181818 1.42762e-05 ||| 1-0 2-1 ||| 140180 165 3 ||| |||
will continue to be ||| si nadále ||| 0.157895 9.28002e-07 0.0181818 0.00137816 ||| 0-0 0-1 1-1 ||| 19 165 3 ||| |||
will continue to be ||| i nadále jim budou ||| 1 5.30068e-06 0.0181818 9.76169e-11 ||| 0-0 0-1 1-1 2-2 3-3 ||| 3 165 3 ||| |||
will continue to be ||| i nadále ||| 0.000482393 4.86168e-06 0.0181818 0.00512 ||| 1-0 0-1 1-1 2-1 ||| 6219 165 3 ||| |||
will continue to be ||| se budou ||| 0.000300752 2.72225e-09 0.00606061 0.000737937 ||| 0-0 2-1 3-1 ||| 3325 165 1 ||| |||
will continue to be ||| se budou i nadále ||| 0.15 3.48958e-05 0.0181818 2.82842e-05 ||| 0-0 0-1 1-2 1-3 2-3 ||| 20 165 3 ||| |||
will continue to be ||| se bude ||| 0.000293556 3.75988e-09 0.0121212 0.00205345 ||| 0-0 1-0 2-0 3-1 ||| 6813 165 2 ||| |||
will continue to be ||| se bude pokračovat ||| 0.2 0.00149776 0.0121212 0.000919065 ||| 0-0 0-1 3-1 1-2 2-2 ||| 10 165 2 ||| |||
will continue to be ||| , bude nadále ||| 0.0869565 0.00336495 0.0121212 0.00270213 ||| 0-1 3-1 1-2 2-2 ||| 23 165 2 ||| |||
will continue to be ||| se bude pokračovat ve ||| 0.25 2.64995e-05 0.0121212 4.38567e-05 ||| 0-0 0-1 1-2 2-2 1-3 ||| 8 165 2 ||| |||
will continue to be ||| se bude i nadále ||| 0.0384615 3.21027e-05 0.00606061 7.28536e-05 ||| 0-0 0-1 1-2 1-3 2-3 ||| 26 165 1 ||| |||
will continue to be ||| nadále budou ||| 0.0588235 0.000291844 0.0121212 0.00186514 ||| 1-0 2-0 3-1 ||| 34 165 2 ||| |||
will continue to be ||| nadále považován ||| 0.153846 1.7054e-05 0.0121212 2.65812e-05 ||| 1-0 2-0 3-1 ||| 13 165 2 ||| |||
will continue to be ||| nadále ||| 0.00060896 9.4563e-06 0.0424242 0.0631848 ||| 0-0 1-0 2-0 ||| 11495 165 7 ||| |||
will continue to be ||| budou k ||| 0.00478469 7.6922e-06 0.00606061 0.00157846 ||| 0-0 1-0 3-0 2-1 ||| 209 165 1 ||| |||
will continue to be ||| budou v ||| 0.00126263 8.21998e-07 0.00606061 0.0021427 ||| 0-0 1-0 2-0 3-0 1-1 ||| 792 165 1 ||| |||
will continue to ||| bude ||| 2.96538e-05 4.15995e-07 0.0047619 0.130133 ||| 0-0 ||| 202335 1260 6 ||| |||
will continue to ||| se nadále ||| 0.0169492 0.000776672 0.00555556 0.00690886 ||| 0-0 1-1 2-1 ||| 413 1260 7 ||| |||
will continue to ||| se budou nadále ||| 0.285714 0.00833431 0.00634921 0.00034905 ||| 0-0 0-1 1-2 2-2 ||| 28 1260 8 ||| |||
will continue to ||| se budou i nadále ||| 0.35 0.00428484 0.00555556 2.82842e-05 ||| 0-0 0-1 1-2 1-3 2-3 ||| 20 1260 7 ||| |||
will continue to ||| se bude nadále ||| 0.285714 0.00766724 0.00634921 0.000899071 ||| 0-0 0-1 1-2 2-2 ||| 28 1260 8 ||| |||
will continue to ||| nadále budu ||| 0.875 0.0154211 0.0111111 0.00195961 ||| 1-0 2-0 0-1 ||| 16 1260 14 ||| |||
will continue to ||| budou dále ||| 0.0661157 0.000197035 0.00634921 0.000636345 ||| 0-0 1-1 2-1 ||| 121 1260 8 ||| |||
will continue to ||| se bude i nadále ||| 0.269231 0.00394189 0.00555556 7.28536e-05 ||| 0-0 0-1 1-2 1-3 2-3 ||| 26 1260 7 ||| |||
will continue to ||| bude pokračovat ||| 0.00974421 0.0123031 0.00634921 0.0180251 ||| 0-0 1-1 2-1 ||| 821 1260 8 ||| |||
will continue to ||| bude pokračovat ve ||| 0.164179 0.00617814 0.00873016 0.000598986 ||| 0-0 1-1 2-1 1-2 ||| 67 1260 11 ||| |||
will continue to ||| bude pokračovat v ||| 0.231061 0.00617174 0.0484127 0.00214263 ||| 0-0 1-1 2-1 1-2 ||| 264 1260 61 ||| |||
will continue to ||| nadále ||| 0.00817747 0.00116114 0.0746032 0.0631848 ||| 0-0 1-0 2-0 ||| 11495 1260 94 ||| |||
will continue to ||| se bude dále ||| 0.36 9.50618e-05 0.00714286 0.00012001 ||| 0-0 0-1 1-2 2-2 ||| 25 1260 9 ||| |||
will continue to ||| budou i nadále ||| 0.41502 0.00817038 0.0833333 0.0003863 ||| 0-0 1-1 1-2 2-2 ||| 253 1260 105 ||| |||
will continue to ||| i nadále ||| 0.011899 0.000596965 0.0587302 0.00512 ||| 1-0 0-1 1-1 2-1 ||| 6219 1260 74 ||| |||
will continue to ||| budou nadále ||| 0.292181 0.015892 0.0563492 0.00476725 ||| 0-0 1-1 2-1 ||| 243 1260 71 ||| |||
will continue to ||| bude nadále ||| 0.35518 0.0145578 0.133333 0.0122793 ||| 0-0 1-1 2-1 ||| 473 1260 168 ||| |||
will continue to ||| budou pokračovat v ||| 0.13253 0.00673734 0.00873016 0.000831842 ||| 0-0 1-1 2-1 1-2 ||| 83 1260 11 ||| |||
will continue to ||| bude nadále možné ||| 0.869565 0.00944585 0.015873 1.75238e-05 ||| 0-0 1-1 2-1 2-2 ||| 23 1260 20 ||| |||
will continue to ||| pokračuje v ||| 0.0615942 6.76099e-05 0.0269841 0.000403348 ||| 0-0 1-0 2-0 1-1 ||| 552 1260 34 ||| |||
will continue to ||| bude mít nadále ||| 0.321429 0.00875081 0.00714286 1.47315e-05 ||| 0-0 2-1 1-2 2-2 ||| 28 1260 9 ||| |||
will continue to ||| bude i nadále ||| 0.378049 0.00748447 0.123016 0.00099502 ||| 0-0 1-1 1-2 2-2 ||| 410 1260 155 ||| |||
will continue to ||| bude dál ||| 0.0296296 0.000112329 0.00634921 0.00107452 ||| 0-0 1-1 2-1 ||| 270 1260 8 ||| |||
will continue to ||| dále ||| 0.00030123 1.95718e-06 0.00873016 0.0125954 ||| 1-0 2-0 ||| 36517 1260 11 ||| |||
will continue to ||| bude dále ||| 0.159091 0.000180494 0.0277778 0.00163908 ||| 0-0 1-1 2-1 ||| 220 1260 35 ||| |||
will continue to ||| nadále se bude ||| 0.25 0.000120959 0.0015873 4.92779e-06 ||| 0-0 1-0 0-1 2-1 2-2 ||| 8 1260 2 ||| |||
will continue to ||| budou i v budoucnu podléhat ||| 1 0.000302711 0.0015873 1.12278e-10 ||| 0-0 1-1 1-2 1-3 2-4 ||| 2 1260 2 ||| |||
will continue to ||| dál ||| 0.000140233 1.21804e-06 0.00238095 0.0082571 ||| 1-0 2-0 ||| 21393 1260 3 ||| |||
will continue to ||| pokračovat v ||| 0.000817494 1.19305e-05 0.0031746 0.0088796 ||| 0-0 1-0 1-1 2-1 ||| 4893 1260 4 ||| |||
will continue to ||| se ||| 1.63284e-06 1.62664e-08 0.00238095 0.040175 ||| 0-0 1-0 2-0 ||| 1.83729e+06 1260 3 ||| |||
will continue to ||| nadále bude ||| 0.0697674 0.00785947 0.00238095 0.00822243 ||| 0-0 1-0 2-0 0-1 ||| 43 1260 3 ||| |||
will continue to ||| bude možné nadále ||| 0.75 0.00944585 0.00238095 1.75238e-05 ||| 0-0 2-1 1-2 2-2 ||| 4 1260 3 ||| |||
will continue to ||| i nadále budou mít ||| 1 0.000120716 0.0047619 6.43346e-09 ||| 1-0 0-1 1-1 2-3 ||| 6 1260 6 ||| |||
will continue to ||| , bude možné nadále ||| 1 0.00944585 0.00238095 5.53747e-06 ||| 0-1 2-2 1-3 2-3 ||| 3 1260 3 ||| |||
will continue to ||| i nadále budou ||| 0.153846 0.00817038 0.0031746 0.0003863 ||| 1-0 1-1 2-1 0-2 ||| 26 1260 4 ||| |||
will continue to ||| i nadále jim ||| 1 2.10894e-05 0.00238095 4.93858e-09 ||| 0-0 0-1 1-1 2-2 ||| 3 1260 3 ||| |||
will continue to ||| vás bude i nadále ||| 1 0.00439626 0.00238095 5.45072e-06 ||| 0-0 0-1 1-2 1-3 2-3 ||| 3 1260 3 ||| |||
will continue to ||| bude stále ||| 0.017341 3.56762e-05 0.00238095 0.00107774 ||| 0-0 1-1 ||| 173 1260 3 ||| |||
will continue to ||| se budou dále ||| 0.266667 0.000103332 0.0031746 4.6592e-05 ||| 0-0 0-1 1-2 2-2 ||| 15 1260 4 ||| |||
will continue to ||| není nadále ||| 0.040404 0.000193201 0.0031746 0.000184143 ||| 0-0 1-1 2-1 ||| 99 1260 4 ||| |||
will continue to ||| bude pokračovat , aby ||| 0.75 0.0455596 0.00238095 0.000543233 ||| 0-0 1-1 2-3 ||| 4 1260 3 ||| |||
will continue to ||| bude pokračovat , chcete - ||| 1 0.0253431 0.00238095 6.55636e-07 ||| 0-0 1-1 2-3 ||| 3 1260 3 ||| |||
will continue to ||| bude pokračovat , chcete ||| 1 0.0253431 0.00238095 6.45032e-05 ||| 0-0 1-1 2-3 ||| 3 1260 3 ||| |||
will continue to ||| v případě ||| 2.14011e-05 1.13359e-08 0.00238095 1.42762e-05 ||| 1-0 2-1 ||| 140180 1260 3 ||| |||
will continue to ||| zůstává ||| 0.000479386 6.86552e-07 0.00238095 0.0032868 ||| 1-0 ||| 6258 1260 3 ||| |||
will continue to ||| budou dál ||| 0.119048 0.000122624 0.00396825 0.000417165 ||| 0-0 1-1 2-1 ||| 42 1260 5 ||| |||
will continue ||| budete pokračovat ||| 0.00819672 0.0965685 0.00202634 0.00320892 ||| 0-0 1-1 ||| 244 987 2 ||| |||
will continue ||| bude proces pokračovat ||| 1 0.0438915 0.00405269 3.72283e-06 ||| 0-0 1-1 1-2 ||| 4 987 4 ||| |||
will continue ||| bude proces pokračovat , ||| 1 0.0438915 0.00405269 1.1764e-06 ||| 0-0 1-1 1-2 ||| 4 987 4 ||| |||
will continue ||| , bude proces pokračovat , ||| 1 0.0438915 0.00405269 3.71739e-07 ||| 0-1 1-2 1-3 ||| 4 987 4 ||| |||
will continue ||| , bude proces pokračovat ||| 1 0.0438915 0.00405269 1.1764e-06 ||| 0-1 1-2 1-3 ||| 4 987 4 ||| |||
will continue ||| se provádí až ||| 0.142857 2.14512e-06 0.00303951 1.08887e-08 ||| 0-0 1-1 1-2 ||| 21 987 3 ||| |||
will continue ||| budou ||| 0.000117593 1.37035e-05 0.00911854 0.050522 ||| 0-0 ||| 76535 987 9 ||| |||
will continue ||| bude pokračovat ||| 0.327649 0.0877372 0.272543 0.0359694 ||| 0-0 1-1 ||| 821 987 269 ||| |||
will continue ||| nadále ||| 0.00295781 0.00383565 0.0344478 0.0939498 ||| 0-0 1-0 ||| 11495 987 34 ||| |||
will continue ||| budou stále ||| 0.0380952 0.00117523 0.00405269 0.000418413 ||| 0-0 1-1 ||| 105 987 4 ||| |||
will continue ||| bude pokračovat ve ||| 0.313433 0.0440581 0.0212766 0.00119529 ||| 0-0 1-1 1-2 ||| 67 987 21 ||| |||
will continue ||| bude přetrvávat ||| 0.0930233 0.015295 0.00405269 9.76648e-05 ||| 0-0 1-1 ||| 43 987 4 ||| |||
will continue ||| will continue ||| 1 0.708018 0.00506586 2.91231e-06 ||| 0-0 1-1 ||| 5 987 5 ||| |||
will continue ||| budou pokračovat ||| 0.18617 0.0957779 0.035461 0.0139645 ||| 0-0 1-1 ||| 188 987 35 ||| |||
will continue ||| bude se pokračovat v ||| 0.833333 0.0231803 0.00506586 0.000313056 ||| 0-0 0-1 1-2 1-3 ||| 6 987 5 ||| |||
will continue ||| se ||| 3.26568e-06 6.69718e-07 0.00607903 0.0732182 ||| 0-0 ||| 1.83729e+06 987 6 ||| |||
will continue ||| budou pokračovat , ||| 0.294118 0.0957779 0.00506586 0.00441274 ||| 0-0 1-1 ||| 17 987 5 ||| |||
will continue ||| bude pokračovat v ||| 0.0606061 0.0440125 0.0162107 0.00427566 ||| 0-0 1-1 1-2 ||| 264 987 16 ||| |||
will continue ||| ještě ||| 7.08876e-05 1.92901e-06 0.00607903 0.00207665 ||| 0-0 1-0 ||| 84641 987 6 ||| |||
will continue ||| bude stále ||| 0.0289017 0.00107657 0.00506586 0.00107774 ||| 0-0 1-1 ||| 173 987 5 ||| |||
will continue ||| pokračují ||| 0.0178971 0.0037362 0.00810537 0.00343105 ||| 0-0 1-0 ||| 447 987 8 ||| |||
will continue ||| bude dále ||| 0.0227273 0.00199446 0.00506586 0.00308164 ||| 0-0 1-1 ||| 220 987 5 ||| |||
will continue ||| i nadále budou ||| 0.230769 0.00197199 0.00607903 5.36256e-06 ||| 1-0 0-1 1-1 ||| 26 987 6 ||| |||
will continue ||| se pokračuje ||| 0.449275 0.000882768 0.0314083 0.000729546 ||| 0-0 1-1 ||| 69 987 31 ||| |||
will continue ||| v ||| 2.39915e-06 3.12033e-06 0.0070922 0.118869 ||| 1-0 ||| 2.9177e+06 987 7 ||| |||
will continue ||| budou dál ||| 0.0714286 0.00326065 0.00303951 0.000819826 ||| 0-0 1-1 ||| 42 987 3 ||| |||
will continue ||| pokračuje ||| 0.00297746 0.00135264 0.0070922 0.0050482 ||| 0-0 1-0 ||| 2351 987 7 ||| |||
will continue ||| i nadále ||| 0.0062711 0.00197199 0.0395137 0.00761295 ||| 1-0 0-1 1-1 ||| 6219 987 39 ||| |||
will continue ||| se bude nadále ||| 0.107143 0.0253276 0.00303951 0.00178237 ||| 0-0 0-1 1-2 ||| 28 987 3 ||| |||
will continue ||| bude trvat ||| 0.00367985 0.00206 0.00405269 0.000299748 ||| 0-0 1-1 ||| 1087 987 4 ||| |||
will continue ||| bude i nadále ||| 0.0317073 0.0247238 0.0131712 0.00197259 ||| 0-0 1-1 1-2 ||| 410 987 13 ||| |||
will continue ||| se bude ||| 0.001321 1.66232e-05 0.00911854 0.00481995 ||| 0-0 0-1 1-1 ||| 6813 987 9 ||| |||
will continue ||| budeme pokračovat ||| 0.015444 0.0797131 0.00405269 0.00333654 ||| 0-0 1-1 ||| 259 987 4 ||| |||
will continue ||| pokračovat ||| 0.00191475 0.00144315 0.0233029 0.138272 ||| 0-0 1-0 ||| 12012 987 23 ||| |||
will continue ||| bude pokračovat i ||| 0.409091 0.0445477 0.0182371 0.00291467 ||| 0-0 1-1 1-2 ||| 44 987 18 ||| |||
will continue ||| bude nadále pokračovat ||| 0.157895 0.0473676 0.00303951 0.00672861 ||| 0-0 1-1 1-2 ||| 19 987 3 ||| |||
will continue ||| dál ||| 0.000140233 9.97133e-06 0.00303951 0.00813795 ||| 0-0 1-0 ||| 21393 987 3 ||| |||
will continue ||| bude nadále ||| 0.05074 0.0480896 0.0243161 0.0243433 ||| 0-0 1-1 ||| 473 987 24 ||| |||
will continue ||| bude ||| 0.000118615 1.25531e-05 0.0243161 0.130133 ||| 0-0 ||| 202335 987 24 ||| |||
will continue ||| pokračovat ve ||| 0.00385505 0.000724693 0.00506586 0.00459488 ||| 0-0 1-0 1-1 ||| 1297 987 5 ||| |||
will continue ||| bude pokracovat ve ||| 1 0.0261012 0.00303951 7.83583e-07 ||| 0-0 1-1 1-2 ||| 3 987 3 ||| |||
will continue ||| i v budoucnu ||| 0.0254237 1.62894e-06 0.00303951 2.96175e-08 ||| 0-0 1-1 1-2 ||| 118 987 3 ||| |||
will continue ||| dále ||| 8.21535e-05 1.90406e-05 0.00303951 0.0119928 ||| 0-0 1-0 ||| 36517 987 3 ||| |||
will continue ||| bude pokračovat , ||| 0.141026 0.0877372 0.0222898 0.0113662 ||| 0-0 1-1 ||| 156 987 22 ||| |||
will continue ||| bude pokračovat i nadále ||| 0.375 0.0457283 0.00303951 0.000545233 ||| 0-0 1-1 1-2 1-3 ||| 8 987 3 ||| |||
will die here ||| tady umřeme ||| 0.181818 0.00780029 0.153846 0.00153013 ||| 2-0 0-1 1-1 ||| 11 13 2 ||| |||
will die here ||| tady umřu ||| 0.0526316 0.00827569 0.0769231 0.00351258 ||| 2-0 0-1 1-1 ||| 19 13 1 ||| |||
will die here ||| tady zemřeme ||| 0.111111 0.0125859 0.0769231 0.0031077 ||| 2-0 0-1 1-1 ||| 9 13 1 ||| |||
will die here ||| tady zemřeš ||| 0.25 0.0222238 0.153846 0.00448387 ||| 2-0 0-1 1-1 ||| 8 13 2 ||| |||
will die ||| umřeme ||| 0.0382514 0.0196589 0.00850547 0.00513865 ||| 0-0 1-0 ||| 183 823 7 ||| |||
will die ||| umřete ||| 0.139241 0.0419096 0.0133657 0.0019322 ||| 0-0 1-0 ||| 79 823 11 ||| |||
will die ||| , umře ||| 0.114286 0.00890254 0.00486027 9.26522e-05 ||| 0-0 0-1 1-1 ||| 35 823 4 ||| |||
will die ||| umře ||| 0.0742496 0.0176993 0.0571081 0.01015 ||| 0-0 1-0 ||| 633 823 47 ||| |||
will die ||| umřeš ||| 0.0524345 0.0265134 0.0170109 0.0055606 ||| 0-0 1-0 ||| 267 823 14 ||| |||
will die ||| , zemře ||| 0.0671141 0.00964069 0.0121507 0.000293544 ||| 0-0 0-1 1-1 ||| 149 823 10 ||| |||
will die ||| , zemřeš ||| 0.047619 0.00017305 0.0036452 0.000271794 ||| 0-0 1-1 ||| 63 823 3 ||| |||
will die ||| umřou ||| 0.0493827 0.0268508 0.00972054 0.0031896 ||| 0-0 1-0 ||| 162 823 8 ||| |||
will die ||| zemřít ||| 0.00141924 0.00162252 0.00607533 0.0751316 ||| 0-0 1-0 ||| 3523 823 5 ||| |||
will die ||| zemřu ||| 0.0565068 0.0340028 0.0400972 0.0130165 ||| 0-0 1-0 ||| 584 823 33 ||| |||
will die ||| umřu ||| 0.0696798 0.020857 0.0449575 0.0117963 ||| 0-0 1-0 ||| 531 823 37 ||| |||
will die ||| umře , ||| 0.0144928 0.0176993 0.00243013 0.00320736 ||| 0-0 1-0 ||| 138 823 2 ||| |||
will die ||| zemřou ||| 0.121585 0.038324 0.108141 0.0132629 ||| 0-0 1-0 ||| 732 823 89 ||| |||
will die ||| nezemře ||| 0.026087 0.0175871 0.0072904 0.0029542 ||| 0-0 1-0 ||| 230 823 6 ||| |||
will die ||| nich zemře ||| 0.181818 0.00993165 0.00243013 1.9754e-05 ||| 0-0 1-1 ||| 11 823 2 ||| |||
will die ||| zemřou , ||| 0.0384615 0.038324 0.00607533 0.00419103 ||| 0-0 1-0 ||| 130 823 5 ||| |||
will die ||| zemřeš ||| 0.0813397 0.0560099 0.0619684 0.0150582 ||| 0-0 1-0 ||| 627 823 51 ||| |||
will die ||| zemřete ||| 0.06 0.0460294 0.0255164 0.0086424 ||| 0-0 1-0 ||| 350 823 21 ||| |||
will die ||| umírat ||| 0.00310078 0.00103095 0.00243013 0.0223995 ||| 1-0 ||| 645 823 2 ||| |||
will die ||| zemřeme ||| 0.0504808 0.0317199 0.0255164 0.0104366 ||| 0-0 1-0 ||| 416 823 21 ||| |||
will die ||| jich zemře ||| 0.3 0.00113697 0.0036452 9.32596e-06 ||| 0-0 1-1 ||| 10 823 3 ||| |||
will die ||| budou umírat ||| 0.129032 0.103788 0.00486027 0.00113167 ||| 0-0 1-1 ||| 31 823 4 ||| |||
will die ||| zahubí ||| 0.0246914 0.00286866 0.00243013 9.415e-05 ||| 0-0 1-0 ||| 81 823 2 ||| |||
will die ||| zahyne ||| 0.0308642 0.0158728 0.00607533 0.0013832 ||| 0-0 1-0 ||| 162 823 5 ||| |||
will die ||| pojdou ||| 0.266667 0.0864197 0.00486027 0.0001947 ||| 0-0 1-0 ||| 15 823 4 ||| |||
will die ||| zemře ||| 0.0703911 0.0191709 0.229648 0.0321576 ||| 0-0 1-0 ||| 2685 823 189 ||| |||
will die ||| přijde o život ||| 0.15 0.000124117 0.0036452 5.44927e-08 ||| 0-0 1-2 ||| 20 823 3 ||| |||
will die ||| zahyneme ||| 0.0526316 0.0166352 0.0036452 0.00055595 ||| 0-0 1-0 ||| 57 823 3 ||| |||
will die ||| zahynete ||| 0.133333 0.0129271 0.00243013 0.00019645 ||| 0-0 1-0 ||| 15 823 2 ||| |||
will die ||| zemře , ||| 0.0069735 0.0191709 0.00607533 0.0101617 ||| 0-0 1-0 ||| 717 823 5 ||| |||
will die ||| zahyneš ||| 0.208333 0.0591716 0.00607533 0.000415 ||| 0-0 1-0 ||| 24 823 5 ||| |||
will die ||| zahynou ||| 0.0535714 0.0296156 0.0109356 0.002074 ||| 0-0 1-0 ||| 168 823 9 ||| |||
will die ||| zemře stejně ||| 0.333333 0.010222 0.00243013 2.13462e-05 ||| 0-0 1-0 0-1 ||| 6 823 2 ||| |||
will die ||| zemřeš , ||| 0.0206186 0.0560099 0.00243013 0.00475834 ||| 0-0 1-0 ||| 97 823 2 ||| |||
will die ||| chcípne ||| 0.0952381 0.0262985 0.00243013 0.00027665 ||| 0-0 1-0 ||| 21 823 2 ||| |||
will die ||| ale zemře ||| 0.4 0.00959638 0.00243013 2.4086e-06 ||| 0-0 0-1 1-1 ||| 5 823 2 ||| |||
will die ||| raději zemře ||| 0.111111 7.74897e-05 0.00243013 5.54207e-07 ||| 0-0 1-1 ||| 18 823 2 ||| |||
will die ||| raději zemře , ||| 0.133333 7.74897e-05 0.00243013 1.75127e-07 ||| 0-0 1-1 ||| 15 823 2 ||| |||
will die ||| stejně umře ||| 0.2 0.00945882 0.00243013 1.33456e-05 ||| 0-0 1-1 ||| 10 823 2 ||| |||
will die ||| smrt ||| 0.000151114 8.69664e-05 0.00243013 0.0249672 ||| 1-0 ||| 13235 823 2 ||| |||
will draw ||| bude vycházet ||| 0.00238663 0.002029 0.0192308 0.000605782 ||| 0-0 1-1 ||| 419 52 1 ||| |||
will draw ||| bude čerpat ||| 0.0588235 0.0162886 0.0192308 0.00196881 ||| 0-0 1-1 ||| 17 52 1 ||| |||
will draw ||| budou vyvozeny ||| 0.333333 0.0106443 0.0384615 1.5677e-05 ||| 0-0 1-1 ||| 6 52 2 ||| |||
will draw ||| odlákám ||| 0.166667 0.0409058 0.0192308 0.0002785 ||| 0-0 1-0 ||| 6 52 1 ||| |||
will draw ||| odvedu ||| 0.00588235 0.00109074 0.0192308 0.00018695 ||| 0-0 1-0 ||| 170 52 1 ||| |||
will draw ||| povolí vykreslování ||| 1 0.000119765 0.0384615 1.61994e-08 ||| 0-0 1-1 ||| 2 52 2 ||| |||
will draw ||| přitáhne ||| 0.00576369 0.0180219 0.0384615 0.00970865 ||| 0-0 1-0 ||| 347 52 2 ||| |||
will end . ||| bude ukončena . ||| 0.234375 0.00692447 0.365854 0.000168672 ||| 0-0 1-1 2-2 ||| 64 41 15 ||| |||
will end . ||| skončí . ||| 0.0289575 0.00602623 0.365854 0.00786145 ||| 0-0 1-0 2-1 ||| 518 41 15 ||| |||
will end ||| tak skončí ||| 0.047619 0.000261876 0.00348432 3.00509e-05 ||| 0-0 1-1 ||| 21 287 1 ||| |||
will end ||| rady skončí ||| 0.25 1.24995e-06 0.00348432 5.40428e-08 ||| 0-0 1-1 ||| 4 287 1 ||| |||
will end ||| se nakonec ||| 0.00225479 0.000508243 0.00696864 0.00199473 ||| 0-0 1-1 ||| 887 287 2 ||| |||
will end ||| bude ukončen , ||| 0.4 0.0121975 0.00696864 5.59582e-05 ||| 0-0 1-1 ||| 5 287 2 ||| |||
will end ||| bude ukončen ||| 0.0218579 0.0121975 0.0139373 0.000177085 ||| 0-0 1-1 ||| 183 287 4 ||| |||
will end ||| bude ukončena ||| 0.111111 0.00816557 0.0557491 0.000177085 ||| 0-0 1-1 ||| 144 287 16 ||| |||
will end ||| platnost končí ||| 0.025974 0.00138611 0.00696864 1.02157e-07 ||| 0-0 1-1 ||| 77 287 2 ||| |||
will end ||| skonči ||| 0.0208333 0.000341546 0.00696864 0.000361 ||| 1-0 ||| 96 287 2 ||| |||
will end ||| ukončí ||| 0.00696677 0.00379011 0.0452962 0.0013785 ||| 0-0 1-0 ||| 1866 287 13 ||| |||
will end ||| skončit ||| 0.00163577 0.00101504 0.010453 0.0046925 ||| 0-0 1-0 ||| 1834 287 3 ||| |||
will end ||| skončí , ||| 0.00385604 0.00710633 0.010453 0.00260809 ||| 0-0 1-0 ||| 778 287 3 ||| |||
will end ||| nastane ||| 0.00144823 1.62765e-05 0.00696864 0.0001341 ||| 0-0 1-0 ||| 1381 287 2 ||| |||
will end ||| nastane konec ||| 0.230769 0.00947146 0.010453 2.42413e-05 ||| 0-0 1-1 ||| 13 287 3 ||| |||
will end ||| skončí tak , ||| 0.0909091 0.00710633 0.00348432 7.44637e-06 ||| 0-0 1-0 ||| 11 287 1 ||| |||
will end ||| skončí tak ||| 0.0769231 0.00710633 0.00348432 2.35647e-05 ||| 0-0 1-0 ||| 13 287 1 ||| |||
will end ||| nakonec ||| 8.26071e-05 0.000408652 0.00696864 0.0139294 ||| 0-0 1-0 ||| 24211 287 2 ||| |||
will end ||| nakonec dopadne ||| 0.105263 0.000159235 0.00696864 6.38243e-06 ||| 0-0 1-0 1-1 ||| 19 287 2 ||| |||
will end ||| skončíš ||| 0.00740741 0.00884794 0.00696864 0.0014024 ||| 1-0 ||| 270 287 2 ||| |||
will end ||| končí ||| 0.00106752 0.00138611 0.0278746 0.00744675 ||| 0-0 1-0 ||| 7494 287 8 ||| |||
will end ||| skončím ||| 0.00826446 0.00566828 0.010453 0.00069625 ||| 0-0 1-0 ||| 363 287 3 ||| |||
will end ||| skončí ||| 0.0232462 0.00710633 0.393728 0.00825355 ||| 0-0 1-0 ||| 4861 287 113 ||| |||
will end ||| ukončíme ||| 0.0144928 0.011904 0.00348432 0.0001736 ||| 0-0 1-0 ||| 69 287 1 ||| |||
will even ||| vůbec ||| 0.000159166 9.90354e-06 0.0347826 0.0145351 ||| 1-0 ||| 25131 115 4 ||| |||
will even ||| vám i ||| 0.0119048 0.00564739 0.00869565 0.00307415 ||| 0-0 1-1 ||| 84 115 1 ||| |||
will even ||| tě dokonce ||| 0.1 0.0259175 0.00869565 0.000875998 ||| 0-0 1-1 ||| 10 115 1 ||| |||
will even ||| dokonce i ||| 0.000192585 0.000889146 0.0173913 0.0534458 ||| 1-0 1-1 ||| 10385 115 2 ||| |||
will even ||| dokonce si ||| 0.0169492 0.00909838 0.026087 0.00245507 ||| 1-0 0-1 ||| 177 115 3 ||| |||
will even ||| dokonce ||| 0.00124993 0.00155994 0.191304 0.167364 ||| 1-0 ||| 17601 115 22 ||| |||
will even ||| dáme i ||| 1 0.0114469 0.0173913 0.00032662 ||| 0-0 1-1 ||| 2 115 2 ||| |||
will even ||| i ||| 2.7133e-05 0.000218354 0.0695652 0.319339 ||| 1-0 ||| 294844 115 8 ||| |||
will even ||| ti i ||| 0.0344828 0.00320749 0.00869565 0.00223343 ||| 0-0 1-1 ||| 29 115 1 ||| |||
will even ||| tam dáme i ||| 1 0.0114469 0.0173913 2.47513e-07 ||| 0-1 1-2 ||| 2 115 2 ||| |||
will even ||| si ||| 8.07712e-06 3.93672e-06 0.0173913 0.0146691 ||| 0-0 ||| 247613 115 2 ||| |||
will even ||| si dokonce ||| 0.0197368 0.00909838 0.026087 0.00245507 ||| 0-0 1-1 ||| 152 115 3 ||| |||
will even ||| se ani nebude ||| 0.666667 0.000610348 0.0173913 9.02977e-07 ||| 0-0 1-1 1-2 ||| 3 115 2 ||| |||
will even ||| se dokonce ||| 0.00665188 0.00767504 0.026087 0.0122541 ||| 0-0 1-1 ||| 451 115 3 ||| |||
will even ||| dokonce se ||| 0.0021645 0.00767504 0.00869565 0.0122541 ||| 1-0 0-1 ||| 462 115 1 ||| |||
will even ||| bude dokonce ||| 0.0666667 0.14386 0.00869565 0.0217795 ||| 0-0 1-1 ||| 15 115 1 ||| |||
will even ||| bude ||| 4.9423e-06 1.01744e-05 0.00869565 0.0651319 ||| 0-0 1-0 ||| 202335 115 1 ||| |||
will get back to ||| , vrátíme se k ||| 0.111111 1.40987e-06 0.037037 1.16509e-07 ||| 0-0 1-1 2-1 2-2 3-3 ||| 9 27 1 ||| |||
will get back to ||| ozvu se ||| 0.015625 6.07577e-09 0.0740741 1.31509e-05 ||| 2-0 3-1 ||| 128 27 2 ||| |||
will get back to ||| se vrátím k ||| 0.0571429 2.69968e-05 0.0740741 6.65432e-05 ||| 0-0 1-0 2-1 3-2 ||| 35 27 2 ||| |||
will get back to ||| se ||| 5.4428e-07 1.56633e-10 0.037037 0.0908111 ||| 1-0 ||| 1.83729e+06 27 1 ||| |||
will get back to ||| zavolám ||| 0.000387447 1.49729e-06 0.037037 0.00106372 ||| 0-0 1-0 2-0 3-0 ||| 2581 27 1 ||| |||
will get back to ||| zpátky ||| 4.1651e-05 2.05962e-08 0.037037 0.113928 ||| 2-0 ||| 24009 27 1 ||| |||
will get back ||| , vrátíme se ||| 0.0113636 4.16066e-06 0.0217391 1.76439e-06 ||| 0-0 1-1 2-1 2-2 ||| 88 46 1 ||| |||
will get back ||| ozvu se ||| 0.0078125 5.34981e-06 0.0217391 2.40631e-05 ||| 2-0 0-1 1-1 ||| 128 46 1 ||| |||
will get back ||| ozvu ||| 0.0413793 0.00104013 0.130435 0.000188433 ||| 0-0 1-0 2-0 ||| 145 46 6 ||| |||
will get back ||| se ozvu . ||| 0.1 5.34981e-06 0.0217391 1.12406e-06 ||| 0-0 1-0 2-1 ||| 10 46 1 ||| |||
will get back ||| se ozvu ||| 0.04 5.34981e-06 0.0217391 2.40631e-05 ||| 0-0 1-0 2-1 ||| 25 46 1 ||| |||
will get back ||| se určitě dostaneš domů ||| 0.25 0.000146125 0.0217391 1.38108e-09 ||| 0-1 1-2 2-3 ||| 4 46 1 ||| |||
will get back ||| se vrátím ||| 0.00147384 7.96702e-05 0.0434783 0.00100771 ||| 0-0 1-0 2-1 ||| 1357 46 2 ||| |||
will get back ||| se vrátíme ||| 0.00316456 0.000106686 0.0434783 0.000461628 ||| 0-0 1-0 2-1 ||| 632 46 2 ||| |||
will get back ||| se vám ozvu ||| 0.0416667 4.6624e-06 0.0217391 4.25241e-08 ||| 0-0 1-1 2-2 ||| 24 46 1 ||| |||
will get back ||| se ||| 1.63284e-06 4.72656e-09 0.0652174 0.0908111 ||| 1-0 ||| 1.83729e+06 46 3 ||| |||
will get back ||| určitě dostaneš domů ||| 0.333333 0.000146125 0.0217391 3.27747e-08 ||| 0-0 1-1 2-2 ||| 3 46 1 ||| |||
will get back ||| vrátím se ||| 0.000981354 0.000929358 0.0217391 0.000292664 ||| 0-0 1-0 2-0 2-1 ||| 1019 46 1 ||| |||
will get back ||| vrátím ||| 0.000562746 0.00184289 0.0217391 0.00528063 ||| 0-0 1-0 2-0 ||| 1777 46 1 ||| |||
will get back ||| vrátíš ||| 0.00377358 0.000869072 0.0652174 0.0014819 ||| 0-0 1-0 2-0 ||| 795 46 3 ||| |||
will get back ||| zpátky ||| 8.33021e-05 1.87337e-05 0.0434783 0.113928 ||| 2-0 ||| 24009 46 2 ||| |||
will get ||| zaplatím ||| 0.00742942 0.00232732 0.00273224 0.00033055 ||| 0-0 1-0 ||| 673 1830 5 ||| |||
will get ||| dostanete ||| 0.0139824 0.0203446 0.0147541 0.00300995 ||| 0-0 1-0 ||| 1931 1830 27 ||| |||
will get ||| dostaneme ||| 0.0101657 0.0216815 0.0147541 0.005675 ||| 0-0 1-0 ||| 2656 1830 27 ||| |||
will get ||| to ||| 1.67381e-05 7.55413e-06 0.00819672 0.0137934 ||| 0-0 1-0 ||| 896161 1830 15 ||| |||
will get ||| seženu ||| 0.0359408 0.0417716 0.00928962 0.00129755 ||| 0-0 1-0 ||| 473 1830 17 ||| |||
will get ||| dostane ||| 0.0154246 0.00744963 0.0486339 0.00384755 ||| 0-0 1-0 ||| 5770 1830 89 ||| |||
will get ||| koupím ||| 0.00972763 0.00671441 0.00273224 0.0003536 ||| 0-0 1-0 ||| 514 1830 5 ||| |||
will get ||| dostaneš ||| 0.0209482 0.0266821 0.020765 0.0034985 ||| 0-0 1-0 ||| 1814 1830 38 ||| |||
will get ||| přinesu ||| 0.0340237 0.0333819 0.0125683 0.0011583 ||| 0-0 1-0 ||| 676 1830 23 ||| |||
